tree
version=v4
num_class=1
num_tree_per_iteration=1
label_index=0
max_feature_idx=21
objective=binary sigmoid:1
feature_names=rk_ret_1 rk_ret_5 rk_ret_10 rk_ret_20 rk_ret_60 rk_dev_ma_5 rk_dev_ma_10 rk_dev_ma_20 rk_dev_ma_60 rk_std_5 rk_std_20 rk_vol_ratio_5 rk_vol_ratio_20 rk_rsi_14 rk_macd rk_macd_signal rk_macd_hist rk_atr_14 rk_sector_eq_ret rk_sector_rel_strength sector_strength_rank industry_code
feature_infos=[0.0051546390168368816:1] [0.0051546390168368816:1] [0.0051546390168368816:1] [0.0051546390168368816:1] [0.0051546390168368816:1] [0.0051546390168368816:1] [0.0051546390168368816:1] [0.0051546390168368816:1] [0.0051546390168368816:1] [0.0051546390168368816:1] [0.0051546390168368816:1] [0.0051546390168368816:1] [0.0051546390168368816:1] [0.0051546390168368816:1] [0.0051546390168368816:1] [0.0051546390168368816:1] [0.0051546390168368816:1] [0.0051546390168368816:1] [0.0051546390168368816:1] [0.0051546390168368816:1] [0.0051546390168368816:1] -1:0:56:33:43:53:19:30:18:2:45:27:64:4:71:8:67:13:55:58:11:21:81:31:39:83:5:84:38:25:49:47:40:72:32:14:68:61:60:10:86:52:24:63:23:48:78:69:16:73:17:77:79:62:50:59:7:12:57:75:35:22:34:46:6:15:1:76:36:80:26:37:20:51:29:41:9
tree_sizes=7414 7458 7465 7181 7445 7469 7446 7491 7206 7540 7502 7502 7490 7484 7453 7522 7138 7441 7433 7426 7443 7495 7420 7387 7401 7465 7464 7401 7465 7465 7388 7411 7385 7198 7385 7368 7454 7202 7216 7395 7196 7186 7461 7409 7423 7403 7503 7398 7424 7380 7475 7198 7385 7377 7438 7473 7495 7203

Tree=0
num_leaves=64
num_cat=25
split_feature=3 12 21 21 5 21 15 21 8 12 21 21 21 0 15 15 21 21 21 10 21 10 16 8 8 21 11 5 5 0 21 11 21 9 21 6 4 21 16 10 5 21 3 21 8 21 21 21 12 0 14 6 21 21 21 18 21 16 4 6 10 10 16
split_gain=554.756 268.21 212.409 141.089 131.272 103.385 79.2873 66.6762 64.221 54.4631 50.001 48.2379 47.9697 44.7993 44.5297 47.5216 39.9821 39.7916 37.2441 36.733 43.769 33.8663 32.5002 32.132 31.9391 30.631 30.4305 29.8593 28.4809 27.941 27.2349 26.9932 28.615 29.3159 28.0359 26.6441 26.0227 25.7674 25.9558 25.2392 24.7113 24.254 23.2483 23.0503 22.4941 22.2353 22.1374 21.8232 21.7391 46.7472 21.4538 21.3618 22.1015 20.658 20.5373 20.1229 19.6794 24.2058 22.8535 21.2597 19.4544 21.3099 19.1366
threshold=0.67069521546363842 0.9106644093990327 0 1 0.69785943627357494 2 0.72651192545890819 3 0.64411979913711559 0.94066500663757335 4 5 6 0.10863353684544565 0.016420405358076099 0.54178306460380565 7 8 9 0.35331337153911596 10 0.087981201708316817 0.78236818313598644 0.33156487345695501 0.017804311588406566 11 0.59327682852745067 0.55672886967659008 0.59249195456504833 0.096682548522949233 12 0.084303505718708052 13 0.24585585296154025 14 0.084303505718708052 0.53813940286636364 15 0.25135150551795965 0.38920536637306219 0.060175128281116493 16 0.90407320857048046 17 0.21652767807245257 18 19 20 0.016348894685506824 0.87532383203506481 0.44699309766292578 0.44637812674045568 21 22 23 0.11933650821447374 24 0.78236818313598644 0.86944168806076061 0.75833436846733104 0.73775491118431102 0.017391450703144077 0.21447270363569262
decision_type=2 2 9 9 2 9 2 9 2 2 9 9 9 2 2 2 9 9 9 2 9 2 2 2 2 9 2 2 2 2 9 2 9 2 9 2 2 9 2 2 2 9 2 9 2 9 9 9 2 2 2 2 9 9 9 2 9 2 2 2 2 2 2
left_child=2 3 7 18 8 22 11 21 13 17 42 -5 50 24 25 29 -7 -6 23 20 -12 -1 53 55 41 28 -23 -21 -9 -16 -11 34 44 37 -15 -25 51 38 -34 45 -13 -4 -8 -24 -33 -37 -26 -42 49 -20 -10 52 -17 -3 -38 -2 -31 58 -58 -60 61 -50 -56
right_child=1 5 4 6 9 16 10 14 12 30 19 40 -14 31 15 36 -18 -19 48 27 -22 26 43 35 46 -27 -28 -29 -30 56 -32 32 33 -35 -36 39 54 -39 -40 -41 47 -43 -44 -45 -46 -47 -48 -49 60 -51 -52 -53 -54 -55 62 -57 57 -59 59 -61 -62 -63 -64
leaf_value=-0.029734534984925582 -0.020035491421015805 -0.041092041101623296 -0.030406918046832238 -0.026667498352089224 -0.022470292364856662 -0.018424535306930997 -0.029690239268920594 0.0052597716797163491 0.0063513093907203166 -0.018434939791415663 -0.01376501670473864 -0.0061050711710298657 -0.021876281234989157 -0.013478763713254172 -0.02334965507756635 -0.026740270421435671 -0.028498659893395256 -0.017324743825523039 -0.020035491421015805 -0.024289465783352251 -0.026397028765452933 -0.020506105428443337 -0.034335499034083977 -0.00099046357288668646 -0.025527743871537157 -0.03268458678609025 -0.025139648358340864 -0.028887550659102049 -0.030624475569580707 -0.013862878297044853 -0.032750291109489023 -0.0052482395013448303 -0.024668278758217907 -0.013596675970461521 -0.022107831784432631 0.0033209641635064784 -0.026029570991316062 -0.014491260307011512 -0.017056509749594519 -0.019631458023553018 -0.017381763075882115 -0.0030261876583029847 -0.040128086918587824 -0.045080573540122806 -0.012672111951976794 -0.014953978000329219 -0.018265430942028416 -0.022066030188452899 -0.033335016326372383 0.018667426276120443 -0.013920550535780051 -0.014680823451547592 -0.018600082486205038 -0.025597984523012492 -0.018344480276621462 0.0074958227467697078 -0.017853368791670945 -0.021974846057777296 -0.0018128356170346964 -0.022347596112092742 -0.022670257547549699 -0.019215792539423161 -0.02407036909880711
leaf_weight=619.43781816959381 31.246863305568695 107.73918467760086 29.247064054012299 1267.3727756738663 2323.2667804956436 413.20852035284042 589.94077920913696 41.495834469795227 52.494730353355408 162.48368918895721 479.95182037353516 111.4888082742691 2135.5356257557869 569.69281178712845 861.16355270147324 416.95814394950867 2389.2601557970047 3199.6788024902344 98.240138232707977 2702.4787135720253 485.45126831531525 3302.6684639453888 520.94770503044128 89.241041600704193 529.19687694311142 344.96537089347839 2094.5397410988808 2471.251925110817 35.246461808681488 1056.643929541111 436.70616155862808 542.44554698467255 526.44715297222137 9948.0013768672943 799.41975080966949 66.493325114250183 1329.6165273785591 2718.727082490921 1689.3304177522659 1524.3469794988632 1388.8605802059174 152.23471802473068 303.46953642368317 502.19958704710007 1256.6238546967506 412.70857053995132 1240.875435590744 2465.2525273561478 97.240238606929779 38.746110498905182 499.44986307621002 715.17820733785629 987.90083026885986 333.21655029058456 1030.6465392708778 79.74199515581131 8765.1201195716858 1304.1190869212151 150.48489367961884 60.993877172470093 2975.2013365030289 4319.3164084553719 1060.3935531377792
leaf_count=2478 125 431 117 5070 9294 1653 2360 166 210 650 1920 446 8543 2279 3445 1668 9558 12800 393 10811 1942 13212 2084 357 2117 1380 8379 9886 141 4227 1747 2170 2106 39796 3198 266 5319 10876 6758 6098 5556 609 1214 2009 5027 1651 4964 9862 389 155 1998 2861 3952 1333 4123 319 35064 5217 602 244 11902 17279 4242
internal_value=-0.0200355 -0.0236005 -0.0182684 -0.0222634 -0.0165291 -0.0304853 -0.0244017 -0.0203413 -0.015476 -0.0204217 -0.0264871 -0.0216011 -0.0198419 -0.0148909 -0.0194356 -0.0192044 -0.0270021 -0.0194942 -0.0195675 -0.0254817 -0.0200869 -0.0230762 -0.0369597 -0.0161458 -0.0192273 -0.0290524 -0.0223105 -0.0264928 -0.0125006 -0.0181569 -0.0290074 -0.0144238 -0.0140908 -0.0145421 -0.0185042 -0.0169846 -0.0215052 -0.0164439 -0.018885 -0.0177211 -0.0199717 -0.00727208 -0.0331412 -0.0400424 -0.0104632 -0.0117201 -0.0204426 -0.0203684 -0.0205693 -0.00878551 -0.0120387 -0.0189043 -0.0210353 -0.0300929 -0.0231258 -0.000420006 -0.0177596 -0.0181714 -0.0176133 -0.00785959 -0.0207939 -0.0195364 -0.0212287
internal_weight=79254 26264.6 52989.4 21998 28811.9 4266.57 12265.5 24177.6 22689.7 6122.14 7032.54 5232.97 2687.48 20002.2 18160.9 17739.2 2802.47 5522.95 9732.52 6139.13 965.403 6016.65 1464.1 2203.78 1951.55 421.708 5397.21 5173.73 76.7423 12198.5 599.19 18050.7 16681.6 14882.5 1369.11 2092.79 5540.69 4934.5 2215.78 2003.55 3965.6 181.482 893.41 1023.15 1799.07 479.202 1770.07 3854.11 7528.74 136.986 551.945 2120.04 1404.86 440.956 3420.66 110.989 11337.4 10280.7 8976.6 211.479 7391.76 4416.56 2091.04
internal_count=317048 105069 211979 88001 115259 17068 49067 96720 90768 24491 28133 20934 10751 80017 72651 70964 11211 22094 38934 24559 3862 24069 5857 8816 7807 1687 21591 20697 307 48799 2397 72210 66733 59536 5477 8372 22165 19740 8864 8015 15864 726 3574 4093 7197 1917 7081 15418 30118 548 2208 8481 5620 1764 13684 444 45354 41127 35910 846 29570 17668 8365
cat_boundaries=0 3 6 9 12 15 18 21 24 27 30 33 36 39 42 45 48 50 53 56 59 62 64 67 70 73
cat_threshold=3276882695 8765862 674192 65874947 2460762417 4217472 621432868 1444464722 4235321 1074873088 16512 16656 1216512 201326592 1220624 2752512260 40972 98305 612664448 2516582936 4227072 42993874 2818637856 2048 604513344 2249861185 5243393 48301058 2148008224 22528 201327044 16785608 524553 4 8388608 128 201336048 2819751944 4198408 537006080 35127368 5242880 747373760 673316936 110593 78122128 69208064 45576 524304 85983232 83886112 1067026 24 0 0 6144 224 2801926160 1151520 1207996928 1744898048 139528 16777216 8388898 16384 68159552 8 37748736 8683778 128 20971522 256 524288
is_linear=0
shrinkage=1


Tree=1
num_leaves=64
num_cat=23
split_feature=3 12 21 21 5 21 15 21 15 21 12 21 15 15 21 0 21 21 21 8 21 21 8 21 5 12 0 11 6 14 21 1 8 4 7 8 2 7 8 8 8 21 21 21 1 9 12 14 12 21 9 14 21 7 7 12 11 21 6 21 5 21 21
split_gain=522.108 252.835 199.908 132.876 123.556 97.6398 75.0835 62.7384 61.6168 57.5793 51.3009 48.1832 41.9807 44.7313 39.4142 38.2597 37.6577 37.45 35.2706 38.402 29.4551 28.8592 27.9684 27.1125 26.8526 26.5525 26.2965 25.993 25.9207 25.798 25.6952 25.4073 24.6233 24.4869 24.276 23.7532 23.5903 23.2917 31.4507 23.2697 22.7679 22.7598 22.3212 21.8614 21.5877 21.5241 21.3136 21.2683 22.7491 20.5875 19.7789 19.5893 19.3356 25.4181 19.2425 19.1199 18.976 19.6225 18.8947 18.8634 18.6784 24.8901 18.5821
threshold=0.67069521546363842 0.9106644093990327 0 1 0.69785943627357494 2 0.86197370290756237 3 0.77718800306320202 4 0.94066500663757335 5 0.016420405358076099 0.54178306460380565 6 0.10863353684544565 7 8 9 0.86522674560546886 10 11 0.017804311588406566 12 0.59249195456504833 0.016348894685506824 0.096682548522949233 0.59681642055511486 0.87643754482269298 0.44314779341220861 13 0.98933327198028576 0.1639777943491936 0.53813940286636364 0.84330835938453685 0.64411979913711559 0.24863371253013614 0.35493414103984838 0.42894540727138525 0.12424198165535928 0.31286630034446722 14 15 16 0.94411671161651622 0.52553236484527599 0.21791290491819384 0.75146219134330761 0.98347094655036937 17 0.12430905178189279 0.87532383203506481 18 0.33137814700603491 0.35493414103984838 0.018127053044736389 0.13351158797740939 19 0.75833436846733104 20 0.44152390956878668 21 22
decision_type=2 2 9 9 2 9 2 9 2 9 2 9 2 2 9 2 9 9 9 2 9 9 2 9 2 2 2 2 2 2 9 2 2 2 2 2 2 2 2 2 2 9 9 9 2 2 2 2 2 9 2 2 9 2 2 2 2 9 2 9 2 9 9
left_child=2 3 7 18 8 47 14 27 15 34 17 -10 21 26 32 22 -7 58 29 -20 39 24 41 -21 -9 -25 55 -1 36 40 -12 -31 -5 37 43 50 -11 -15 -39 -17 -2 -4 -40 -8 -18 -27 -33 48 62 -37 -22 -13 -35 -54 -28 -14 57 -52 -6 -24 -58 -62 -3
right_child=1 5 4 6 10 16 9 12 11 28 30 51 13 33 -16 20 44 -19 19 23 35 -23 59 25 -26 45 54 -29 -30 31 -32 46 -34 52 -36 49 -38 38 42 -41 -42 -43 -44 -45 -46 -47 -48 -49 -50 -51 56 -53 53 -55 -56 -57 60 -59 -60 -61 61 -63 -64
leaf_value=-0.0013674560172119092 -0.0033403116157506084 -0.0016861235188663721 -0.010146299968218316 0.011773871929328189 -0.00011774963088426956 0.001563858140192392 -0.0045118418969707086 0.024551968312509557 -0.0044460688772639508 -0.010105517195839887 0.0015555590371025842 0.0066912471933123236 -0.032338753628317743 -0.002085107066191545 -0.0046655759646578639 0.01248585396096614 -0.0055996089431848356 0.0026296359612904027 0.0055271790324894054 0.0067263159594161577 0.0021535180578450791 -0.012283359471398624 -0.0047446653312592634 0.026710024403937813 -0.010281437619832627 0.0034825351587551429 0.0034227242073877808 -0.0054260229955698245 -0.0106136257178391 -0.0017277223113046363 -0.012344775979433528 0.034724058639656441 -0.0010046754629932939 -0.0058161338258645836 -0.018682917504203152 -0.0035330314583634256 -0.0019526343694266047 0.012296893097367794 0.016809438813483422 0.0065307565067891414 0.0093458509756829521 0.016379683182394938 -0.00066457806129238065 -0.016376214922552101 -0.01140864920154663 -0.006469180109162166 0.0026107583098634386 -0.020035582675377094 -0.021395764301808066 0.0056233379411875211 0.0062044472040299068 -0.0042706876381693971 0.0027688649091761114 -0.0039384083536506964 0.00094089046611711886 -0.002484820987940832 0.0070808692045644566 -0.00066952954988529862 -0.0056506821497963426 0.0018798867387882971 -0.00044150053774513146 0.0055052868357291724 -0.01387487090661756
leaf_weight=3671.5725773870945 184.72964179515839 213.19115254282951 29.24324069917202 139.23741978406906 1382.5754379928112 413.21492457389832 383.17997278273106 41.499713063240051 1184.1302773505449 402.43567064404488 162.4861977994442 774.18771629035473 18.997409999370575 1040.8839453905821 4339.3154249042273 715.47247482836246 1307.4845091998577 3199.7598648071289 2042.0755820870399 308.47090101242065 1951.3628885746002 344.90787506103516 567.418048620224 24.747823804616928 35.241736516356468 254.97728338837624 5774.5583155453205 2344.8622229844332 630.37559509277344 5659.3837670534849 436.63290658593178 29.99700790643692 4016.2432750910521 1329.5248243957758 488.88096807897091 567.18214185535908 1615.2362430244684 307.4747004956007 61.246023163199425 3877.0568354427814 386.45925803482533 148.24966421723366 710.44680236279964 249.94052340090275 1081.5303902328014 788.91968281567097 52.743392318487167 774.96473574638367 193.1836167126894 346.71622686088085 641.21433301270008 176.73483543097973 860.91955555975437 1230.090154081583 5563.0271769016981 842.13518799841404 5590.9622272104025 861.17157086730003 940.63123723864555 1153.6480109542608 776.71135860681534 3329.0780118554831 282.40182077884674
leaf_count=14688 739 853 117 557 5531 1653 1533 166 4737 1610 650 3097 76 4164 17360 2862 5231 12800 8169 1234 7806 1380 2270 99 141 1020 23100 9381 2522 22640 1747 120 16067 5319 1956 2269 6462 1230 245 15509 1546 593 2842 1000 4327 3156 211 3101 773 1387 2565 707 3444 4921 22254 3369 22365 3445 3763 4615 3107 13317 1130
internal_value=0 -0.00345891 0.00171396 -0.00216069 0.00340129 -0.010144 -0.00423594 -0.000296961 0.00442297 -0.00776657 -0.000375089 -0.000414647 0.000581543 0.000806 -0.00266975 0.0049269 -0.00675871 0.000524868 0.000455501 0.00290665 0.00534007 -0.00875646 0.000850274 -0.000937581 0.00730367 -0.00321491 0.0018223 -0.00294998 -0.0052628 -0.000870004 -0.00870837 -0.00148054 -0.000565198 -0.0014261 -0.0134723 0.00463946 -0.00359783 0.00109653 0.00419216 0.00745133 0.00519189 0.0121581 0.000912338 -0.00959076 -0.00821129 -0.0040087 0.0148871 -0.0164371 -0.0125601 -1.2859e-06 0.00496775 0.00457201 -0.00299827 -0.00115699 0.0022078 -0.00321497 0.0054552 0.0022833 -0.00236216 -0.000304863 0.00594326 0.0043855 -0.00901931
internal_weight=79253.3 26263.3 52990 21997.3 28812.6 4265.97 12264.8 24177.4 22690.5 3770.05 6122.09 2135.05 18161 17739.3 8494.8 20555.5 2802.23 5522.97 9732.5 3419.19 18656.9 421.649 1898.56 1377.12 76.7414 1068.64 12198.7 6016.43 2648.05 6313.31 599.119 5742.12 4155.48 5540.59 1122 14064.4 2017.67 2120.05 1079.17 4592.53 571.189 177.493 771.693 633.12 2389.01 1043.9 82.7404 1463.74 688.777 913.898 13150.5 950.923 3420.53 2091.01 11337.6 861.133 11199.1 1502.39 2323.21 1721.07 9696.75 4105.79 495.593
internal_count=317048 105069 211979 88001 115259 17068 49067 96720 90768 15083 24491 8541 72651 70964 33984 82227 11211 22094 38934 13678 74632 1687 7595 5509 307 4275 48799 24069 10594 25256 2397 22971 16624 22165 4489 56261 8072 8481 4317 18371 2285 710 3087 2533 9558 4176 331 5857 2756 3656 52605 3804 13684 8365 45354 3445 44799 6010 9294 6885 38789 16424 1983
cat_boundaries=0 3 6 9 12 15 18 21 24 27 30 33 36 39 42 44 47 50 53 56 59 62 65 68
cat_threshold=3276882695 8765862 674192 65874947 2460762417 4217472 621432868 1444464722 4235321 1074873088 16512 16656 2282917888 1275273796 1277969 604649488 689053761 1126952 1275105920 1761807044 721160 42993874 2818637856 2048 604513344 2249861185 5243393 17303553 44318737 4194944 612642944 35258456 5341216 4 8388608 128 65536 268435456 22528 201336048 2819751944 4198408 524304 85983232 33554432 327680 131072 2281832448 134357504 65553 131184 1629489153 12297 37748736 8683778 128 134743120 136314880 12297 176 587333648 1151521 134251584 1073742336 513 604508160 1074266114 4202544
is_linear=0
shrinkage=0.03


Tree=2
num_leaves=64
num_cat=24
split_feature=12 8 21 21 17 21 21 5 21 17 8 21 21 16 21 17 21 21 21 6 21 21 21 16 21 10 7 12 3 21 17 1 21 3 5 12 8 21 21 16 10 21 21 21 13 10 13 21 8 7 15 12 4 17 8 2 2 4 12 1 17 21 13
split_gain=492.274 332.846 254.094 126.888 119.729 109.242 78.8329 59.147 55.8531 49.6137 54.1665 90.2114 46.8218 46.6212 43.8341 40.8698 67.5643 38.5354 38.008 37.8357 36.7037 35.0248 34.9041 31.382 52.7471 31.0636 29.9412 31.8975 29.4135 37.0068 28.7833 25.7874 25.6878 25.5932 25.4358 36.4803 25.3081 45.0414 33.9027 27.8401 25.1561 25.0371 24.823 23.0487 22.0622 21.8319 21.4543 21.3476 34.9093 24.018 20.9773 20.5026 20.377 20.8065 29.4034 25.0563 20.3552 20.321 26.4536 24.5702 20.0259 20.882 19.91
threshold=0.94066500663757335 0.64411979913711559 0 1 0.54896634817123424 2 3 0.69785943627357494 4 0.961643546819687 0.12424198165535928 5 6 0.78236818313598644 7 0.72236764430999767 8 9 10 0.9297771453857423 11 12 13 0.67477270960807811 14 0.33746166527271276 0.88139963150024425 0.29941810667514807 0.62784236669540416 15 0.22910847514867785 0.02770104352384806 16 0.35434065759181982 0.016348894685506824 0.022663071751594547 0.861772119998932 17 18 0.61583644151687633 0.043360752984881408 19 20 21 0.10889132320880891 0.3813293874263764 0.76217862963676464 22 0.20857255160808566 0.18130261451005938 0.22910847514867785 0.48655875027179724 0.048160554841160781 0.27296157181262976 0.18037011474370959 0.40606898069381719 0.29733285307884222 0.99442893266677868 0.6005181372165681 0.072255689650774016 0.8463573455810548 23 0.0057307060342282065
decision_type=2 2 9 9 2 9 9 2 9 2 2 9 9 2 9 2 9 9 9 2 9 9 9 2 9 2 2 2 2 9 2 2 9 2 2 2 2 9 9 2 2 9 9 9 2 2 2 9 2 2 2 2 2 2 2 2 2 2 2 2 2 9 2
left_child=1 2 14 22 8 13 26 9 46 10 11 -4 62 -2 40 17 33 30 -11 -7 -21 -9 25 47 -25 -3 32 -28 34 -30 -12 -20 -6 -17 35 -16 38 39 60 45 -1 -15 -10 -18 -44 -38 -5 48 49 -19 52 -32 -42 54 -54 56 -55 59 -59 -24 -8 -62 -13
right_child=5 3 7 4 6 19 36 21 42 18 15 12 -14 41 28 16 43 23 31 20 -22 -23 57 24 -26 -27 27 -29 29 -31 51 -33 -34 -35 -36 -37 37 -39 -40 -41 50 -43 44 -45 -46 -47 -48 -49 -50 -51 -52 -53 53 55 -56 -57 -58 58 -60 -61 61 -63 -64
leaf_value=-0.014795669446398487 -0.0095952252371251118 0.017985800419830264 0.018931129661471049 -0.0016308714732117709 -0.015080504292455582 -0.0017941255943020036 0.0029582600201950192 -0.0014047090366272532 0.0094326811122544783 0.0029063256666975075 0.013169108489711961 -0.023836041023122249 0.0086998060456107834 -0.025749379695733349 -0.047666564256520362 0.010338935163201023 -0.00089622377907336336 0.0020654133046956492 0.013371120206573148 -0.00059023791897178405 -0.012239576534781095 0.0033614426321402781 0.0077443251227447872 0.0070154382669449173 -0.0033002286367719603 0.0038809656741955749 0.0017936053764677387 -0.018030071410826187 0.0039153199910471918 -0.0049642333849588844 0.0041161798908329683 -0.015120235703257465 -0.0060916967751866351 0.0023592040235445172 0.00078319840349305421 -0.0053269313722922344 0.018017527733047004 -0.0093575760859477049 -0.00470924416547688 -0.0057248327003799702 0.003398353871234965 -0.014670685936270569 0.029705148125909218 -0.0092270585720656429 0.0003858830808112113 0.00039608241061716356 -0.0071781035739488146 0.0055679583262239121 0.0013395475547343467 0.01475174947018788 -0.0011021667729635093 0.0093225396599105632 -0.0095296977748091059 -0.0085711819734279864 0.0084506280467284648 -0.015771704296786204 0.0057920653294181125 0.00073857831599370379 -0.022530199502370712 5.6874915420928809e-05 0.0043075133520548304 -0.0085113289949933692 0.0018224420450391949
leaf_weight=170.4559038579464 1060.3925137072802 170.24167485535145 570.22573801875114 1289.2821092754602 392.63624836504459 1463.1958247423172 1133.0776662677526 2703.1481605917215 289.45741483569145 348.21248042583466 662.48161813616753 26.746900156140327 2079.169533520937 348.45062030851841 20.489400297403336 673.97053331136703 1675.3910581469536 237.99048207700253 30.247477442026138 357.42267467081547 867.41713199019432 2821.0323795825243 399.20526793599129 681.20712979137897 1242.414805740118 851.93296265602112 79.469527050852776 623.00665445625782 535.18241187930107 1854.7376660555601 1766.1914522796869 257.72457426786423 1323.214684382081 807.94411525130272 13578.651033014059 145.72758874297142 70.740165770053864 1816.7524955570698 2737.5073402971029 908.04238645732403 179.96806289255619 803.81798356771469 22.246735617518425 357.97091372311115 4845.9290425628424 571.88812236487865 1255.7072712481022 6612.9680332094431 2992.3367679268122 327.7395184636116 2147.1560705751181 1146.7111690044403 167.97121286392212 384.9343990534544 157.22276544570923 363.93785870075226 111.98089610040188 92.238123878836632 78.986833572387695 5890.009319588542 163.22821290791035 328.20377446711063 1177.682960614562
leaf_count=682 4243 681 2281 5158 1571 5854 4533 10814 1158 1393 2650 107 8317 1395 82 2696 6702 952 121 1430 3471 11285 1597 2725 4970 3408 318 2493 2141 7420 7065 1031 5294 3232 54320 583 283 7269 10952 3633 720 3217 89 1432 19387 2288 5024 26453 11970 1311 8590 4587 672 1540 629 1456 448 369 316 23563 653 1313 4711
internal_value=-1.38072e-07 0.000606558 0.00204986 -0.00218493 -0.00355875 -0.009209 -0.0057016 0.00382867 -0.000736023 0.00448255 0.00471137 0.00796509 0.00597061 -0.0141451 -0.000571155 0.00405583 0.0011208 0.00471223 -0.00375115 -0.00505953 -0.00897255 0.0010275 0.00109176 0.00388615 0.000358294 0.00621398 -0.0104355 -0.0157455 0.000101955 -0.00296684 0.00746466 -0.0115869 -0.00829698 0.00597284 0.000637983 -0.0109793 -0.00419654 -0.00616251 -0.0026805 -0.00232099 -0.00351911 -0.0184168 0.00105541 -0.00241929 0.000531011 0.00240743 -0.00436428 0.00455413 0.00263733 0.00948088 -0.00296941 0.00617854 -0.00587951 -0.00731426 -0.000745455 -0.00975713 -0.00526901 0.000267501 -0.00988971 0.000550756 0.000744913 -0.00427792 0.00119851
internal_weight=79251.6 74350.9 49017.9 25333 17850.4 4900.7 10147.8 29199.5 7702.62 23675.3 23039.1 3853.83 3283.6 2212.66 19818.4 19185.3 3515.28 15670 636.185 2688.04 1224.84 5524.18 7482.61 12094.7 1923.62 1022.17 2418.33 702.476 16134.8 2389.92 3575.38 287.972 1715.85 1481.91 13744.9 166.217 7729.44 3367.42 4362.02 1550.67 3683.63 1152.27 5157.63 2033.36 4868.18 642.628 2544.99 10171 3558.07 565.73 3513.17 2912.9 1366.02 1186.05 325.194 860.853 496.915 6460.44 171.225 6289.21 1624.51 491.432 1204.43
internal_count=317048 297438 196088 101350 71416 19610 40600 116805 30816 94706 92161 15416 13135 8855 79283 76745 14062 62683 2545 10755 4901 22099 29934 48381 7695 4089 9676 2811 64546 9561 14302 1152 6865 5928 54985 665 30924 13473 17451 6204 14737 4612 20634 8134 19476 2571 10182 40686 14233 2263 14055 11652 5465 4745 1301 3444 1988 25845 685 25160 6499 1966 4818
cat_boundaries=0 3 6 9 12 15 18 21 24 27 30 32 35 38 41 44 47 50 53 56 59 62 65 68 71
cat_threshold=3272689477 82086 149904 65342657 2449997872 22528 708868 1461381207 106801 739377664 1292165252 1220625 2685587760 1149534465 4825745 545263632 671121496 4784640 557186 2231631873 4136 1074806784 128 18688 548048928 573606169 4194312 405650 2182479953 4206600 2 815925248 176229074 2282029224 2176 604798976 379365465 5840929 8389632 268435456 22528 10487808 10486536 1572897 50397952 65568 128 131584 278528 1187840 16688 11536705 4718752 1073787174 539033865 65568 659460 1443397712 16 8192 134349312 131336 134490130 75636800 528896 681574400 11043592 1638401 258 536870912 65568
is_linear=0
shrinkage=0.03


Tree=3
num_leaves=64
num_cat=0
split_feature=3 12 12 17 15 10 5 11 15 5 12 2 12 5 4 16 12 4 16 10 3 17 15 16 10 15 6 10 1 5 7 12 16 16 2 4 6 12 15 16 17 17 5 6 12 10 16 14 11 17 10 13 4 17 11 5 11 4 4 15 10 10 10
split_gain=465.549 226.192 119.605 81.9228 56.6176 64.4496 55.3 43.5026 42.574 40.5348 36.6947 29.4374 31.9372 57.54 28.6163 28.1593 27.5063 27.0818 34.4109 25.3564 25.278 24.3882 23.8638 23.4301 21.9457 21.7802 43.9906 20.8698 22.0131 20.8424 20.3679 28.6066 24.8476 22.1366 20.2044 19.8302 28.1264 19.5102 19.4493 18.7402 18.138 17.947 17.6152 17.4883 17.3295 17.2779 20.3403 17.8079 15.9406 15.8626 17.0813 16.5726 22.7405 15.7487 15.6227 20.3284 15.403 15.2889 15.2607 15.2336 14.5329 16.6852 15.2554
threshold=0.67069521546363842 0.9106644093990327 0.94066500663757335 0.74164745211601268 0.72651192545890819 0.35331337153911596 0.69405338168144237 0.016172624193131927 0.29781256616115576 0.55255886912345897 0.98347094655036937 0.24863371253013614 0.49147699773311621 0.98019781708717357 0.51873329281806957 0.88529813289642345 0.80857631564140331 0.45115323364734655 0.28653328120708471 0.92897790670394909 0.022663071751594547 0.017699269577860836 0.088947065174579634 0.23055315762758258 0.83823680877685558 0.016420405358076099 0.039399763569235809 0.35331337153911596 0.8306231200695039 0.022663071751594547 0.94879078865051281 0.011142147704958917 0.86554422974586498 0.39017689228057867 0.01120456960052252 0.7926180660724641 0.16573006659746173 0.45858113467693334 0.90351176261901867 0.62362569570541393 0.84240776300430309 0.97256508469581615 0.38965813815593725 0.47808203101158148 0.032449983060359962 0.055079890415072448 0.85061204433441173 0.82492938637733471 0.43564854562282568 0.97733694314956676 0.8575187921524049 0.66106402873992931 0.30255036056041723 0.8914974331855775 0.016172624193131927 0.86944168806076061 0.3351499885320664 0.50578054785728466 0.034924378618597991 0.048435971140861518 0.99442893266677868 0.86944168806076061 0.11549577489495279
decision_type=2 2 2 2 2 2 2 2 2 2 2 2 2 2 2 2 2 2 2 2 2 2 2 2 2 2 2 2 2 2 2 2 2 2 2 2 2 2 2 2 2 2 2 2 2 2 2 2 2 2 2 2 2 2 2 2 2 2 2 2 2 2 2
left_child=2 4 3 6 22 14 7 29 25 49 39 -11 13 -13 43 16 21 18 38 54 -19 23 44 -9 -14 26 -5 41 34 -1 32 -32 -24 -33 -29 60 -37 -36 -10 -3 -34 -27 -25 -6 -2 -16 47 -47 -18 50 -7 52 -52 -45 55 -8 -53 -41 -28 -46 61 62 -23
right_child=1 10 -4 8 5 9 19 15 17 11 -12 12 24 -15 45 -17 48 20 -20 -21 -22 35 30 42 -26 27 58 28 -30 -31 31 33 40 -35 37 36 -38 -39 -40 57 -42 -43 -44 53 59 46 -48 -49 -50 -51 51 56 -54 -55 -56 -57 -58 -59 -60 -61 -62 -63 -64
leaf_value=-0.034764274711472962 0.030657505168992363 -0.0024842366988461892 -0.0058763023558385556 0.013892208570793679 -0.018212516915004674 -0.0014534474509799488 -0.00011173800893903379 0.0093281372534006132 -0.001199725749730449 -0.014076913816606496 -0.014454331631089582 -0.0033800055343676536 -0.00529810661375803 0.023369899434115424 -0.0033988504377572486 -0.0048864514644798331 -0.0086915417282148813 0.010419500762434921 0.0066023318924725918 0.0079756453645688733 -0.0041406508264098989 0.0023528375989539259 -5.8332824964414791e-05 -0.010200957966333407 -0.010496505573130649 -0.00076110574561541358 0.00061445141278165978 -0.008813068925660238 -0.0025788924519849804 -0.0056543442541467127 0.044987252999791214 0.032466369846808646 -0.0058885392804615688 0.0024377033131363071 0.0022251796271561606 0.0059547067439456444 -0.0014871003324899187 0.0070172204377690426 -0.016187236815242416 -0.0045456567253939059 0.0021095942647557453 -0.020839230276099914 0 0.0024677817222197064 -0.00018420058435654487 0.0016595812128455717 -0.0026347392550611554 0.0089883818309237484 0.00078951493365175612 0.0034525013135283658 0.0070522052587280813 -0.0054398425731623321 -0.010370361163672643 -0.026650785118119535 -0.00024001444246425269 0.040549678576815178 0.0012884536401259277 -0.01013982068214726 -0.0095202981792350694 0.011785119760159552 0.019589740312705259 2.8219563270101821e-05 0.004310375511076223
leaf_weight=23.736801266670227 25.496582582592964 492.03602232038975 1846.897471472621 110.4738522619009 95.23616960644722 3174.5494420528412 22.247753962874413 138.73013038933277 683.6882811486721 386.631457015872 1064.0924038439989 1787.0170551687479 1996.9157589226961 74.223599120974541 335.44083730876446 383.20800617337227 171.73529921472073 108.48517602682114 598.20621660351753 362.70734564960003 3684.2307984977961 4402.2105801552534 6366.329768165946 259.4625118970871 1197.0415829569101 1002.9258040934801 183.44190618395805 102.98129791021347 507.94595292210579 286.97404716908932 14.995654553174971 22.497344851493835 1258.0493600815535 465.9224669188261 1612.6436314582825 662.92137993872166 1457.0741790831089 1499.1292081326246 87.987367436289787 585.16734625399113 313.20749904215336 40.99492222070694 375.19569325447083 120.73268784582615 205.22796078026295 542.91708166897297 318.18584705889225 695.88075968623161 2091.0695212334394 382.16368402540684 72.236923038959503 811.24268792569637 663.3169176876545 18.247101575136185 7435.890245527029 18.498035565018654 481.11060851812363 2122.8142350614071 443.12136037647724 170.73045237362385 52.745362177491188 1016.664985537529 21315.480316311121
leaf_count=95 102 1969 7390 442 381 12701 89 555 2735 1547 4260 7150 7990 297 1342 1533 687 434 2393 1451 14739 17610 25469 1038 4790 4012 734 412 2032 1148 60 90 5033 1864 6451 2652 5829 5997 352 2342 1253 164 1501 483 821 2172 1273 2784 8365 1529 289 3246 2654 73 29747 74 1925 8497 1773 683 211 4067 85267
internal_value=-3.16554e-07 -0.00326693 0.00161796 0.00188929 -0.00203905 -0.00328707 0.00250575 0.00304927 -0.000447275 -0.00420997 -0.00959169 -0.00605615 -0.00543411 -0.00228517 0.0014837 0.00315741 0.00325499 -0.00240612 0.00119212 0.000239005 -0.00371363 0.00349808 -0.000179076 -0.00173134 -0.00725844 0.00138483 -0.00339579 0.00213088 0.00318459 -0.00807884 -0.000522606 0.00531445 -0.000897204 0.00394568 0.0041051 0.00363908 0.000827514 0.00454495 -0.00296618 -0.00796135 -0.00427482 -0.00159748 -0.0042069 -0.00835506 0.00695282 0.00272101 0.00406008 0.00580458 5.31778e-05 -0.00240486 -0.00284148 -0.00499777 -0.00861135 -0.00130405 -0.00013332 0.0181585 -0.00291281 -0.00894418 -0.00650904 0.00518857 0.00386043 0.00382755 0.00397657
internal_weight=79249.4 26259.7 52989.7 51142.8 21995.5 13153.1 40476.6 32637.2 10666.3 11026.4 4264.11 5441.83 5055.2 1861.24 2126.64 32326.5 31943.3 5162.6 1369.88 7839.34 3792.72 29680.5 8842.46 773.388 3193.96 5503.66 737.037 4766.62 3722.7 310.711 8441 503.415 7937.59 488.42 3214.75 28907.1 2120 3111.77 771.676 3200.02 1571.26 1043.92 634.658 234.216 401.455 1892.42 1556.98 1238.8 2262.8 5584.62 5202.46 2027.91 735.554 138.98 7476.64 40.7458 1292.35 2707.98 626.563 375.958 26787.1 26734.4 25717.7
internal_count=317048 105069 211979 204589 88001 52626 161919 130558 42670 44118 17068 21774 20227 7447 8508 129315 127782 20653 5480 31361 15173 118730 35375 3094 12780 22017 2949 19068 14892 1243 33769 2014 31755 1954 12860 115636 8481 12448 3087 12808 6286 4176 2539 937 1606 7571 6229 4956 9052 22344 20815 8114 2943 556 29910 163 5171 10839 2507 1504 107155 106944 102877
is_linear=0
shrinkage=0.03


Tree=4
num_leaves=64
num_cat=19
split_feature=3 21 21 16 1 21 21 21 15 21 15 11 0 1 21 11 21 17 21 10 21 21 8 21 21 21 11 10 17 15 21 2 9 5 8 17 11 6 16 7 8 21 9 15 8 16 21 15 17 15 8 5 15 11 0 21 7 5 9 21 3 17 15
split_gain=438.067 177.699 160.86 103.676 99.9173 64.944 58.7739 54.016 47.6879 55.1198 42.8125 42.0861 37.8639 37.7038 48.0756 36.7688 41.8317 34.4113 40.0583 37.9141 53.0668 43.4297 32.9778 57.7642 37.0264 32.3414 31.0182 30.8038 37.5448 29.9586 28.5198 27.7309 26.914 25.0339 23.4202 23.0527 21.852 42.2081 21.3711 20.8657 20.2993 26.0221 20.1344 19.7532 21.8718 19.6953 21.0675 27.3358 22.8514 19.5437 19.512 20.8055 19.4353 19.233 19.1662 19.1638 18.8445 19.8498 24.9939 18.7576 20.4431 18.5514 18.3946
threshold=0.67069521546363842 0 1 0.90026175975799572 0.75828754901885997 2 3 4 0.78861561417579662 5 0.016420405358076099 0.8286503553390504 0.088469728827476515 0.79665672779083263 6 0.89625814557075512 7 0.24094825237989428 8 0.75833436846733104 9 10 0.13994818925857547 11 12 13 0.011080417782068254 0.087981201708316817 0.46027237176895147 0.54178306460380565 14 0.87711891531944286 0.13648783415555957 0.59249195456504833 0.94956186413764965 0.0057307060342282065 0.011080417782068254 0.9106644093990327 0.10174565762281419 0.35493414103984838 0.53295058012008678 15 0.22102355211973193 0.9886038899421693 0.60881710052490245 0.48918887972831732 16 0.17329737544059756 0.18818714469671252 0.28608632087707525 0.30110582709312445 0.93371829390525829 0.58997488021850597 0.97733694314956676 0.15373872220516208 17 0.44314779341220861 0.7146558165550233 0.97746461629867565 18 0.86554422974586498 0.034528613090515144 0.88495296239852916
decision_type=2 9 9 2 2 9 9 9 2 9 2 2 2 2 9 2 9 2 9 2 9 9 2 9 9 9 2 2 2 2 9 2 2 2 2 2 2 2 2 2 2 9 2 2 2 2 9 2 2 2 2 2 2 2 2 9 2 2 2 9 2 2 2
left_child=1 6 13 11 8 -6 27 62 15 -10 30 17 26 14 -2 22 -17 18 52 21 50 34 23 38 -24 -13 -12 -1 35 39 33 -9 -25 -8 -19 -29 37 -15 -3 -14 41 -7 -23 44 -22 55 47 -47 -49 -20 -21 -52 -4 -27 -26 -34 -16 58 -58 60 -51 -61 -5
right_child=2 4 3 7 5 40 10 31 9 -11 12 25 29 36 56 16 -18 19 49 20 43 42 24 32 54 53 -28 28 -30 -31 -32 -33 45 -35 -36 -37 -38 -39 -40 -41 -42 -43 -44 -45 -46 46 -48 48 -50 59 51 -53 -54 -55 -56 -57 57 -59 -60 61 -62 -63 -64
leaf_value=-0.0091994780493668011 0.0059758769186764238 0.0038630234369732229 -0.014930752912487605 -0.014555237807240419 -0.007502376223283873 0.010148894577051383 0.023826794541637178 -0.00215981959785285 -0.0048513998639973261 0.0049245393674834104 -0.041458670308445508 -0.011474321054626663 0.0032241428737043274 -0.015758491923475688 -0.0050081989701938161 -0.0048722057320497413 0.0053868154785405992 0.0016346763966766026 0.014510944647933212 0.0073733571638605897 0.0051242688211390816 -0.010128919317879889 0.0025912876846684056 -0.0023018205089833758 0.00092158385028833986 -0.0027719404499760795 -0.0033981899020798408 -0.017576279809108173 -0.0054760635028042537 -0.00073343287777375419 -0.012314029525427523 -0.009714265376540996 0.0010295952925749318 -0.0097944084733848271 -0.014721044791225704 9.1960537263412098e-05 -0.0026778747938428615 0.033308826991527186 0.017007325380380453 0.00070976506113654093 -0.0015936887081760085 0.0010391581703098893 -0.00342447878118698 0.01143462322317596 -0.0048787014218860348 -0.0055112917710290477 0.0069661098497876906 -0.0045686128244559051 0.017550456820966343 -0.0036342685481672546 -0.011935447483322748 0.0035207844852571972 -0.0021230354377936691 -0.011558584631843635 0.0059162861075127112 0.0095297065681604343 0.0020709137799683058 -0.0030021385325656341 -0.015309042279625464 -0.0099509475319843957 0.0068263554323756319 0.0093592282096830286 -0.025923477524291534
leaf_weight=619.27808094024658 1398.332501411438 143.4873363673687 173.70090202987194 472.78890684247017 1081.7403347045183 388.21448518335819 41.489657625555992 588.51647600531578 1136.017541334033 936.41228306293488 18.721028208732605 1029.4376639574766 6055.545562043786 23.746658340096474 662.87696047127247 796.1222864985466 630.92240770161152 2046.966770991683 125.98399351537228 50.740806072950363 229.45807254314423 523.11840422451496 8190.2182403504848 367.48877255618572 776.95083075761795 1214.6575013697147 1389.7332155257463 66.736456871032715 1926.0876047313213 5226.9789379537106 348.53418201208115 1843.0514214038849 308.48795160651207 35.229826778173447 80.70828041434288 3403.9610820263624 4732.1216680109501 40.478503584861755 631.70230153203011 5903.8099490404129 1245.0301051586866 1024.3685986548662 1886.1968422085047 84.716728061437607 1259.945916607976 388.4867087751627 601.97425606846809 66.248705640435219 104.74772503972054 584.63154910504818 1408.5876599252224 79.454428523778915 292.15891866385937 279.48413805663586 7604.2861186265945 1530.6913705468178 3082.5278172343969 1118.272351950407 74.978333115577698 48.242257043719292 234.19870917499065 391.94508922100067 195.52408301830292
leaf_count=2478 5594 574 695 1893 4328 1553 166 2355 4545 3746 75 4121 24223 95 2652 3185 2524 8190 504 203 918 2093 32762 1470 3108 4861 5560 267 7706 20911 1395 7378 1234 141 323 13618 18935 162 2527 23617 4981 4098 7547 339 5042 1554 2408 265 419 2339 5637 318 1169 1119 30418 6123 12332 4474 300 193 937 1568 783
internal_value=-3.76225e-07 0.00156935 -0.00316929 -0.00518244 0.00321289 -0.00134384 -0.000265741 -0.0100834 0.00391917 -0.000419147 0.000550704 -0.00392004 0.000767929 -0.000426544 0.0010886 0.00432658 -0.000311299 -0.00299942 0.000657024 -0.00388798 -0.00644208 -0.00212792 0.00464753 0.00705147 0.00404428 -0.00737154 -0.00395443 -0.00284824 -0.00211759 0.00115689 -0.00884396 -0.00786748 0.00528089 0.00715397 0.000988898 -0.000244098 -0.00243532 0.0147432 0.0144351 0.00198558 0.00117728 0.00364853 -0.00487598 -0.00247976 -0.00331511 0.00623759 0.00313315 -0.00104804 0.00882976 0.00322888 -0.0103881 -0.0110882 -0.00683807 -0.00441269 0.00545051 0.00817899 -0.000301531 0.000421428 0.00164399 0.00209113 -0.000593847 0.00699855 -0.0176954
internal_weight=79247.3 52989.7 26257.6 15124.2 27953.6 3739.35 25036.1 3099.88 24214.2 2072.43 19020 12024.3 18594.8 11133.3 6336.99 22141.8 1427.04 9500.76 1850.86 7649.89 3112.9 4536.99 20714.8 4143.32 16571.5 2523.58 1408.45 6016.06 5396.79 17186.3 425.254 2431.57 3368.13 76.7195 2127.68 3470.7 4796.35 64.2252 775.19 11959.4 2657.61 1412.58 2409.32 1574.12 1489.4 3000.64 1161.46 559.483 170.996 1385 1538.78 1488.04 465.86 1494.14 8381.24 1839.18 4938.66 4275.78 3157.51 1259.02 818.83 440.187 668.313
internal_count=317048 211979 105069 60525 111822 14960 100157 12409 96862 8291 76088 48116 74386 44544 25352 88571 5709 38015 7405 30610 12457 18153 82862 16574 66288 10101 5635 24069 21591 68751 1702 9733 13473 307 8513 13885 19192 257 3101 47840 10632 5651 9640 6299 5960 12003 4646 2238 684 5541 6158 5955 1864 5980 33526 7357 19758 17106 12632 5037 3276 1761 2676
cat_boundaries=0 3 6 9 12 15 18 21 24 27 30 33 36 39 42 45 48 51 53 56
cat_threshold=3276882695 75874726 674192 65350851 2964128033 4217472 537538560 2181701697 4609 1074873088 16512 16656 604131328 1174577740 32784 604650512 688922705 1114664 54599682 2148008192 4216832 137003200 3675260945 106537 2147500308 1073774596 532496 1746534400 155778 1286457 1745371396 1241694290 139288 545271920 134218312 4293120 681871472 1747454464 5313025 1720576 1174579264 1277961 4 8388608 128 75497648 1744830488 73736 67636224 3774881793 12321 689280 1179648 134742048 201328770 32769
is_linear=0
shrinkage=0.03


Tree=5
num_leaves=64
num_cat=23
split_feature=3 21 21 5 17 6 8 21 21 21 21 21 21 0 17 8 21 21 0 14 21 15 1 14 21 17 8 21 1 15 21 21 21 8 4 17 21 21 11 16 21 11 21 14 14 11 11 0 13 14 2 11 8 2 14 15 17 21 11 15 21 21 4
split_gain=412.306 167.711 151.443 113.152 97.8832 104.938 60.4082 49.1244 48.2482 46.8338 45.5294 42.865 38.0688 37.3622 42.875 39.3043 74.3999 35.8872 33.5788 33.3708 31.3687 35.09 30.7146 29.2429 28.4164 28.2913 27.5642 25.4665 24.7524 24.4236 24.0478 23.2725 23.035 25.4246 22.4823 37.8221 37.3975 30.8152 21.9895 21.4208 38.4746 21.3165 21.1277 21.0502 20.9295 20.6189 20.3569 36.755 20.179 20.1281 19.9813 19.9632 19.5428 19.5914 19.3716 19.1468 21.0709 19.9182 18.9477 18.6952 18.6276 18.3757 18.1933
threshold=0.67069521546363842 0 1 0.69785943627357494 0.54896634817123424 0.86119139194488536 0.64411979913711559 2 3 4 5 6 7 0.10445769131183626 0.961643546819687 0.12424198165535928 8 9 0.060175128281116493 0.82073071599006664 10 0.54178306460380565 0.79665672779083263 0.13743132352828982 11 0.46027237176895147 0.58529654145240795 12 0.86197370290756237 0.035275265574455268 13 14 15 0.78933143615722667 0.861772119998932 0.97733694314956676 16 17 0.96996968984603893 0.3148659616708756 18 0.084303505718708052 19 0.41544248163700109 0.05148748122155667 0.011080417782068254 0.38718999922275549 0.93569341301918041 0.60113981366157543 0.44699309766292578 0.96657353639602672 0.93297529220581066 0.33156487345695501 0.34246636927127844 0.23782135546207431 0.77718800306320202 0.017699269577860836 20 0.022535390220582489 0.44257584214210516 21 22 0.67246419191360485
decision_type=2 9 9 2 2 2 2 9 9 9 9 9 9 2 2 2 9 9 2 2 9 2 2 2 9 2 2 9 2 2 9 9 9 2 2 2 9 9 2 2 9 2 9 2 2 2 2 2 2 2 2 2 2 2 2 2 2 9 2 2 9 9 2
left_child=1 10 17 6 9 11 13 49 19 -4 25 -6 51 24 15 16 59 -2 45 31 21 39 32 61 -3 55 -14 52 -28 44 -30 -7 33 -19 36 37 -25 50 54 40 -17 60 -18 -31 -20 -12 47 -24 -39 -8 -36 -5 -16 -54 -11 56 -1 -58 -49 -15 -22 -13 -45
right_child=2 3 4 12 5 8 7 -9 -10 38 18 23 26 14 27 20 42 22 29 -21 41 -23 46 34 -26 -27 28 -29 30 43 -32 -33 -34 -35 35 -37 -38 48 -40 -41 -42 -43 -44 62 -46 -47 -48 58 -50 -51 -52 -53 53 -55 -56 -57 57 -59 -60 -61 -62 -63 -64
leaf_value=-0.0079401646571817617 0.0052098784027873679 0.00517450034415358 0.00010675971581333338 0.0035681838015024321 -0.012258134587011775 0.010935687966123099 0.024302915318997122 -0.0022415843659829371 -0.017117034640306433 0.011254908320704282 -0.040852404849643489 -0.0028846948373172599 -0.00053613074863340657 0.0027695943954446907 0.009789820765760144 0.0072845290405177017 0.020717165909067407 0.0071104529064946681 -0.0059672461460756037 -0.011585117657461225 0.006342860743258588 -0.0031198638638330117 -0.0011983948744354385 0.0043485099907253251 -0.0021333285339138145 -0.0056835239057974893 -0.0030838105300939802 -0.013191323452717677 0.00067051163431457194 0.002010426923513514 -0.015847557830937799 -0.0051797403101259002 -0.0007001512559326867 -0.00025814368474285927 -0.00023424497080971378 0.0091533899761490588 -0.0042542636647618778 -0.024525363941240729 -0.012960744865304264 0.0055281218298949492 -0.0051853466588672181 0.0053739055108301377 0.01077007434884825 0.00081462706733276247 0.012013850281412171 -0.004930700841768978 -0.0041654392121854142 0.036040705022200956 -0.010545361984284464 0.0054042120944025546 -0.029760022034421432 -0.0042267357377577166 -0.026107859283129496 0.0085713097058369471 -0.0044101731867705841 0.0077296545414019266 -0.0045341224691326726 0.00051019655442064848 0.0079476430007444834 0.017705671328902904 -0.0022188144308208212 0.026775258061908003 -0.0027179543656134821
leaf_weight=442.56626169383526 923.39023897051811 735.65924115478992 3310.8313308805227 2083.6279912590981 625.45871345698833 91.439936771988869 55.994995355606079 2327.3312317728996 1108.9339739382267 70.481543704867363 13.945141926407812 32.993466377258301 2897.4726916402578 1599.6866105347872 117.97999361157417 362.2433448433876 274.67711678147316 850.1836444735527 716.45791329443455 1022.1234987974167 338.99350520968437 943.42785301804543 1199.7039792239666 535.507583335042 1320.8240283429623 2002.8846610635519 1032.0209487527609 176.9511151611805 108.96272553503513 7563.1280312538147 306.61449554562569 364.68956299126148 4162.0042407661676 819.59039284288883 373.78542323410511 109.460598051548 2697.6014853268862 112.91762143373489 274.01919235289097 1757.9630326032639 540.74139004945755 12020.773855537176 1279.8907881677151 3841.8865872174501 61.492883384227753 787.27542333304882 3071.5500198453665 32.702953204512596 680.06543053686619 598.71134334802628 20.981828823685646 340.41055303812027 33.244239926338196 23.245617970824242 3656.272275403142 198.45796988904476 983.30396801233292 2388.5549750328064 73.975747600197792 79.247190952301025 645.22231197357178 34.494223564863205 1987.1159112602472
leaf_count=1771 3694 2943 13248 8335 2504 366 224 9311 4442 282 56 132 11592 6399 472 1449 1099 3401 2867 4093 1356 3774 4800 2143 5284 8014 4129 708 436 30254 1227 1460 16651 3279 1496 438 10795 452 1098 7032 2163 48084 5120 15369 246 3150 12292 131 2722 2395 84 1362 133 93 14632 794 3934 9556 296 317 2581 138 7950
internal_value=-4.67926e-07 0.00152237 -0.00307498 0.00288875 -0.00502854 -0.00736901 0.00381372 -0.000186204 -0.012317 -0.00253049 -0.000560868 -0.00491055 -0.000550552 0.00435112 0.00474357 0.0049284 0.00796583 -0.000413679 0.000323467 -0.00851348 0.00433482 0.00182698 -0.000930282 -0.00386699 0.000482322 -0.00276324 -0.00223196 -0.00559206 -0.00561827 0.000663575 -0.0118177 -0.0017407 0.000490116 0.00345702 -0.00417394 -0.0075233 -0.00281889 -0.00909184 -0.00470843 0.0035995 -0.000123972 0.00502212 0.01268 0.000965722 -0.00449382 -0.00564345 -0.00283103 0.000284263 -0.0124455 0.00699424 -0.0019025 0.00244977 0.00258029 -0.0114147 -0.00410292 -0.00130405 -0.00178382 -0.000964775 0.0170931 0.00348184 0.000744938 0.0154949 -0.000384749
internal_weight=79244.1 52989 26255.2 32001.9 15122.1 7810.45 25232.8 2982.04 2587.19 7311.6 20987.1 5223.27 6769.11 22250.8 20194.3 19842.9 3233.5 11133.1 14971.3 1478.25 16609.4 3604.38 10209.7 4597.81 2056.48 6015.77 4345.07 351.421 1447.6 14170.1 415.577 456.129 5831.78 1669.77 4530.32 1297.21 3233.11 1187.75 4000.77 2660.95 902.985 13005 1554.57 13392.1 777.951 801.221 4377.93 1306.38 792.983 654.706 394.767 2424.04 174.47 56.4899 3726.75 4012.88 3814.43 3371.86 106.679 1678.93 984.216 67.4877 5829
internal_count=317048 211979 105069 128018 60525 31265 100937 11930 10361 29260 83961 20904 27081 89007 80780 79374 12935 44544 59892 5919 66439 14418 40850 18400 8227 24069 17384 1406 5792 56686 1663 1826 23331 6680 18130 5192 12938 4754 16012 10644 3612 52021 6219 53573 3113 3206 17519 5227 3174 2619 1580 9697 698 226 14914 16055 15261 13490 427 6716 3937 270 23319
cat_boundaries=0 3 6 9 12 15 18 21 24 27 30 33 36 38 41 44 47 50 53 56 59 62 65 68
cat_threshold=3276882695 344230 18832 65350851 2964128033 4217472 612664448 2516615704 4358144 3222831924 135284762 589864 1745388048 151151300 1179656 1074873088 16512 16656 2148663296 67133444 1212416 145002672 941621768 561160 67800192 3339725057 143400 65538 2147483680 18432 671090768 1216905984 197120 738363392 1756889673 4333576 10240 813828096 603982912 2064 4325408 3221226016 135266304 524288 54797312 537395456 4198912 134238464 33554944 272 603996960 1225949312 33 16 1207959808 512 545259536 134217808 512 1114112 128 16 9176192 131137 569345 134217744 131074 264
is_linear=0
shrinkage=0.03


Tree=6
num_leaves=64
num_cat=22
split_feature=12 14 21 21 21 5 3 21 21 21 21 21 8 21 21 6 21 10 21 4 21 18 8 15 10 21 10 15 21 6 12 13 10 15 9 8 10 14 21 15 3 15 4 10 12 0 6 13 14 0 21 21 21 8 21 0 10 15 21 9 21 5 4
split_gain=412.053 272.729 164.734 102.235 98.095 88.3 69.6754 39.0981 37.8685 37.4458 36.1359 33.6826 33.5658 67.9735 36.1315 31.6703 30.9942 30.2102 63.2673 34.5229 48.1829 30.0423 29.2369 29.1439 29.0422 30.3734 29.0403 27.9942 26.828 35.2214 26.6316 25.2844 24.9208 24.6851 24.4104 23.8642 23.5325 23.1792 23.0096 22.8167 22.4442 22.2587 22.2504 21.9198 21.7545 21.5501 20.6485 33.9562 19.8788 19.0609 27.2758 19.0451 18.4204 17.4464 29.1569 17.599 17.2492 21.924 17.1593 21.1091 17.1506 18.5608 20.9174
threshold=0.94066500663757335 0.70571896433830272 0 1 2 0.64836937189102184 0.69452759623527538 3 4 5 6 7 0.13994818925857547 8 9 0.9297771453857423 10 0.54596146941185009 11 0.53813940286636364 12 0.48933325707912451 0.6045854687690736 0.54178306460380565 0.35331337153911596 13 0.58474737405776989 0.54178306460380565 14 0.072255689650774016 0.38718999922275549 0.52185857295990001 0.075812518596649184 0.22102355211973193 0.54103976488113414 0.7146558165550233 0.40114636719226843 0.16944521665573123 15 0.016420405358076099 0.63188499212265026 0.18941140174865725 0.77718800306320202 0.961643546819687 0.016348894685506824 0.067918006330728545 0.54570025205612194 0.40118020772933966 0.41125175356864935 0.11294878646731378 16 17 18 0.58529654145240795 19 0.21349832415580752 0.83064445853233349 0.9886038899421693 20 0.49722214043140417 21 0.18487685173749926 0.45507299900054937
decision_type=2 2 9 9 9 2 2 9 9 9 9 9 2 9 9 2 9 2 9 2 9 2 2 2 2 9 2 2 9 2 2 2 2 2 2 2 2 2 9 2 2 2 2 2 2 2 2 2 2 2 9 9 9 2 9 2 2 2 9 2 9 2 2
left_child=1 2 11 17 38 12 9 56 -7 22 -6 32 13 48 27 -12 -15 18 40 20 34 36 26 35 25 -9 -5 -14 29 -21 -26 -27 -1 46 -19 -23 37 -13 -2 -10 -3 -37 60 -30 45 -38 47 -34 -4 50 -16 -32 -44 54 -41 -56 -8 -58 59 -39 -11 -62 -63
right_child=4 3 5 6 10 8 7 24 39 42 15 21 14 16 49 -17 -18 19 -20 28 -22 23 -24 -25 30 31 -28 -29 43 -31 51 -33 33 -35 -36 41 44 58 -40 53 -42 -43 52 -45 -46 -47 -48 -49 -50 -51 -52 -53 -54 -55 55 -57 57 -59 -60 -61 61 62 -64
leaf_value=-0.0094379646132839619 -0.020229071363850694 0.00071007402952992028 0.0014422886671711156 0.014244762871188175 0.0034872510925342656 0.0042267406270630418 -0.0080102692243493086 -0.0055768475622493853 -0.014647419336454413 0.0029430437623240431 -0.0026913303434282238 0.0053670927874297806 0.0023470574338121616 0.020467459176823969 -0.0045984519564307175 -0.0098473139703310446 0.0083962078536797494 0.0070274957301283657 0.00026374136136998744 0.0072498610581429781 0.010381964652065792 0.002099678681719239 -3.7786727925817415e-05 -0.0015764398019567905 -0.0028254268273863346 -0.017411078958302195 0 -0.0039130581288712198 0.00024646834430040612 -0.0064448735498308036 -0.005085285175063816 0.0057344219755890912 -0.004012621933281172 -0.00031881027544962518 -0.007542240571877799 0.031293218265654413 -0.048231656561863741 -0.010658797737774287 -0.011468883404926062 -0.0017601912259239908 0.013954232046885345 0.0072925150008325123 -0.0020151459909652889 -0.0079253950452021389 -0.0023678436230687677 -0.0092720159147751512 -0.010151605583324905 0.01866128001466372 0.01630347312040863 0.0043792167900025061 0.0046000692005880688 -0.0096035981010484314 -0.012804774685299869 -0.0021454783767707892 -0.0069392221437346449 0.0036101088604054486 -0.016942764489669814 0.012349948720306186 0.00029378831930840943 0.0081922615429859819 -0.013567369723398774 0.0070652158646838867 -0.006576807334241248
leaf_weight=432.95832160115242 387.06219178438187 156.97569069266319 1905.5397305339575 312.46302717924118 420.36154305934906 2026.8035053908825 1013.3674350082874 537.77738802134991 98.691146358847618 494.13233526051044 1213.9436288923025 746.18354542553425 2179.8811069279909 216.60807876288891 528.67780810594559 1053.0039843767881 2436.8571542352438 148.47692483663559 2785.0323236584663 184.7073415517807 492.91206683218479 5872.6543980389833 1204.1905556321144 2023.3650432378054 2089.5585007816553 44.238831087946892 222.7233698964119 909.12872259318829 2931.6708274185658 1710.4450094997883 2088.9833943545818 595.84855933487415 917.71730373799801 3015.5865363478661 327.17790022492409 39.731984794139862 16.427485063672066 274.22110812366009 1822.4372386783361 2057.9948355555534 489.64222379028797 309.67089800536633 276.4018975943327 326.88103930652142 3801.6659966856241 62.988877758383751 485.30893433094025 62.23219108581543 84.242075458168983 14006.707778885961 615.44104343652725 1600.5649515092373 342.3748575001955 2636.0830304920673 148.23595620691776 2485.0573545247316 409.62383244931698 22.465531572699547 2494.5119307786226 63.742541596293449 153.96237030625343 161.22478710114956 264.68807822465897
leaf_count=1733 1552 628 7623 1250 1682 8108 4057 2152 395 1977 4858 2985 8720 867 2115 4217 9749 594 11142 739 1972 23493 4818 8095 8363 177 891 3637 11730 6844 8362 2384 3672 12065 1309 159 66 1097 7301 8233 1959 1239 1106 1308 15209 252 1942 249 337 56030 2462 6408 1370 10547 593 9941 1641 90 9979 255 616 645 1059
internal_value=-4.58523e-07 0.000554423 0.00170953 -0.00230401 -0.00842919 0.00304522 -0.00416569 -0.00564064 0.000603221 -0.000557607 -0.00450084 -0.000385062 0.00405395 0.0063392 0.00347024 -0.00600493 0.0094733 3.50424e-06 0.00225952 -0.00125629 0.00392634 0.000291857 0.00251758 0.00154148 -0.0046754 -0.00036096 0.00835952 0.000492665 -0.00223669 -0.00506449 -0.00555743 0.00400088 -0.0025505 -0.00188204 -0.00286599 0.00256032 -0.00108499 0.000662956 -0.0131096 -0.000387316 0.0106273 0.0101889 -0.00372763 -0.000564535 -0.00270421 -0.0182035 -0.00507638 -0.00252457 0.00208395 0.00407225 0.000323102 -0.00709538 -0.0082837 -0.000189711 0.000903084 0.0029911 -0.0101566 -0.0153255 -0.000567165 -0.00680053 -0.00110421 -0.00457568 -0.00133804
internal_weight=79240.2 74343.4 52954.9 21388.5 4896.81 32335.9 11834.6 8402.43 9452.87 3432.16 2687.31 20619 22883.1 4643.25 18239.8 2266.95 2653.47 9553.92 3431.65 6122.27 968.567 15705.2 1739.38 8245.42 6956.97 1177.86 535.186 3089.01 5153.7 1895.15 5779.11 640.087 4913.8 4480.84 475.655 6222.06 7459.74 3578.66 2209.5 7426.06 646.618 349.403 1692.78 3258.55 3881.08 79.4164 1465.26 979.949 1989.78 15150.8 1144.12 3689.55 618.777 7327.37 4691.29 2633.29 1445.46 432.089 2832.48 337.964 1074.01 579.875 425.913
internal_count=317048 297438 211847 85591 19610 129357 47366 33634 37817 13732 10757 82490 91540 18576 72964 9075 10616 38225 13729 24496 3875 62829 6959 32986 27846 4713 2141 12357 20621 7583 23133 2561 19661 17928 1903 24891 29843 14316 8853 29709 2587 1398 6773 13038 15527 318 5863 3921 7960 60607 4577 14770 2476 29314 18767 10534 5788 1731 11331 1352 4297 2320 1704
cat_boundaries=0 3 6 9 12 15 18 21 24 27 30 33 36 39 42 45 48 51 54 57 60 63 66
cat_threshold=3255911237 114822 18832 115633283 2997354813 22656 537547012 1461381207 106801 537956864 202506240 1220609 31461552 3087008272 552 1745387616 84084800 4825352 41943250 2281766944 2176 1074807040 128 16640 88638594 3607371825 536584 671090704 679478032 589824 545259520 134217800 4194816 67134594 265 6144 79716481 8388665 6144 3221815344 1073815618 66080 102771714 539492609 4096 135168 369672256 16 77602976 52568072 1085992 3356033392 16845312 65568 16847120 1090048 131600 33792 1177430113 4329473 0 0 2192 200704 1074798722 1048593
is_linear=0
shrinkage=0.03


Tree=7
num_leaves=64
num_cat=23
split_feature=12 14 21 21 21 5 17 16 21 16 17 21 21 4 17 10 21 21 21 3 21 21 16 4 21 21 6 21 17 18 15 16 21 21 21 12 21 2 7 15 11 8 8 21 16 16 8 21 5 21 10 14 17 21 14 15 12 21 10 10 10 12 12
split_gain=388.038 256.705 155.047 96.4688 94.0386 83.1219 79.4605 48.2274 46.6024 42.6518 37.3383 48.2987 46.9854 37.8819 35.8173 45.2141 41.5274 38.3814 35.6483 34.7851 34.71 33.57 32.9606 32.737 31.7032 31.1539 30.3629 29.359 28.6216 28.2779 27.431 25.7284 41.6976 32.3746 25.2134 24.339 29.2251 25.6062 31.3892 24.0442 23.8818 23.5403 23.0984 31.3994 29.5034 22.5079 22.4812 22.4085 22.2904 22.2288 22.1616 21.8069 40.931 21.1031 22.6765 20.9753 20.5742 20.5512 21.4106 28.8103 20.232 20.0345 19.8921
threshold=0.94066500663757335 0.70571896433830272 0 1 2 0.64836937189102184 0.27666264772415167 0.37845472991466528 3 0.78236818313598644 0.77599897980690014 4 5 0.22476265579462054 0.79217129945755016 0.52978160977363598 6 7 8 0.71840593218803417 9 10 0.86554422974586498 0.01846171356737614 11 12 0.9297771453857423 13 0.31266711652278906 0.48933325707912451 0.54178306460380565 0.52135258913040172 14 15 16 0.47493016719818121 17 0.25706306099891668 0.92266619205474865 0.87359479069709789 0.60113981366157543 0.60881710052490245 0.29705628752708441 18 0.56120070815086376 0.17493169009685519 0.7146558165550233 19 0.36578397452831274 20 0.40114636719226843 0.16944521665573123 0.043732922524213798 21 0.58430349826812755 0.18941140174865725 0.016348894685506824 22 0.050597354769706733 0.34185381233692175 0.067056141793727889 0.80112066864967357 0.15258697420358661
decision_type=2 2 9 9 9 2 2 2 9 2 2 9 9 2 2 2 9 9 9 2 9 9 2 2 9 9 2 9 2 2 2 2 9 9 9 2 9 2 2 2 2 2 2 9 2 2 2 9 2 9 2 2 2 9 2 2 2 9 2 2 2 2 2
left_child=1 2 24 14 9 10 7 -5 39 -2 12 -12 13 42 16 20 -3 -17 -7 31 -16 -6 61 -13 40 -24 -23 -9 47 50 46 32 -10 -33 -11 -21 37 -37 -39 -8 41 60 43 44 -4 -43 -31 -20 -19 -30 51 52 -26 54 -15 -48 -52 58 -25 -60 -1 -14 -55
right_child=4 3 5 6 21 18 8 27 19 34 11 23 22 53 15 17 -18 48 28 35 -22 26 25 57 29 -27 -28 -29 49 30 -32 33 -34 -35 -36 36 -38 38 -40 -41 -42 45 -44 -45 -46 -47 55 -49 -50 -51 56 -53 -54 62 -56 -57 -58 -59 59 -61 -62 -63 -64
leaf_value=-0.010917397462850732 -0.0083872766233674644 0.0091938244143999898 0.013912437821423424 0.0102202054879314 0.0033851152331913553 0.0041005501523749491 -0.0068083958341933299 -0.0049349912023597562 0.0013924258375775452 -0.012691645300904513 -0.0056742425986024518 0.016346406508115099 0.004164027994554606 0.02200249828254431 0.0095413018419284734 0.00036910290849012639 0.00084772687470581639 -0.0024068523456932892 -0.0010716926938572093 -0.0030898288073661685 -0.0031667065340875936 -0.0025153344651780403 0.0046985989680836315 0.021187528359895656 0.034434945110368632 -0.01503368717881989 -0.0095527359877966306 0.0035050069623729454 -0.005070066259299638 0.0020366699705197493 -0.0015292011395448266 0.007133859575579893 -0.0081464938299170807 -0.0034544209118378367 -0.023071999724758648 -0.020148526963316121 -0.0094627539057435678 0.00039927848009672971 -0.0080159448533398264 -0.014306310795483017 -0.0051715580243804175 0.017853473568596494 0.0018668756547462371 0.020318154820515279 0.00022448672143970342 0.0018140368473140277 0.030384912197796675 0.0044453593438385109 -0.0091340248696388706 -0.00048470526283685502 -0.017704640657951944 -0.00054951332316942737 0.0034619260624902263 -0.00049336071589866379 -0.0016624703052663652 0.0070738626523474115 -0.0022968828987312774 0.005189126725868045 -0.0092672118963567605 0.0012524401119700021 -0.0011898083384339574 -0.00024210768839225363 0.0059753506398660724
leaf_weight=210.05249285697937 1066.5251763761044 608.39052580296993 392.92233116924763 455.13053250312805 420.38491177558899 2026.8390509784222 1112.9762402325869 772.45288787782192 798.53168016672134 740.96679596602917 732.58436673879623 153.6943091750145 13801.92020663619 138.99286346137524 472.15734304487705 1335.1154154241085 4162.3477546870708 781.55389393866062 1143.2959247976542 2730.7251129150391 314.20490007102489 1205.885758921504 121.48522154986858 40.743765294551849 39.998371675610542 152.71558403968811 1041.9044504165649 691.56551337242126 1320.8845970630646 5872.7356836497784 2023.3242871463299 584.55698789656162 831.90843294560909 449.62998151779175 419.49917241930962 83.193615153431892 1886.1110813617706 950.67578175663948 678.48547755181789 614.98347942531109 1851.4160068184137 99.474983081221581 184.48901654779911 395.80931428074837 228.45715028047562 392.41285952925682 39.722110331058502 1538.3464607596397 1072.0907460302114 3423.4246861040592 79.352458283305168 2832.4521212130785 706.20173120498657 518.95053541660309 45.995839968323708 309.69601352512836 3801.5750323086977 1147.3723269551992 282.70253010094166 1334.5382032692432 2360.167101547122 981.91270136833191 2227.2842545509338
leaf_count=841 4272 2434 1572 1821 1682 8108 4456 3091 3195 2971 2931 615 55212 556 1889 5342 16653 3127 4574 10930 1257 4826 486 163 160 611 4174 2767 5285 23493 8095 2339 3329 1799 1685 333 7553 3805 2717 2464 7409 398 738 1584 914 1570 159 6154 4290 13696 318 11331 2825 2076 184 1239 15209 4590 1131 5339 9443 3928 8910
internal_value=-5.8751e-07 0.000537804 0.00165846 -0.0022355 -0.00818147 0.0029543 -0.00390981 0.0016967 -0.00491986 -0.0127301 0.00393302 0.00115862 0.00446506 0.00731054 0.000185486 -0.00191346 0.0019411 -0.00350756 0.000584864 -0.00403092 0.00450888 -0.00430656 0.00367436 0.00287121 -0.000373594 -0.00657249 -0.00576783 -0.00093776 -0.000376105 0.000283072 0.00149548 -0.00114499 -0.00349969 0.0025381 -0.0167944 -0.00524717 -0.00687463 -0.00392439 -0.00308972 -0.00944636 -0.00247453 -0.000840972 0.0118351 0.01361 0.00879524 0.00514822 0.00248395 0.00209508 -0.00628277 -0.00178016 -0.00105269 0.000643369 0.00520618 0.00546695 0.0151645 0.00988864 -0.00262413 0.00212693 -7.19158e-06 -0.000572504 -0.0020004 0.00386936 0.00472512
internal_weight=79235.9 74340.7 52953.9 21386.8 4895.17 32335.4 12640.9 1919.15 10721.8 2226.99 22882.6 3691.64 19190.9 4132.9 8745.86 3975.12 4770.74 3188.76 9452.79 8993.82 786.362 2668.18 15058 2959.05 20618.6 274.201 2247.79 1464.02 7425.95 15705.1 8245.48 2664.63 1630.44 1034.19 1160.47 6329.19 3598.47 1712.35 1629.16 1727.96 4913.52 3062.11 1201.68 1017.19 621.379 491.888 6222.15 2681.64 1853.64 4744.31 7459.58 3578.65 746.2 2931.22 184.989 349.418 3880.93 2805.36 1657.98 1617.24 2570.22 14783.8 2746.23
internal_count=317048 297438 211847 85591 19610 129357 50599 7679 42920 8928 91540 14769 76771 16534 34992 15905 19087 12759 37817 36000 3146 10682 60237 11838 82490 1097 9000 5858 29709 62829 32986 10662 6524 4138 4656 25338 14408 6855 6522 6920 19661 12252 4808 4070 2486 1968 24891 10728 7417 18981 29843 14316 2985 11726 740 1398 15527 11223 6633 6470 10284 59140 10986
cat_boundaries=0 3 6 9 12 15 18 21 24 27 30 33 36 39 42 45 48 51 54 56 59 62 64 67
cat_threshold=3255911237 114822 18832 115633283 2452095289 22656 537579780 1461381207 106801 2148536832 1275347072 1220609 12583042 2231640592 1770017 551826434 2183004752 4194816 33563650 33554440 22528 14960768 301989936 2176 31461552 3087008272 552 8407043 272 6144 41943250 2281766944 2176 1074807040 128 16640 151519232 2097409 1638440 1073807636 209814146 532496 1090551904 17008708 4718856 537559056 546447426 65816 49408 17983495 98592 1073807700 562102784 66088 4465666 2148401168 134261760 1141385217 4202497 67765248 1141252097 163841 2 33816592 154050608 545390657 4096
is_linear=0
shrinkage=0.03


Tree=8
num_leaves=64
num_cat=0
split_feature=12 8 17 5 16 0 12 10 17 11 3 15 10 0 5 12 15 7 10 15 12 10 17 10 16 4 15 17 15 10 10 15 11 5 17 8 0 12 2 12 7 8 11 15 16 10 15 17 11 5 1 15 10 4 10 17 6 3 6 5 2 17 4
split_gain=365.504 233.711 72.5196 56.9066 51.2749 48.386 50.5431 38.9287 38.1931 36.0975 33.0606 31.8993 31.2827 30.6894 29.9968 41.7713 32.4391 23.8252 21.3746 21.0706 19.861 19.2104 38.3356 28.1123 36.0814 23.0364 19.0311 18.7416 26.6849 21.7971 20.6619 18.2281 17.8662 17.8369 17.4673 17.282 17.2138 17.1953 23.0308 17.0781 17.0435 21.4853 16.8416 16.8174 16.8025 16.8049 16.4336 15.7063 15.5197 19.3871 15.1701 14.6501 14.5568 20.1229 14.4619 18.1778 14.2354 22.9568 14.2182 14.1395 23.5949 13.8294 13.6807
threshold=0.94066500663757335 0.64411979913711559 0.56091108918190014 0.69405338168144237 0.77842608094215404 0.15373872220516208 0.0056980520021170386 0.34185381233692175 0.961643546819687 0.016172624193131927 0.58107870817184459 0.19327598810195926 0.97746461629867565 0.88676640391349804 0.5012953281402589 0.0056980520021170386 0.7146558165550233 0.084303505718708052 0.60445770621299755 0.016420405358076099 0.98347094655036937 0.88767051696777355 0.22476265579462054 0.46174749732017523 0.36619964241981512 0.50578054785728466 0.91483318805694591 0.04792469926178456 0.18941140174865725 0.48116552829742437 0.46939297020435339 0.38957263529300695 0.055710738524794585 0.4890707135200501 0.36820572614669805 0.78532552719116222 0.067918006330728545 0.38718999922275549 0.56181284785270702 0.5012953281402589 0.87724679708480846 0.75064766407012951 0.022535390220582489 0.20116642862558368 0.40579831600189215 0.1639777943491936 0.75064766407012951 0.97256508469581615 0.32249251008033758 0.98019781708717357 0.27077579498291021 0.051579646766185767 0.74590113759040844 0.93351748585701 0.067056141793727889 0.51355022192001354 0.039399763569235809 0.13662899285554889 0.51416441798210155 0.28134356439113622 0.47783917188644415 0.93965971469879161 0.52225759625434887
decision_type=2 2 2 2 2 2 2 2 2 2 2 2 2 2 2 2 2 2 2 2 2 2 2 2 2 2 2 2 2 2 2 2 2 2 2 2 2 2 2 2 2 2 2 2 2 2 2 2 2 2 2 2 2 2 2 2 2 2 2 2 2 2 2
left_child=1 3 11 5 31 6 -1 -4 10 13 27 39 42 -5 32 -16 52 34 -10 -11 -6 23 26 24 46 -25 33 28 30 44 51 -2 -9 -23 -13 -36 -33 59 -39 -3 41 -35 -8 -12 45 -30 -19 -34 49 -18 -44 -7 53 -17 55 -26 -20 -58 -21 -29 -61 -38 -52
right_child=4 2 7 9 20 8 12 14 18 19 43 17 -14 -15 15 16 48 21 56 58 -22 22 -24 25 54 -27 -28 37 29 -31 -32 36 47 40 35 -37 61 38 -40 -41 -42 -43 50 -45 -46 -47 -48 -49 -50 -51 62 -53 -54 -55 -56 -57 57 -59 -60 60 -62 -63 -64
leaf_value=-0.037341721372323777 -0.0013654550254676278 0.028169214023197168 0.0010339682000993825 0.00086356390317891666 -0.0087854317836088339 0.028715123776381205 -0.01296780409780251 -0.006719942173115616 -0.013506025432969504 -0.0088265154207162692 0.0062391962592703489 0.020895675955052827 0.0094675047028934829 0.040527658470360418 0.024813050402846468 -0.0028769293289659385 -0.0043047901186415369 0.0099465671632196339 0.0095610025011838209 -0.0034342040968419084 -0.014310352963253097 0.024583843770666192 -8.430297922782889e-05 0.003546054643450783 -0.0035621997186338528 -0.0032034318736526668 -0.01946959321364591 0.0040311090222859194 -0.0025065276275329069 0.0070176677521618797 -0.0073694487470545396 -0.014821025992718747 -0.0020134155660741946 0.031128871127450077 0.012919273687226503 -0.013174274831188404 -0.0059467712310054682 0.0048401740802246577 0.0015629562629356577 0.0057383550200683711 0.016226892664505586 -0.0093727700931994645 0.0010504033718623711 0.00021073913046532668 -0.0061801494679889421 0.0090911781272469717 0.0025198425143346786 0.0036594464954745744 -0.0072648327834611524 0.014582155397165153 -0.00066242020813871388 0.0083277199366064755 0.0016940033695380019 -0.022539589741583883 0.00021965632720470404 -0.026866244785754046 -0.014454141810898014 0.0023319473003348928 0.00016196612067494474 0.00095476765941639576 0.0045865939372679966 0.012946066731211995 -0.0056776877280973982
leaf_weight=31.864608138799667 950.66398446261883 50.714382395148277 1722.1330183446407 37.741718247532845 1727.3084540069103 37.982763364911079 95.42425973713398 660.53217263519764 180.67060159146786 266.82988318800926 453.42243286967278 81.735092997550964 295.36592833697796 34.732881411910057 40.705333083868027 949.61841109395027 1484.2649852931499 453.93117764592171 87.221640825271606 1127.3699955791235 942.90548159182072 100.98391875624657 741.3535925000906 508.08908970654011 558.59753510355949 4031.4141292870045 14.242090389132498 4451.3726849555969 381.6320975124836 225.46774378418922 63.238186657428741 209.80008701980114 4411.1584142893553 13.246742486953734 51.991757988929749 38.735555559396744 1028.3325995653868 10411.261655211449 2406.2287112474442 87.474892690777779 106.97231195867062 64.987743243575096 3175.5765425860882 5159.6004362106323 692.29438728094101 157.47860258817673 692.09530055522919 483.56311602890491 4079.3179289102554 48.958396703004837 1748.6729150265455 244.41431398689747 713.89928941428661 48.980269029736519 3052.5774634629488 31.48915408551693 117.44899509847164 185.92947347462177 7951.9469491690397 6101.5343840569258 2202.5381163954735 34.221814915537834 688.63079313933849
leaf_count=128 3806 203 6891 151 6925 152 382 2644 723 1068 1814 327 1182 139 163 3800 5942 1816 349 4510 3783 404 2967 2033 2235 16132 57 17808 1527 902 253 840 17656 53 208 155 4119 41651 9626 350 428 260 12705 20642 2770 630 2769 1935 16333 196 6996 978 2857 196 12214 126 470 744 31813 24409 8811 137 2755
internal_value=-6.42949e-07 0.000521795 -0.00181778 0.00173119 -0.0079421 0.00222985 -0.000238486 -0.00318883 0.00267465 -0.000361938 0.00280846 5.92534e-05 -3.03772e-05 0.0205734 -0.00375401 -0.0050122 -0.0051854 -0.00012629 -0.00499122 -0.000529675 -0.0107522 -0.000313516 0.00354327 -0.000747796 0.000850989 -0.00244077 0.0125648 0.0032388 0.000263946 -0.00149787 0.00775956 -0.00454985 -0.00207977 0.0143257 0.0108953 0.00142954 -0.00690263 0.00344729 0.00422745 0.0143291 0.00846936 -0.00183005 -0.000528655 0.000704089 -0.00308582 0.000836272 0.00549377 -0.00144622 -0.00628981 -0.00367303 -0.000309561 0.0112674 -0.00154675 -0.00389296 -0.000602559 -0.00489989 -0.000951689 -0.00409414 -0.000281592 0.00266071 0.00192211 -0.00529848 -0.00209347
internal_weight=79230.9 74337.7 25323.8 49013.9 4893.23 39595.3 6035.54 14643.1 33559.7 9418.62 32988.5 10680.6 6003.67 72.4746 12921 7365.74 7325.04 10542.4 571.271 9346.15 2670.21 10370 1041.79 9328.19 4788.69 4539.5 300.433 27375.4 1802.51 1456.87 345.635 2223.02 5555.25 286.191 172.462 90.7273 1272.35 25572.9 12817.5 138.189 185.207 78.2345 5708.3 5613.02 1231.41 539.111 1146.03 4894.72 5612.54 1533.22 5612.88 282.397 1712.5 998.599 3642.66 590.087 390.6 303.378 9079.32 12755.4 8304.07 1062.55 2437.3
internal_count=317048 297438 101350 196088 19610 158407 24148 58613 134259 37681 131973 42737 24020 290 51722 29487 29324 42184 2286 37391 10708 41494 4169 37325 19160 18165 1202 109517 7212 5829 1383 8902 22235 1145 690 363 5096 102305 51277 553 741 313 22838 22456 4927 2157 4585 19591 22471 6138 22456 1130 6853 3996 14575 2361 1563 1214 36323 51028 33220 4256 9751
is_linear=0
shrinkage=0.03


Tree=9
num_leaves=64
num_cat=28
split_feature=12 14 21 21 21 17 5 21 21 16 21 2 17 21 17 21 21 21 4 21 21 16 21 9 21 1 21 17 21 21 17 21 16 18 3 14 3 21 1 16 17 21 11 21 17 5 12 21 21 21 17 17 17 4 16 21 17 21 21 16 21 16 3
split_gain=346.683 205.897 150.872 110.766 85.687 66.0128 60.3379 56.3128 51.3633 46.476 42.6857 42.6447 41.5551 36.3328 33.581 47.5399 45.417 32.9454 32.5931 30.9494 28.8674 28.4918 28.1157 26.7467 31.1276 26.5955 25.4994 24.1215 32.5374 24.9747 22.6846 27.3133 27.0288 22.1687 23.057 22.0972 22.4912 28.1116 21.4814 20.5571 20.0338 23.1745 19.9287 19.498 19.0589 19.0288 21.5403 18.9523 18.7511 18.1618 17.8879 27.2517 21.8956 17.6166 27.2874 20.2557 17.4467 25.9717 25.0474 21.4331 17.3895 20.0859 29.532
threshold=0.90716016292572033 0.70571896433830272 0 1 2 0.42398183047771459 0.64836937189102184 3 4 0.77842608094215404 5 0.82831159234046947 0.79217129945755016 6 0.77599897980690014 7 8 9 0.01846171356737614 10 11 0.88918128609657299 12 0.12430905178189279 13 0.75423783063888561 14 0.961643546819687 15 16 0.2162541747093201 17 0.63538789749145519 0.48933325707912451 0.58513560891151439 0.22589757293462756 0.14490728080272677 18 0.81213796138763439 0.42165417969226843 0.66301345825195324 19 0.60113981366157543 20 0.93636098504066478 0.01846171356737614 0.032449983060359962 21 22 23 0.027548418380320076 0.31641992926597601 0.56831449270248424 0.56213852763175975 0.90379473567008983 24 0.20810029655694964 25 26 0.25471772253513342 27 0.19869672507047656 0.54155158996582042
decision_type=2 2 9 9 9 2 2 9 9 2 9 2 2 9 2 9 9 9 2 9 9 2 9 2 9 2 9 2 9 9 2 9 2 2 2 2 2 9 2 2 2 9 2 9 2 2 2 9 9 9 2 2 2 2 2 9 2 9 9 2 9 2 2
left_child=1 2 26 9 12 10 14 -5 -7 19 39 -9 13 -3 16 -16 50 -8 -17 -2 25 23 -11 24 -18 -14 42 29 -29 -20 43 -32 -33 34 45 -31 -37 -38 60 -6 41 -40 44 -19 -1 46 -28 -42 -23 -36 -4 -52 -53 54 55 -15 58 -58 59 -12 61 -10 -63
right_child=3 4 6 7 5 8 17 11 38 22 56 -13 20 53 15 18 21 30 27 -21 -22 48 -24 -25 -26 -27 33 28 -30 35 31 32 -34 -35 49 36 37 -39 40 -41 47 -43 -44 -45 -46 -47 -48 -49 -50 -51 51 52 -54 -55 -56 -57 57 -59 -60 -61 -62 62 -64
leaf_value=-0.00053810272812366612 -0.0020911831298206654 0.0090480802611922987 -0.01090145686169312 0.0021902304791691861 0.011966592039247595 -0.010581655225270891 -0.0020143519699603826 -0.0023493252037248935 -0.0050338638656650201 -0.028559903129413484 0.011345587393223342 -0.0083213400272305737 -0.0028554666045055655 0.012047239748995527 -0.006429750616845315 0.016373574456447056 -0.0017413241791997037 -0.00041920083152939053 -0.00078060495017582296 -0.012525217151143402 -0.00044638223954266202 0.0066607194901730999 -0.013742035497473418 0.0043172398320849526 0.005310153623017057 -0.012797477704246498 -0.045361193278049286 -0.010018501666700508 0.0065033271385075368 0.008466036564161887 -0.00075568530103861133 0.00048182838407598858 0.0074817368378669695 0.0013141285380172099 0.0056967833526173827 0.014999735479761453 -0.0083741524314867519 0.0063049180794478672 0.0046380555708942454 0.0024692075371754111 -0.0049642737535355464 -0.0073380244926774547 -0.0048954201491123407 0.007795269885928653 -0.020297736334037919 0.00011931288929985794 -0.0065737294324878038 -0.012378104004489469 -0.013558996381953075 -0.0053518279976716761 0.01490889357857892 0.0035187414798607797 0.0097962500090896954 0.00012472177688072262 -0.009221552751281302 0.0025179096750544546 -0.012780811534154239 -0.0017911815367000099 0.006502363878390335 -0.006179699665385654 -0.0043331835293276945 0.013525734784123498 -0.00024376416605236933
leaf_weight=3005.3426519781351 529.28402660787106 578.15111491084099 41.992299869656563 1109.8261545598507 290.68681028485298 1266.2269942164421 2565.1011178344488 2152.9456380307674 651.08515831828117 161.84780852496624 70.988944634795189 2189.2090398222208 739.11497363448143 342.45214368402958 614.32430246472359 148.15722408890724 1507.6477048695087 356.47425502538681 886.37258850038052 530.70878933370113 2895.5297645032406 51.235996052622795 892.60216407477856 13969.746200025082 882.8849478662014 368.14274257421494 14.820512577891348 297.1573364585638 154.69947838783264 911.09285470843315 2932.2909530848265 1065.9019699692726 944.89713953435421 7888.5410757064819 138.72230789065361 83.233002081513405 252.46405756473541 200.22613333165646 256.97071605920792 734.53205354511738 715.92224694788456 305.67736944556236 1714.8447503596544 934.92532935738564 43.717356830835342 5617.8510368317366 90.469081848859787 656.15959918498993 130.21190968155861 1356.8696714192629 472.1506866812706 974.50272217392921 1074.9214628189802 3583.7471195161343 110.47040821611881 533.41788826882839 283.31668518483639 624.62755048274994 357.89312173426151 452.04044237732887 3206.4727937430143 157.96225963532925 1155.1836312115192
leaf_count=12025 2120 2313 168 4442 1163 5074 10263 8618 2606 651 284 8776 2958 1370 2458 593 6031 1426 3546 2126 11586 205 3585 55887 3532 1474 60 1189 619 3645 11731 4264 3780 31558 555 333 1010 801 1029 2939 2867 1224 6863 3740 175 22474 362 2629 521 5429 1889 3899 4301 14339 442 2134 1134 2500 1432 1809 12836 632 4624
internal_value=-5.22193e-07 0.000643975 0.00165653 -0.00610771 -0.00190989 -0.00366953 0.00294895 -0.00381311 -0.00500905 -0.011931 0.000292115 -0.00535607 0.000241636 0.00202725 0.00376919 0.00107705 0.00426745 0.000837141 0.00267383 -0.00748813 -0.00204679 0.00368019 -0.0164706 0.00381494 0.000866477 -0.00614122 -0.000388966 0.0019383 -0.00437153 0.00317439 0.0020153 0.0010855 0.00376942 0.000213098 -0.000985659 0.00558345 0.000724402 -0.00186146 -0.00398991 0.00515015 -0.00670431 -0.0018645 -0.0023006 0.00556306 -0.000837814 -0.000113297 -0.0126911 -0.00866431 -0.00805795 -0.00430155 0.00799669 0.00835919 0.00682909 0.00110849 0.00465998 0.00645354 -0.00249149 -0.00542402 0.000471448 -0.00365691 -0.00297507 -0.000715999 0.00139881
internal_weight=79227 71660.6 51323.8 7566.42 20336.8 11185.7 31452.6 5451.98 8371.66 2114.44 2814.09 4342.15 9151.03 5148.24 22653 3547.73 19105.3 8799.59 2933.4 1059.99 4002.79 16541.7 1054.45 16360.3 2390.53 1107.26 19871.2 2785.25 451.857 2333.39 6234.49 4943.09 2010.8 15107.3 7218.73 1447.02 535.923 452.69 7105.43 1025.22 1934.73 562.648 4763.9 1291.4 3049.06 5723.14 105.29 1372.08 181.448 1495.59 2563.57 2521.57 2049.42 4570.09 986.34 875.87 1788.87 907.944 880.923 523.029 5170.7 1964.23 1313.15
internal_count=317048 286730 205332 30318 81398 44782 125831 21836 33521 8482 11261 17394 36616 20598 90627 14194 76433 35204 11736 4246 16018 66176 4236 65450 9563 4432 79501 11143 1808 9335 24941 19775 8044 60438 28880 5789 2144 1811 28447 4102 7749 2253 19063 5166 12200 22896 422 5496 726 5984 10257 10089 8200 18285 3946 3504 7159 3634 3525 2093 20698 7862 5256
cat_boundaries=0 3 6 9 12 15 18 21 24 27 30 33 36 38 41 44 47 49 52 55 58 61 64 67 69 72 75 78 81
cat_threshold=3255845701 114822 22928 537645060 1444726997 98609 249949315 2452095293 4216960 41954002 2818637856 1054848 1053184 1275355648 1220608 1073741824 1090546176 655360 33563650 33554440 22528 12714114 2231640576 1770017 14692354 2181431376 4194816 604013568 1141254241 4333569 537432068 1074300944 48 167814272 2149580813 4194304 537001984 1376288784 201918608 94374177 139272 1074807040 128 16640 2361360 536870928 8 151822368 276955201 985122 297272072 1605632 2064 136314880 4194312 2147483732 8587330 65560 140781584 2281701376 524288 537526384 546375744 524832 150994944 2105344 1638408 33555008 81920 140773376 271056916 4194304 96 76546048 33041 272 142704770 8192 554172704 545423552 65800
is_linear=0
shrinkage=0.03


Tree=10
num_leaves=64
num_cat=24
split_feature=12 14 21 21 21 17 5 16 21 21 17 21 10 21 21 15 17 21 21 8 21 8 21 16 21 21 21 8 21 16 8 17 9 18 15 17 21 21 8 21 3 21 10 17 15 15 6 8 21 8 21 15 10 21 14 17 10 15 14 17 5 21 10
split_gain=327.239 214.5 137.382 88.5866 86.9988 75.5073 70.4066 45.3156 44.3311 42.9114 37.3722 36.7915 36.1449 38.7607 35.7659 32.7038 32.4205 43.1289 42.9455 40.6697 39.3729 32.2863 32.1926 31.9985 36.7958 31.1801 28.1425 27.4422 33.5483 26.6327 32.432 26.4725 26.7189 25.2928 25.4787 24.7529 24.3945 24.357 24.2873 24.1486 24.0614 22.7399 22.2004 24.5419 22.3747 26.1897 23.8991 32.6938 21.8281 21.3809 21.1856 21.0842 20.386 20.2662 20.1075 38.1777 19.8334 19.3715 19.2434 28.1394 18.9207 18.7308 18.6868
threshold=0.94066500663757335 0.70571896433830272 0 1 2 0.42398183047771459 0.64836937189102184 0.78236818313598644 3 4 0.79217129945755016 5 0.52978160977363598 6 7 0.76576852798461925 0.77599897980690014 8 9 0.10756091028451921 10 0.6045854687690736 11 0.77053999900817882 12 13 14 0.031983088701963432 15 0.42165417969226843 0.78143885731697094 0.60025775432586681 0.12430905178189279 0.48933325707912451 0.54178306460380565 0.31266711652278906 16 17 0.19667526334524157 18 0.82686936855316173 19 0.075812518596649184 0.7964594066143037 0.044077470898628242 0.22102355211973193 0.37533068656921392 0.1639777943491936 20 0.7146558165550233 21 0.035275265574455268 0.40114636719226843 22 0.16944521665573123 0.043732922524213798 0.45358008146286016 0.18941140174865725 0.10115703567862512 0.28489995002746588 0.36578397452831274 23 0.83064445853233349
decision_type=2 2 9 9 9 2 2 2 9 9 2 9 2 9 9 2 2 9 9 2 9 2 9 2 9 9 9 2 9 2 2 2 2 2 2 2 9 9 2 9 2 9 2 2 2 2 2 2 9 2 9 2 2 9 2 2 2 2 2 2 2 9 2
left_child=1 2 26 41 10 9 16 50 -7 29 11 -3 13 -12 -14 38 18 -18 23 20 -20 36 -8 31 -25 -9 42 28 -19 30 -6 32 56 52 49 53 -10 -33 -11 -29 -15 -2 -1 44 -44 46 47 -46 -37 -35 -5 -26 54 -24 55 -28 -4 -51 59 -34 -16 -58 -17
right_child=3 4 6 7 5 8 22 25 21 15 12 -13 14 40 60 62 17 27 19 -21 -22 -23 35 24 51 -27 33 39 -30 -31 -32 37 58 34 -36 48 -38 -39 -40 -41 -42 -43 43 -45 45 -47 -48 -49 -50 57 -52 -53 -54 -55 -56 -57 61 -59 -60 -61 -62 -63 -64
leaf_value=-0.0088778927957779211 0.0034447463140496798 0.0087106253076271369 0.0017448841278298129 -0.011835865781926122 0.02087960936851118 -0.0094378011219248669 0.0040305678113885255 -0.021072754915440278 -0.0040617879841801756 0.020455944874284693 0.0093135751650957107 0.00088405943020741947 -0.00013282164361478141 -0.0084531497453884576 -0.0025135892839893382 0.0025779046956161135 -0.0062411821148858418 -0.0048842954926049302 0.022530852883857345 0.0051301373224839622 0.0078186970257754524 -0.0048728970994546018 -0.0030819798661723191 0.0067471502478877966 -0.038671180336661337 -0.011088459827863729 0.033204811466953192 0.0056608594943659187 0.01593423024438238 0.0017749832058629803 0.0023357412134976927 0.0048950165593693558 0.022762176503447897 0.0018867624460225673 -0.0015447785868665668 -0.0041459030203401951 0.0060828054822729353 -0.0028030815060096368 -0.0079626814770674438 -0.00038435652331772632 0.0076051544286979272 -0.0042974168315746356 0.011481230020481159 -0.0093356242322919954 -0.0051089008696799101 0 -0.0096240922792445536 0.012231758943698011 -4.7559232368411406e-06 0.029264240531431337 -0.0038464793963380486 -0.0060728752554614646 -0.0025470876139610781 0.0033120225178836092 -0.00055863568062684225 0.0032827010490382642 0.00034012372849648217 0.0068351099388218291 0.0043924106006682307 0.0053486637898826662 -0.008612234978768403 -0.017590525807195896 -0.0091067253464767635
leaf_weight=432.7037155777216 420.36496271193027 608.37581327557564 1388.3887272179127 499.04426161944866 171.2241837978363 1795.3757247626781 1904.5707288980484 486.88729126751423 384.60166390240192 26.492527589201927 472.17516565322876 4428.7942077368498 1839.3633436858654 268.17876645922661 813.66576705873013 881.00590854883194 598.0312779545784 91.465687423944473 233.11409804224968 6024.4508973807096 681.64487987756729 5978.7851849198341 551.12444387376308 238.46099127829075 17.989701852202415 1007.1584332734346 39.98003377020359 848.82691586017609 247.32028010487556 901.9634058624506 175.97212408483028 556.9225490540266 128.96660006046295 5872.8002316206694 2023.3161549866199 1857.3688163161278 450.0862583220005 1049.0942406356335 822.48459409177303 1905.5804832875729 119.46312062442303 1623.0297956168652 122.19497016072273 352.97316782176495 386.09410662949085 2911.673791334033 577.67727209627628 129.71026948094368 3008.8882419914007 39.675124302506447 853.10197453200817 515.90910738706589 3880.6006856411695 2130.4829029291868 2832.4178289175034 706.19694109261036 112.490473985672 309.7038377225399 7898.3587390929461 254.69215352833271 1101.8137805759907 88.493222922086716 141.63127170503139
leaf_count=1733 1682 2434 5554 2001 685 7197 7619 1962 1539 106 1889 17720 7361 1073 3256 3526 2393 366 934 24103 2728 23943 2205 954 72 4044 160 3396 990 3609 704 2228 516 23493 8095 7432 1801 4197 3292 7624 478 6503 489 1413 1545 11650 2312 519 12038 159 3418 2064 15527 8523 11331 2825 450 1239 31598 1019 4411 354 567
internal_value=-9.57942e-07 0.000493221 0.00151762 -0.0075182 -0.0020422 -0.00377638 0.00273749 -0.0109311 -0.00522881 0.000208901 6.62144e-05 0.00185587 -0.00188064 0.00364865 -0.0031554 -0.00265054 0.00363835 0.00105229 0.00413417 0.00602673 0.0119526 -0.00409424 0.000556473 0.00305181 -0.00283222 -0.0145893 -0.000395111 0.00248579 0.0105527 0.00450108 0.0116007 0.00345325 0.00403442 0.00022347 0.0013702 -0.000321511 0.00139747 -0.000100522 -0.00701755 0.00148824 -0.00333449 -0.00268019 -0.00237461 -0.00174329 -0.00108462 -0.00147826 -0.00543458 -0.000674934 -0.00160058 0.00232301 -0.0069398 -0.00716368 -0.00103984 0.00198694 0.000586492 0.00496837 0.000450326 0.00954401 0.00471847 0.0113242 -0.00600859 -0.00830827 0.000923006
internal_weight=79221.4 74331.8 52950.4 4889.59 21381.5 11729.6 32332.6 2846.19 8608.85 3120.77 9651.83 5037.17 4614.66 859.817 3754.84 1871.61 22880.2 3691.22 19189 6939.21 914.759 6813.47 9452.44 12249.8 772.36 1494.05 20617.7 3093.19 338.786 1249.16 347.196 11477.4 9871.39 15704.7 8245.5 7547.86 834.688 1606.02 848.977 2754.41 387.642 2043.39 4913.03 4480.32 4127.35 4005.16 1093.48 515.804 4866.26 6222.18 1352.15 533.899 7459.2 2681.61 3578.59 746.177 1589.37 349.379 8282.02 383.659 1915.48 200.984 1022.64
internal_count=317048 297438 211847 19610 85591 46969 129357 11425 34480 12489 38622 20154 18468 3440 15028 7491 91540 14769 76771 27765 3662 27283 37817 49006 3090 6006 82490 12376 1356 4998 1389 45916 39491 62829 32986 30198 3340 6425 3398 11020 1551 8185 19661 17928 16515 16026 4376 2064 19470 24891 5419 2136 29843 10728 14316 2985 6358 1398 33133 1535 7667 804 4093
cat_boundaries=0 3 6 9 12 15 18 21 24 27 30 33 36 39 42 45 48 51 54 57 60 63 66 69 72
cat_threshold=3255911237 114822 18832 2342857427 2827027368 5245576 115666051 2997354813 22656 2148667904 1275355776 1220609 1208090624 1090808320 655360 33563650 33554440 22528 8407043 272 6144 14960768 847249456 2176 12582914 2231640576 1770017 218794160 1434454304 1744937 547360768 134348872 4260352 31461552 2550137360 552 134381584 268435712 1572904 541724708 1443397712 139281 1074807040 128 16640 19136512 256 4194304 1090519412 16779264 4194848 16809984 1149241376 1736705 0 1479543080 4194312 41943250 2281766944 2176 67798016 1158029313 172033 1196292 370558981 33025 11264 67635200 4194304 67633184 352321536 1081345
is_linear=0
shrinkage=0.03


Tree=11
num_leaves=64
num_cat=25
split_feature=12 14 21 21 21 17 21 5 21 21 12 16 17 10 21 21 17 21 21 4 21 21 21 14 16 10 15 21 1 21 10 15 21 9 9 21 21 3 14 21 21 10 17 21 15 21 21 10 14 21 17 21 3 16 9 10 10 17 15 15 6 2 17
split_gain=310.474 182.052 133.858 101.012 76.4714 65.3393 53.6235 53.2124 53.1493 40.8971 40.3826 38.5012 34.5896 40.0688 36.3727 31.0079 29.7792 41.9637 41.2142 30.061 29.7221 29.572 28.3574 26.6838 26.2865 25.6704 25.0059 50.886 25.0762 29.5396 35.6437 24.4801 29.4164 25.5451 24.0254 28.7396 23.4998 23.3503 23.0596 22.9917 22.5112 24.9969 22.4819 30.5699 27.6257 33.0272 30.2843 27.686 21.4066 36.1032 23.2651 24.3574 24.9301 21.5436 20.7692 20.0852 19.9494 21.4159 19.798 25.013 24.8881 28.027 19.6138
threshold=0.90716016292572033 0.70571896433830272 0 1 2 0.46418705582618719 3 0.64836937189102184 4 5 0.98347094655036937 0.77842608094215404 0.79217129945755016 0.53372508287429821 6 7 0.77599897980690014 8 9 0.01846171356737614 10 11 12 0.89075747132301342 0.88918128609657299 0.055079890415072448 0.78511115908622753 13 0.31077262759208685 14 0.82686936855316173 0.63692373037338268 15 0.89942482113838207 0.12430905178189279 16 17 0.76504379510879528 0.93447503447532665 18 19 0.39329588413238531 0.961643546819687 20 0.28985677659511572 21 22 0.34185381233692175 0.4194475263357163 23 0.31266711652278906 24 0.63599035143852245 0.17878944426774981 0.9291900396347047 0.03039541840553284 0.075812518596649184 0.7964594066143037 0.044077470898628242 0.22506543993949893 0.37533068656921392 0.24863371253013614 0.2162541747093201
decision_type=2 2 9 9 9 2 9 2 9 9 2 2 2 2 9 9 2 9 9 2 9 9 9 2 2 2 2 9 2 9 2 2 9 2 2 9 9 2 2 9 9 2 2 9 2 9 9 2 2 9 2 9 2 2 2 2 2 2 2 2 2 2 2
left_child=1 2 40 11 12 9 -5 16 -7 -6 23 21 15 22 -15 -3 18 -18 -4 -19 -9 -2 -14 -8 34 -10 27 37 -28 54 38 62 33 -33 35 -20 -13 -27 -31 -32 56 48 44 -44 46 -46 47 -21 49 55 51 53 -53 -50 -30 -42 -1 58 -58 60 61 -60 -22
right_child=3 4 7 6 5 8 10 20 25 -11 -12 36 13 14 -16 -17 17 19 24 42 31 -23 -24 -25 -26 26 28 -29 29 30 39 32 -34 -35 -36 -37 -38 -39 -40 -41 41 -43 43 -45 45 -47 -48 -49 50 -51 -52 52 -54 -55 -56 -57 57 -59 59 -61 -62 -63 -64
leaf_value=-0.0084055460800416051 0.00060443280884479389 0.008525914118366144 0.0075710831928308461 0.0021162161089822184 0.0042246293075760138 -0.010900201442427159 -0.0026752738375351594 -0.001952375320483738 -0.019715173505649816 -0.0025087123026014389 -0.010905183174820839 -0.02710439287615652 0.0094392178367416219 0.00089581394258174342 -0.0059285763134300524 0.0011491275642472761 -0.0062246808946565405 0.015639338324494025 -0.0017119449844674418 -0.014887441259902122 0.0059629592616664206 -0.011010130090640171 -0.0021750540984333058 -0.0096332936640086408 -0.0078164930317610199 0.010747644542540204 -0.0019220841830765985 -0.0052925868033759996 -0.011600553497358262 0.0016595146653791248 -0.0020348811204955056 4.6597963387454685e-05 -0.0088948493872465558 0.025715906379257879 0.0040641888094678762 0.0050637133296917609 -0.013297420549241228 0.00014929264679098528 -0.0063879519937747441 -0.012265792891551882 -0.024805714068236617 -0.00095227475602099149 -0.0097950560920134645 0.0062205861815964984 0.0050293110738863535 -0.0064024760993105249 0.0087402978710860828 0.0029021084724671535 0.0096323159688581333 0.0042229308825014822 0.002734482214245975 0.012631213286662453 -0.011713389352475019 -0.0049613115609122996 -0.0008916175796306893 -0.0017682027077787696 0.011071695432252152 -0.0088153372914974645 -0.0053325672734060381 0.00018384160879844833 -0.0095214819140297738 0.0093705121724535212 0.0016216224242257017
leaf_weight=421.58030027151108 284.57649192214012 578.10724395513535 2562.9264476597309 1109.8325608819723 1343.0964446663857 1101.6816576123238 3097.1907593756914 2512.9766050577164 90.176974326372147 2014.8987394124269 906.63752180337906 166.24209471046925 419.6945257037878 1121.6184451282024 1846.8032555133104 4196.5325909256935 587.98022930324078 148.05371282994747 1507.6359643638134 94.484558299183846 1202.8953523933887 632.78927247226238 329.66371387243271 596.72528752684593 181.3998036980629 370.35174255073071 2094.1799222379923 857.95787158608437 1045.9647391289473 944.49741525948048 335.78420372307301 269.70447050035 378.91214479506016 39.491515725851059 13968.548121258616 882.81055407226086 767.62367874383926 388.90625554323196 481.58315874636173 570.92906181514263 34.996680229902267 7970.8548757582903 297.11797334253788 154.69536483287811 407.18252103030682 486.15956538915634 924.98647147417068 446.65960288047791 94.989215195178986 3387.0206582695246 1202.3200318515301 162.23534110188484 47.230788141489029 1436.073375582695 200.55772092938423 771.19173900783062 118.4695487767458 336.91408155858517 349.34179182350636 2797.4935885667801 565.82411932945251 173.6932009011507 4395.412811934948
leaf_count=1689 1140 2313 10257 4442 5374 4419 12406 10055 361 8065 3639 671 1679 4488 7393 16790 2353 593 6031 378 4812 2537 1319 2394 726 1482 8385 3435 4190 3782 1345 1079 1516 158 55887 3532 3089 1557 1929 2288 140 31891 1189 619 1629 1945 3701 1787 380 13549 4810 649 189 5745 804 3085 474 1349 1398 11193 2265 695 17584
internal_value=-8.9965e-07 0.000608877 0.00156101 -0.00578237 -0.00179277 -0.0033495 -0.00377576 0.00277844 -0.00475449 0.000181054 -0.0052053 -0.011866 0.000377803 -0.00178689 -0.00335739 0.00207044 0.00354882 0.00101284 0.00401808 0.00247525 0.000794968 -0.00749108 0.00439051 -0.00380971 0.00345864 -0.00381182 -0.00361355 -0.000302598 -0.00455183 -0.00608109 -0.0040051 0.0018982 -0.00341647 0.00338508 0.00358809 0.000792901 -0.0162459 0.0052961 -0.00103964 -0.00867398 -0.000365661 0.000199902 0.0017748 -0.00432255 0.00295642 -0.00117392 0.00549265 -0.000167282 0.0014913 0.00286855 -0.000461232 -0.00268629 0.0066537 -0.00400449 -0.00982494 -0.00280023 -0.00216196 -0.00155199 -0.000931407 -0.00130777 -0.00516421 -0.000384051 0.00256069
internal_weight=79214.9 71653.2 51320.3 7561.62 20333 11840.6 5710.39 31450 8482.57 3358 4600.55 1851.23 8492.42 3717.78 2968.42 4774.64 22650.6 3547.32 19103.3 2959.34 8799.39 917.366 749.358 3693.92 16540.4 7380.89 7290.71 1617.22 5673.5 3579.32 2332.79 6286.42 688.108 309.196 16359 2390.45 933.866 759.258 1426.08 906.713 19870.2 15106.9 2811.29 451.813 2359.47 893.342 1466.13 541.144 7136.06 4193.21 2942.85 1740.53 209.466 1531.06 1246.52 806.188 4763.32 4341.74 4004.82 3886.35 1088.86 523.035 5598.31
internal_count=317048 286730 205332 30318 81398 47416 22881 125831 33977 13439 18439 7437 33982 14879 11881 19103 90627 14194 76433 11841 35204 3677 2998 14800 66176 29558 29197 6474 22723 14338 9344 25149 2753 1237 65450 9563 3760 3039 5711 3633 79501 60438 11248 1808 9440 3574 5866 2165 28547 16774 11773 6963 838 6125 4994 3225 19063 17374 16025 15551 4358 2093 22396
cat_boundaries=0 3 6 9 12 15 18 21 24 27 30 33 36 39 42 45 48 51 53 55 58 61 63 65 68 71
cat_threshold=3255845701 114822 22928 537645056 1444726996 98609 111537283 2452095261 4216960 41954002 2818637856 1054848 1052672 1275355264 1220608 1207959552 1090808320 1703936 10766336 301989904 18560 33563650 33554440 22528 12582914 2231640576 1770017 14692354 2181431376 4194816 536904704 1141254241 4333569 537432064 1074298896 48 8407043 256 6144 1208614928 537987168 590088 3355574784 16844800 590592 224399504 2164785664 1081856 201918608 94374177 139272 536875008 1376288784 557842784 537920000 1074807040 128 16640 2361360 536870928 8 2109440 1915881840 17347712 310509680 2147483648 65536 4240 5 32774 128
is_linear=0
shrinkage=0.03


Tree=12
num_leaves=64
num_cat=23
split_feature=12 14 21 21 21 1 21 3 16 21 21 17 15 21 21 10 16 21 21 21 15 13 17 16 21 21 17 4 12 21 2 3 10 17 21 15 21 17 4 21 10 7 21 16 15 6 7 17 21 4 10 21 4 21 2 10 21 11 14 16 21 15 2
split_gain=292.544 190.846 136.955 88.2011 80.8619 50.9209 52.8891 50.2575 42.819 41.6283 41.3392 37.4842 36.7821 36.7046 27.2262 26.2256 26.0842 27.9374 25.3893 25.1153 32.7368 48.9379 24.5922 26.9731 26.0269 24.1493 26.014 25.5499 23.7235 24.3216 23.4911 23.4744 23.1397 24.4283 32.0275 22.3393 40.6633 23.5146 23.4245 26.6166 24.5997 27.5284 22.1939 22.1822 21.6909 22.1914 21.4834 21.2147 29.0809 27.2827 26.9197 22.9128 20.9055 20.8143 20.8045 20.7849 19.9869 19.6906 20.034 19.5606 31.3878 19.4818 21.3812
threshold=0.94066500663757335 0.74438130855560314 0 1 2 0.55742415785789501 3 0.79217129945755016 0.78236818313598644 4 5 0.23700360208749774 0.86967843770980846 6 7 0.92897790670394909 0.88109999895095836 8 9 10 0.47837774455547338 0.78861561417579662 0.43200893700122839 0.37845472991466528 11 12 0.77599897980690014 0.23734910041093829 0.44637812674045568 13 0.34626127779483801 0.85411036014556896 0.9886038899421693 0.961643546819687 14 0.59779572486877453 15 0.7723386585712434 0.81549209356307995 16 0.75833436846733104 0.10817776620388032 17 0.48611068725585943 0.99864131212234508 0.072255689650774016 0.51358735561370861 0.78028330206871044 18 0.067450195550918593 0.33419243991374975 19 0.50578054785728466 20 0.14782813191413882 0.055079890415072448 21 0.60113981366157543 0.34670585393905645 0.93681183457374584 22 0.035275265574455268 0.47400720417499548
decision_type=2 2 9 9 9 2 9 2 2 9 9 2 2 9 9 2 2 9 9 9 2 2 2 2 9 9 2 2 2 9 2 2 2 2 9 2 9 2 2 9 2 2 9 2 2 2 2 2 9 2 2 9 2 9 2 2 9 2 2 2 9 2 2
left_child=1 2 16 15 56 13 11 9 42 12 -9 18 -5 32 -10 44 19 -18 -7 55 21 61 23 46 -24 -17 31 -28 29 -12 -31 -27 33 35 -35 -4 -37 38 39 -38 41 -41 -6 -20 45 -3 -11 49 -49 53 -50 -51 -8 -15 -30 -1 -2 -57 -59 60 -56 -21 -63
right_child=4 3 5 7 8 6 52 10 14 22 28 -13 -14 47 -16 25 17 -19 43 20 -22 -23 24 -25 -26 26 27 -29 54 30 -32 -33 -34 34 -36 36 37 -39 -40 40 -42 -43 -44 -45 -46 -47 -48 48 50 51 -52 -53 -54 -55 59 57 -58 58 -60 -61 -62 62 -64
leaf_value=-0.0087651823663498132 0.0032819036535321699 0.0088685606239036208 0.003298263556026795 -0.0030416225486026931 -0.013080471420191786 0.011991926147779044 0.005022776777946227 -0.010276819451301728 -0.020147129782639769 0.004529006810741738 0.0046725269025561017 -0.0019762446270513542 -0.019599173894827078 0.005760028115490189 -0.010705058391775893 0.0055770645330858876 0.010979951500189355 -0.0059224000873684957 0.0062470669035997323 -0.0043133511508414383 -0.0012649366358136022 0.01231066542879956 0.0037947670554692326 0.00030464834610573476 -0.0030397203701867798 0.019929665960590388 0.017093721617171712 -0.012328440232075565 -0.019470017793875322 -0.0096824018775612947 -0.0014328100061794242 -0.0041913384690282079 0.017354455167498967 0.0083508802165399004 -0.0099474897263699593 0.0079337627959443317 -0.003725797852342061 -0.0091980789238729592 -0.0083439548092813995 0.027859429311957742 -0.0063144574748845925 0.0049655401456925432 -0.0040822329777251316 -0.00056994893528434154 0.015040823858534644 0.00051868939544901915 0.020624067766133392 0.0071827422020062856 -0.018917752514940624 0.010570678722234097 -0.00045193656961268851 0.0045252279090550757 0.0011993087992434744 0.018817218911620869 -7.3859475719181508e-05 -9.6924088967412341e-06 -0.0039843111938386837 -0.0065798070361764317 -0.00075631178676632143 -0.0090632243971776431 -0.0070517818808842631 0.0025895406325458009 -0.00054213738267786101
leaf_weight=365.89019973576069 420.39932233095169 301.4157856553793 8711.1954064816236 319.10943265259266 340.22029472887516 226.45290650427341 3003.2908097356558 1285.4146410375834 469.53607846796513 204.69929832220078 411.03242439031601 5120.2072997242212 199.13312041759491 273.556410998106 1031.4886550456285 162.37434679269791 84.970587491989136 1147.0574800372124 621.87624336779118 554.83613938093185 6103.7582050859928 365.36721180379391 612.06557649374008 718.96335037052631 2535.7541164308786 50.228512644767761 26.489440158009529 464.11909592151642 98.565183594822884 406.47561791539192 1363.3173372596502 120.42489638924599 92.389354810118675 110.17559948563576 293.51788778603077 479.1474898904562 608.40175892412663 315.63841500878334 277.43653765320778 50.488381445407867 159.21331034600735 728.59979505836964 1022.8302875012159 1363.2529346346855 99.200472474098206 5740.1465596556664 123.467249751091 433.09411533176899 79.980992525815964 638.64485339820385 612.2544572353363 6146.9291504770517 2295.704380646348 235.72759824991226 1074.8373721987009 3591.5090205520391 1600.6578437685966 1062.3685075193644 1089.9752261936665 952.51713272929192 1288.3800091743469 5491.5085567981005 3030.3330497145653
leaf_count=1466 1682 1206 34854 1278 1366 906 12016 5158 1899 819 1646 20488 798 1095 4147 650 340 4591 2488 2221 24422 1462 2450 2877 10152 201 106 1858 395 1628 5459 482 370 441 1175 1917 2434 1263 1110 202 637 2915 4100 5454 397 22970 494 1733 320 2556 2450 24597 9185 944 4305 14370 6416 4252 4362 3819 5162 21969 12123
internal_value=-1.2236e-06 0.000465858 0.00134317 -0.00216866 -0.00711224 0.00258329 0.00108573 -0.00377001 -0.0103461 -0.00137779 -0.00540938 -0.000562408 -0.00930782 0.00351725 -0.0138955 0.000497695 -0.000437889 -0.00468337 0.00269419 -0.000194967 0.000444195 0.00155272 -0.000365925 0.00360449 -0.00169811 -0.00451756 -0.00702444 -0.0106473 -0.00425817 -0.00180042 -0.00333006 0.00280818 0.00242705 0.00230755 -0.00491055 0.00256779 0.000126284 -0.00164027 -0.000320739 0.00110349 0.0042617 0.00652143 -0.00648397 0.00154479 0.00117669 0.000941631 0.0107199 0.00503555 0.00117255 0.00563402 -0.00261524 0.00512235 0.00336617 0.0123692 -0.00583071 -0.00182373 -0.00244852 -0.00137805 -0.00364636 -0.00541047 -0.00392229 0.00111506 0.00147248
internal_weight=79208 74322.9 55764.8 18558.1 4885.13 32877.2 12630.8 11593.7 2864.08 4713.19 6880.54 7331.79 518.243 20246.4 1501.02 6964.4 22887.6 1232.03 2211.58 21655.5 15545.8 9442.04 4194.95 1047.13 3147.82 823.636 661.262 490.609 5595.13 2180.83 1769.79 170.653 11826.2 11733.8 403.693 11330.1 2618.93 2139.78 1824.14 1546.7 938.301 779.088 1363.05 1985.13 6140.76 6041.56 328.167 8420.19 1125.33 7294.86 692.235 6785.57 5299 509.284 3414.3 6109.74 2021.06 5743.85 2152.34 3315.73 2363.22 9076.68 8521.84
internal_count=317048 297438 223128 74310 19610 131550 50537 46440 11512 18868 27572 29336 2076 81013 6046 27870 91578 4931 8848 86647 62197 37775 16792 4190 12602 3297 2647 1964 22414 8733 7087 683 47318 46948 1616 45332 10478 8561 7298 6188 3754 3117 5466 7942 24573 24176 1313 33695 4503 29192 2770 27153 21201 2039 13681 24450 8098 22984 8614 13286 9467 36313 34092
cat_boundaries=0 3 6 9 12 15 18 21 24 26 29 32 35 38 41 44 47 50 53 55 58 61 64 67
cat_threshold=3255911239 67223686 18832 44386755 2449490217 22656 2342857427 2827027368 1051272 604931104 1099836193 5316641 5248512 1746141824 1245184 537038848 1275600960 5414961 162039984 3785359633 1749000 537530404 1443397712 139281 33554944 65664 131072 8651520 1056768 3255845632 65664 16384 32800 10584068 4235312 65536 302006305 16512 16778752 537297556 256 16779264 10485760 8 2130080 16 131080 134217744 1084227840 565248 1196288 370294789 33025 536875008 403834920 67112960 33816576 4194304 131072 168568864 4260384 41943250 2281766944 2176 3238011924 562037392 65536
is_linear=0
shrinkage=0.03


Tree=13
num_leaves=64
num_cat=25
split_feature=12 14 21 21 21 17 21 21 1 2 17 21 21 10 15 21 21 21 12 15 10 2 17 8 10 21 21 8 10 17 3 21 15 21 21 6 9 21 21 10 10 14 21 17 21 17 21 1 18 15 21 1 21 17 21 9 9 13 15 14 21 9 21
split_gain=277.75 161.403 118.801 91.4872 68.8307 53.8785 49.0241 47.7367 44.688 40.0295 39.3546 36.1842 35.1617 33.8479 31.2497 29.2283 29.2119 27.3151 28.7957 27.2122 26.7607 25.7788 24.5869 22.5736 21.9873 29.1967 28.5662 21.7898 21.5462 27.6942 21.5336 32.6854 24.9201 29.6803 24.6395 23.2048 21.9452 20.9931 20.2366 23.0407 23.0248 22.3413 29.8992 22.1247 24.6702 20.4429 19.9193 19.7967 19.2264 19.2031 34.1947 22.3863 22.218 21.0144 22.4862 19.4243 19.1842 19.014 18.9174 18.6827 18.6095 19.4644 18.2777
threshold=0.90716016292572033 0.70571896433830272 0 1 2 0.46418705582618719 3 4 0.4668498188257218 0.82831159234046947 0.79217129945755016 5 6 0.92582011222839367 0.016420405358076099 7 8 9 0.483239695429802 0.99864131212234508 0.055079890415072448 0.80466571450233471 0.22910847514867785 0.19667526334524157 0.49722214043140417 10 11 0.61238130927085888 0.9886038899421693 0.9550921916961671 0.63188499212265026 12 0.62929207086563121 13 14 0.53372508287429821 0.80115297436714183 15 16 0.079650025814771666 0.39329588413238531 0.4194475263357163 17 0.22910847514867785 18 0.7964594066143037 19 0.86197370290756237 0.48933325707912451 0.8005235791206361 20 0.36260522902011877 21 0.6671099364757539 22 0.9291900396347047 0.24585585296154025 0.0057307060342282065 0.76967993378639232 0.98365110158920299 23 0.14447656273841861 24
decision_type=2 2 9 9 9 2 9 9 2 2 2 9 9 2 2 9 9 9 2 2 2 2 2 2 2 9 9 2 2 2 2 9 2 9 9 2 2 9 9 2 2 2 9 2 9 2 9 2 2 2 9 2 9 2 9 2 2 2 2 2 9 2 9
