tree
version=v4
num_class=1
num_tree_per_iteration=1
label_index=0
max_feature_idx=21
objective=binary sigmoid:1
feature_names=rk_ret_1 rk_ret_5 rk_ret_10 rk_ret_20 rk_ret_60 rk_dev_ma_5 rk_dev_ma_10 rk_dev_ma_20 rk_dev_ma_60 rk_std_5 rk_std_20 rk_vol_ratio_5 rk_vol_ratio_20 rk_rsi_14 rk_macd rk_macd_signal rk_macd_hist rk_atr_14 rk_sector_eq_ret rk_sector_rel_strength sector_strength_rank industry_code
feature_infos=[0.00029841839568689466:1] [0.00030376671929843724:1] [0.00029489825828932226:1] [0.0002989536733366549:1] [0.00030039050034247339:1] [0.00029753049602732062:1] [0.00030562348547391593:1] [0.00029507229919545352:1] [0.00033411293406970799:1] [0.00029256875859573483:1] [0.00029256875859573483:1] [0.00029420419014059007:1] [0.00030165913631208241:1] [0.00029542096308432519:1] [0.00040633889148011804:1] [0.00041254126699641347:1] [0.00029197079129517078:1] [0.0002978850097861141:1] [0.00034317089011892676:1] [0.00034317089011892676:1] [0.00034317089011892676:1] -1:0:69:115:86:6:54:31:90:30:1:8:2:112:83:49:16:32:24:64:114:34:106:89:119:21:107:42:38:43:72:80:77:75:103:14:15:63:44:3:102:45:35:95:113:74:28:67:48:104:98:85:93:61:19:120:37:52:94:121:116:46:23:26:124:79:96:105:33:20:40:53:51:125:110:58:82:87:123:109:70:88:84:18:118:50:127:108:101:57:81:10:91:111:60:4:97:68:100:76:66:9:11:126:25:41:56:59:55:92:27:128:47:117:78:73:39:29:65:13:5:71:99:7:17:62:12:22:122
tree_sizes=8042 7976 7905 7367 7968 7930 8001 7934 7342 7971 8016 8013 7925 7985 8026 7984 7363 7950 7977 8030 8011 8127 8098 8057 8109 8195 7959 8056 8154 8247 8016 7963 7935 7356 8071 7996 8076 7372 7348 8144 7356 7359 8200 8074 8179 8094 8164 8160 8141 8137 8101 7351 8129 8104 8157 8003 8158 7354 8176 8162 7345 8199 8195 8074 8058 8094 7357 8174 8171 8210 8070 8109 7338 8112 8229 8229 8170 8223 7357 8268 8203 8144 7352 8217 7382 8258 7350 8280 8357 7893 7857 8247 8168 7382 7365 8156 8115 8222 8261 8264 8175 8030 8167 8303 8207 8353 8142 8237 8148 8310 8248 7411 7372 7985 7353 7346 8296 8320 8254 8087 8312 7882 7333 7359 8276 8233 8220 8318 7363 7796 8289 8173 8134 8012 8179 7383 8336 8311 8363 8083 8084 8366 8367 8290 8089 8237 8299 7961 8131 7939 8325 8177 8134 7338 8339 8085 7331 8301 8225 8307 8272 8250 8337 7357 8056 7370 8321 7354 8213 8317

Tree=0
num_leaves=64
num_cat=28
split_feature=12 14 12 5 21 12 8 16 12 10 5 12 0 16 15 9 11 21 18 0 21 0 21 21 21 21 12 0 6 12 21 16 0 0 10 9 21 21 21 21 21 14 21 21 21 10 14 12 10 21 21 21 21 21 21 21 21 21 10 21 21 16 21
split_gain=6819.6 4308.2 1222.31 1097.94 915.563 835.198 769.752 725.749 515.964 440.621 471.314 430.713 373.272 344.219 338.819 315.218 304.077 282.582 282.46 280.769 250.674 244.583 241.997 239.703 225.394 221.227 206.797 250.88 194.219 181.307 180.028 178.577 175.756 167.298 196.653 166.729 164.291 155.713 147.929 137.54 136.554 136.215 143.61 134.161 132.477 128.924 126.134 121.077 119.98 116.994 116.475 114.866 114.463 113.535 113.091 111.268 110.044 96.4698 93.6067 92.008 91.391 91.3151 106.682
threshold=0.89827504754066478 0.82089537382125866 0.98104706406593334 0.69363072514534008 0 0.0038688491331413393 0.48075138032436376 0.84488996863365184 0.19222627580165866 0.58271983265876781 0.52740049362182628 0.011771943420171739 0.20166052132844928 0.2110768258571625 0.53896331787109386 0.21569566428661349 0.09421034157276155 1 0.15879911929368976 0.88225772976875316 2 0.84634301066398632 3 4 5 6 0.0038688491331413393 0.083639744669199004 0.7797323763370515 0.76786625385284435 7 0.14843001961708072 0.016207456588745121 0.012050611898303034 0.97981384396553051 0.99235951900482189 8 9 10 11 12 0.072775978595018401 13 14 15 0.58673828840255748 0.96397969126701366 0.99263459444046032 0.75322309136390697 16 17 18 19 20 21 22 23 24 0.18437864631414416 25 26 0.79826694726943981 27
decision_type=2 2 2 2 9 2 2 2 2 2 2 2 2 2 2 2 2 9 2 2 9 2 9 9 9 9 2 2 2 2 9 2 2 2 2 2 9 9 9 9 9 2 9 9 9 2 2 2 2 9 9 9 9 9 9 9 9 9 2 9 9 2 9
left_child=1 3 7 4 18 19 8 25 31 22 17 21 35 40 57 23 -17 -11 43 -5 -9 -12 -3 -14 -15 -2 27 -20 -27 53 -13 33 -24 34 -6 54 -4 -28 -34 -35 -7 42 -18 -1 -33 -42 55 -38 -39 -22 -43 -19 -48 -26 -10 -32 -16 -8 -40 -25 -47 -31 -63
right_child=2 9 36 5 6 13 14 20 12 10 11 30 15 24 56 16 41 51 26 -21 49 -23 32 59 29 28 37 -29 -30 61 46 44 38 39 -36 -37 47 48 58 -41 45 50 -44 -45 -46 60 52 -49 -50 -51 -52 -53 -54 -55 -56 -57 -58 -59 -60 -61 -62 62 -64
leaf_value=-0.020149627001789433 -0.015376437011550618 -0.021466592328709004 -0.022684424612947573 -0.014212486745636507 -0.062205625287680817 -0.014573254422050531 -0.014627135842759056 -0.020404076281024752 -0.015599279642490253 -0.014993244401122844 -0.0202901088870974 -0.026995343912108664 -0.015638762878103046 -0.013140830348564402 -0.016742579471853144 -0.015126353843667917 -0.016810458780024056 -0.023011450422949286 -0.067204358175917259 0.026079611186761865 -0.029935704667008328 0.014849966242555669 -0.038735754841406657 -0.008449015155596238 -0.017562919609394108 -0.018268712723282919 -0.016359471091909508 -0.020785765373523519 -0.022163197677313267 -0.016875014467014969 -0.023369655637960847 -0.010498296615276743 -0.012814040688541264 -0.01168243739855182 0.0008751662042247102 0.0013022197713364811 -0.028515252637603072 -0.013611022004997444 -0.014196687665806815 -0.018048451609392505 -0.017519998022144712 -0.01072078660747241 -0.010294999509729535 -0.016278473145705363 -0.014156944481556664 -0.027063517610667699 -0.030017299253791548 -0.033598806400685327 -0.016758603778730598 -0.025184020021770726 -0.008340818123430762 -0.019091526328650195 -0.023057132661669647 -0.014944393369311413 -0.012629382186321004 -0.019687650802605157 -0.014715618428286387 -0.011350129815939868 -0.017897417720166509 -0.012039230738322079 -0.021001912305378328 -0.01529298795356345 -0.021382640561176156
leaf_weight=13540.406558141112 10487.096751049161 10045.374266266823 2861.3217661678791 217.48645260930061 147.74079711735249 4080.9957917779684 10962.067164793611 8203.4889986515045 17253.425271481276 14138.619295030832 303.2311115115881 8413.225933983922 15596.778465226293 25552.158337309957 34955.822576165199 8794.2022026926279 3998.000961586833 8536.7182415574789 143.24107740819454 561.46502593159676 6632.5868512988091 426.22345022857189 311.48059764504433 8524.9689734280109 18617.090327784419 23254.80144135654 35856.266486853361 390.72566141188145 22920.072291880846 29065.939461305737 12498.221476614475 11665.523345991969 9384.6654223054647 4004.0005878657103 61.996138215065002 683.45742693543434 10658.586068853736 80955.207240745425 7956.5043835043907 12742.456263050437 7630.7746734470129 24861.451361954212 12681.960031405091 19949.257346123457 37919.387973502278 2992.063622161746 2933.5672659426928 7093.0581682026386 12580.216369092464 17273.674010172486 76224.251935422421 32478.726876273751 8292.7334395498037 74441.113008454442 35026.568169370294 18443.601134553552 77538.420074924827 31369.545967966318 26996.068395093083 26899.324421346188 9374.9160296022892 3457.2846432030201 10246.111762180924
leaf_count=54165 41951 40184 11446 870 591 16325 43851 32816 69018 56558 1213 33655 62391 102215 139832 35179 15993 34149 573 2246 26532 1705 1246 34102 74473 93025 143434 1563 91686 116271 49996 46665 37541 16017 248 2734 42637 323841 31828 50973 30525 99452 50731 79802 151687 11969 11735 28374 50324 69099 304916 129923 33173 297783 140115 73779 310173 125486 107991 107604 37502 13830 40987
internal_value=-0.0157823 -0.0149758 -0.0228805 -0.0140759 -0.013465 -0.0160939 -0.0127692 -0.0213517 -0.0118752 -0.0194514 -0.0205758 -0.0226457 -0.0112035 -0.0162244 -0.0144845 -0.0105441 -0.00974131 -0.0186496 -0.0153898 0.0148848 -0.0249556 0.000215145 -0.017262 -0.0125362 -0.0157253 -0.0193088 -0.0147564 -0.0333669 -0.0202016 -0.0162114 -0.0229763 -0.0142031 -0.0163138 -0.0168595 -0.0434267 -0.013415 -0.0294626 -0.0146792 -0.0161552 -0.0165233 -0.0195703 -0.00933944 -0.0118558 -0.0178461 -0.0132941 -0.0205897 -0.0221693 -0.0305408 -0.0140349 -0.0265095 -0.00892457 -0.0199098 -0.0248988 -0.0154687 -0.0136083 -0.0211798 -0.0153457 -0.0121967 -0.0170538 -0.0111724 -0.022485 -0.0178283 -0.0198479
internal_weight=1.07211e+06 962723 109385 801564 615327 186237 451911 88771.7 297085 161159 106465 51310.8 230544 185458 154826 177581 126560 55154.1 163415 778.951 32109.7 729.455 54694.1 51021.1 161380 56662 129926 533.967 46174.9 135828 50581.3 66541.1 44648.7 16956.2 209.737 52963.5 20613 129392 44337.2 16746.5 24078.8 117766 16680 33489.7 49584.9 19997.8 42168.1 17751.6 93535.4 23906.3 101086 41015.4 11226.3 93058.2 52280 30941.8 112494 42331.6 34952.6 35424.3 12367 42769.3 13703.4
internal_count=4288698 3851132 437566 3206456 2461460 744996 1807758 355109 1188416 644676 425886 205256 922235 741880 619342 710368 506271 220630 653702 3116 128447 2918 218790 204097 645559 226662 519735 2136 184711 543344 202338 266181 178606 67829 839 211867 82457 517599 177360 66990 96321 471092 66724 133967 198352 79996 168683 71011 374165 95631 404368 164072 44908 372256 209133 123775 450005 169337 139819 141706 49471 171088 54817
cat_boundaries=0 5 9 13 17 21 25 29 33 37 41 45 49 53 57 61 65 69 73 77 81 86 90 94 98 102 106 110 115
cat_threshold=4456481 2296526082 134231168 160475314 1 2151817730 1073852044 270676228 88165634 86210082 136319560 538969346 4557838 1221931692 536910912 1627389960 325191688 103908442 269287428 2214805840 2151875660 203577088 336380608 2695888898 2214985820 673405058 1241776872 572522754 17274882 294912012 839275648 2152776398 4202696 608331776 145228392 681575424 1409521742 262176 2283929856 12416 151005312 570556416 2215649549 2550306950 76652963 822219776 1360281760 4031662642 1677721601 1042299776 3233300864 2684354562 842272769 855864328 588054601 3489989390 1073742080 1 2151677952 4096 152045568 1848642056 537430177 1163852 2455765064 281018368 3263440897 3494359601 2207252864 370710016 1360527872 557844813 1145246209 746587188 468996096 151011480 2686484688 2787392 2156398689 36319281 2692744993 843841704 2282957827 2240 156237955 1 865214660 1638913 5376269 102843137 3426779345 224428065 1233846304 136970257 738429314 1159217157 281086545 838877188 908200522 1360347208 555090432 1078005828 679608704 1074823328 1888748042 840958720 8847360 289804322 318823184 25217748 555493522 1074792718 33964612 402725920 1
is_linear=0
shrinkage=1


Tree=1
num_leaves=64
num_cat=26
split_feature=12 14 12 1 21 8 12 2 12 15 14 0 21 0 5 9 21 11 21 19 21 4 21 1 5 12 12 12 0 21 21 21 14 21 21 0 11 0 21 9 21 21 21 21 21 12 8 21 3 21 21 11 21 11 21 0 2 21 3 21 19 21 21
split_gain=6417.26 4053.91 1150.46 1050.94 875.489 672.785 627.267 592.38 473.608 403.648 356.068 324.435 318.586 279.304 322.968 283.894 265.11 236.465 235.285 230.748 228.242 216.274 213.261 205.799 191.923 188.657 188.415 165.555 257.973 154.597 153.807 148.241 140.74 139.694 136.513 133.653 175.39 224.988 131.78 123.239 120.807 120.423 120.055 118.985 115.815 113.97 112.766 111.379 109.119 106.504 106.125 105.109 104.619 102.914 101.685 93.0224 90.1714 88.417 85.0142 84.9248 84.1481 115.544 78.4175
threshold=0.89827504754066478 0.82089537382125866 0.98104706406593334 0.68648198246955883 0 0.48075138032436376 0.0038688491331413393 0.81105786561965953 0.19222627580165866 0.43700921535491949 0.95569539070129406 0.88225772976875316 1 0.20166052132844928 0.61860772967338573 0.21952142566442492 2 0.09023423865437509 3 0.16660649329423907 4 0.77616560459136974 5 0.75668326020240795 0.48102790117263799 0.0038688491331413393 0.71731686592102062 0.0038688491331413393 0.083639744669199004 6 7 8 0.088997408747673049 9 10 0.92495515942573558 0.0041439326014369735 0.067799098789691939 11 0.99235951900482189 12 13 14 15 16 0.99263459444046032 0.45742700994014746 17 0.71993285417556774 18 19 0.086225427687168135 20 0.89009204506874096 21 0.03190951235592366 0.33936540782451635 22 0.0042071396019309768 23 0.1704768240451813 24 25
decision_type=2 2 2 2 9 2 2 2 2 2 2 2 9 2 2 2 9 2 9 2 9 2 9 2 2 2 2 2 2 9 9 9 2 9 9 2 2 2 9 2 9 9 9 9 9 2 2 9 2 9 9 2 9 2 9 2 2 9 2 9 2 9 9
left_child=1 3 7 4 19 8 11 23 35 50 20 -5 -12 39 15 22 -8 -17 -9 44 -3 26 -15 42 25 -14 52 28 -21 -4 -22 -28 57 -29 -11 36 37 -6 -38 49 -26 -23 -2 -25 -1 -31 59 -19 60 -10 -7 -37 -18 -20 -27 -44 -43 -16 -41 -32 61 -35 -36
right_child=2 10 29 6 5 9 16 18 13 34 12 -13 24 14 32 17 21 47 53 27 30 41 -24 43 40 54 31 33 -30 45 46 -33 -34 48 62 51 38 -39 -40 58 -42 56 55 -45 -46 -47 -48 -49 -50 -51 -52 -53 -54 -55 -56 -57 -58 -59 -60 -61 -62 -63 -64
leaf_value=-0.0037013463697358148 0.0027418700764644159 4.6428115398386535e-05 -0.0066963286367222614 -0.0006290148014892568 -0.044369666160484975 0.0098773043630927555 -0.0028998830506758179 -0.0039498404464795691 0.00027669233801682486 0.0023343310466920667 -0.013036705875307211 0.041288396693285212 -0.03673252089294396 0.0066154401520851398 -0.0056794486182486963 0.00082751973194659782 0.0040181167820178111 0.0050270569563471311 -0.01088665920760167 -0.050597385351022595 -0.0058343163881501526 0.0020939704879673953 0.0021189680122486961 0 -0.010674295158312573 0.0018258606382655835 -0.0029817141594628629 -0.0005957233372890702 -0.0033292915160483727 -0.012352790213135898 0.011308671014226578 0.00056839292780270156 0.0033333677928869439 0.02912684928479126 -0.0025078896291435802 0.035175278788330967 -0.00015022353785583813 -0.0037198596618452403 0.0026214775193509499 0.027536693420064717 -0.0053973622116562699 -0.0079279942565078469 -0.0072405860665370071 -0.0065715484944167809 -0.00019396844228395662 -0.017285965015448903 -0.0030086855824236684 0.0073775476089279817 -0.0014922841048590173 0.0032355447125266227 0.0041697555377519417 0.0062329279936627945 0.0010448960113295803 -0.0074735465936277409 -0.0036955705496722075 -0.0016250711826046047 -0.002371660671589631 0.001209786169484098 0.0040526243805026141 -0.00032963321364126442 0.0018782391874891857 -0.00056332613433931187 0.00038081079007494268
leaf_weight=15765.812048867345 5021.1516271531582 21381.415987744927 2861.1319343447685 248.4839015007019 164.1663014292717 3537.5952906161547 32497.422502115369 10006.001122891903 16881.264551416039 33051.968159750104 5134.565760076046 492.16651217639446 142.23042684793472 13876.875719696283 2639.8292215317488 6410.6339288800955 12740.14994391799 24646.527605742216 16604.340370416641 139.34419311583042 18560.752131909132 4918.9587545394897 30224.103976607323 2954.2306290268898 5722.851917937398 4189.9551224559546 18352.91161903739 35103.388427466154 407.20661495625973 10657.083487838507 810.92955428361893 24965.490904644132 30985.042888268828 229.73853033781052 9352.6421678215265 181.98488557338715 25137.498567804694 483.47341968119144 39935.560057356954 291.99861626327038 12758.985035270452 2990.0202257037163 3065.231662094593 15603.639403313398 18359.549789085984 7091.4984385371208 80166.708574175835 72374.459010273218 9170.9736375510693 31322.70927284658 17774.450553432107 304.98163156211376 65257.76943282783 15457.98217228055 10493.057045340538 20054.21938803792 22126.114021912217 4544.4910295456648 270.74771527945995 1791.5976640284061 85849.57098403573 235.98776951432228 87327.903128236532
leaf_count=63069 20086 85532 11446 994 657 14151 129999 40028 67529 132215 20541 1969 569 55509 10560 25644 50963 98589 66428 558 74252 19677 120902 11818 22895 16761 73417 140423 1629 42637 3244 99868 123946 919 37413 728 100556 1934 159750 1168 51042 11961 12262 62422 73443 28374 320697 289504 36686 125296 71101 1220 261045 61841 41976 80224 88510 18179 1083 7167 343416 944 349332
internal_value=-2.9982e-09 0.0007823 -0.006886 0.00165521 0.00224937 0.00293289 -0.000330612 -0.00540278 0.0037536 0.00129913 -0.00355932 0.027203 -0.00607944 0.00438636 0.00491712 0.00555365 -0.000441844 0.00641333 -0.00798529 0.000380682 -0.00276956 8.59368e-05 0.00353661 -0.00307557 -0.00500024 -0.00245574 0.000650404 0.000952704 -0.0155056 -0.0132722 -0.00336371 -0.000935596 0.00245593 0.00102193 0.00067027 0.00151225 0.00139559 -0.0141227 0.00155071 0.00236458 -0.00704216 -0.00219295 -0.00145674 -0.00552848 -0.00181645 -0.0143183 -0.00280863 0.00678209 0.00161684 0.00220072 0.00512557 0.0171604 0.00153162 -0.00923946 -0.00211918 -0.00237014 -0.00303341 -0.0013241 0.0163185 0.00333038 0.00194773 0.0146613 0.000100801
internal_weight=1.0721e+06 962725 109377 801572 616982 451721 184589 88766.8 300676 151045 161153 740.65 38441.6 234469 185702 147533 183849 103432 42068.3 165262 122711 151351 44101 46698.5 33307.1 14825.2 121316 131136 546.551 20609.7 101330 43318.4 38169.4 130590 129733 66207.7 65720.7 647.64 65073.1 48766.7 18481.8 30035.1 28140.6 18557.9 34125.4 17748.6 82769.2 97021 95486.3 48204 21312 486.967 77997.9 32062.3 14683 23119.5 25116.1 7184.32 562.746 2602.53 86315.3 465.726 96680.5
internal_count=4288698 3851132 437566 3206456 2468053 1806966 738403 355109 1202754 604212 644676 2963 153784 937909 742833 590148 735440 413737 168297 661087 490892 605441 176411 186812 133243 59306 485293 524575 2187 82457 405360 173285 152685 522388 518960 264845 262897 2591 260306 195076 73937 120148 112572 74240 136512 71011 331108 388093 381965 192825 85252 1948 312008 128269 58737 92486 100471 28739 2251 10411 345279 1863 386745
cat_boundaries=0 5 9 13 17 22 26 30 34 38 42 46 50 54 58 62 67 72 76 80 84 88 92 96 100 104 108
cat_threshold=294945 2297106690 151008384 160442546 1 278302732 2458653697 2181206552 2147614920 851705888 2299732995 297472 1230006403 69464610 136319592 572523776 367630 570556928 3289391406 270678146 1141986338 1 3900705152 1611694304 848560650 841483009 608331776 145228392 681575424 1409521742 215222460 996167680 1091584072 539099160 3222279197 39850016 1497444513 905974304 32 2283929858 12416 16787584 3231200256 570458144 3794059278 2221166856 143335638 1174413892 109314048 68114176 1093208128 553715778 6037601 652240160 67251728 1914717056 673194184 335680284 140726402 1242596040 847511552 755306564 70396546 50397828 18874626 323360786 1 1 2151678208 16782336 150996994 1 840449540 1090520577 536873293 1078171137 844308676 1058305 4327693 35768065 167784464 33564161 2214676502 537018881 136328720 1174946464 3249160194 2216956008 2151686146 1094951816 1484808260 1757481218 1124217928 570434657 1074069884 73974784 1342189632 1025 2281800192 159648704 1 4096 0 1048592 4327424 1158684672 8389200 1644167172
is_linear=0
shrinkage=0.03


Tree=2
num_leaves=64
num_cat=20
split_feature=12 8 17 21 12 17 16 8 15 15 5 21 5 10 21 21 5 12 21 19 21 21 21 21 8 21 21 16 9 10 21 6 15 15 17 21 21 15 1 21 12 21 21 5 21 11 21 17 15 9 12 12 6 8 11 16 1 21 15 5 17 15 17
split_gain=6047.17 3762.22 1091.97 972.066 952.22 792.31 532.646 508.553 495.447 481.222 450.133 406.89 367.662 320.228 298.272 257.267 256.295 389.521 240.7 229.94 215.387 205.275 196.626 185.998 184.829 178.807 178.691 164.853 160.784 159.594 154.975 153.676 152.821 150.974 212.888 150.831 147.693 158.261 146.292 144.808 143.689 141.728 139.728 137.922 127.096 122.545 122.41 121.548 116.382 116.001 114.917 107.719 107.423 114.523 106.109 103.589 103.084 102.325 102.143 118.082 105.957 103.154 119.381
threshold=0.91008993983268749 0.70159438252449047 0.74472510814666759 0 0.98104706406593334 0.69737437367439281 0.84872788190841686 0.39456047117710119 0.42943958938121801 0.67927685379982006 0.61860772967338573 1 0.52740049362182628 0.36036656796932226 2 3 0.98824584484100353 0.0157498037442565 4 0.31676010787487036 5 6 7 8 0.23558735847473147 9 10 0.8526841700077058 0.077593095600605025 0.88784894347190868 11 0.20211100578308108 0.60571822524070751 0.74948167800903331 0.34809760749340063 12 13 0.49592873454093939 0.75668326020240795 14 0.26366618275642401 15 16 0.70933717489242565 17 0.30610249936580664 18 0.89883530139923107 0.76483756303787243 0.13266330957412723 0.0078657208941876906 0.99263459444046032 0.10727025568485261 0.03142735734581948 0.0079127782955765742 0.82174623012542736 0.7722940742969514 19 0.40991672873497015 0.73266106843948375 0.47691468894481664 0.73384377360343944 0.090826250612735762
decision_type=2 2 2 9 2 2 2 2 2 2 2 9 2 2 9 9 2 2 9 2 9 9 9 9 2 9 9 2 2 2 9 2 2 2 2 9 9 2 2 9 2 9 9 2 9 2 9 2 2 2 2 2 2 2 2 2 2 9 2 2 2 2 2
left_child=1 2 3 19 6 13 25 8 10 42 22 -4 15 26 -14 -11 18 -18 -15 23 -8 48 -5 -1 52 -2 -3 28 44 -16 -6 -26 -33 43 -35 -12 -20 -38 -27 -29 -24 -30 -7 49 -9 -17 -28 -23 -13 -21 -31 -32 53 -10 -37 -51 -39 -52 59 -43 61 62 -60
right_child=4 5 11 7 30 9 20 27 24 12 35 21 14 16 29 45 17 -19 36 33 -22 47 40 -25 31 38 46 39 41 50 51 32 -34 34 -36 54 37 56 -40 -41 -42 58 -44 -45 -46 -47 -48 -49 -50 55 57 -53 -54 -55 -56 -57 -58 -59 60 -61 -62 -63 -64
leaf_value=-0.003150958020271905 -8.9956862983004844e-05 0.0056164310093127076 -0.0047076728976921797 0.0026890658174900032 -0.0066767676140960285 -0.0061887206931104657 -0.0042953645133697082 0.0040385548189691839 0.015334787408093693 0.0008178222059120364 0.0041259776975011214 0.0027080793716726076 -0.011798915747257298 0.0013594712217029005 -0.0045876163392173132 -0.0058291398209145929 0.038917536617069926 0.0026605071256173528 -0.0062908102541451285 -0.00059287980870074844 -0.01044439353159091 6.841177578882838e-05 0.0032689940471534408 0.00036965027218670342 0.0027317022401402644 -0.0027269162747281328 -0.0033625404874103068 0.0039442283658100664 0.0041722241414348946 0.017128690802662872 -0.012059445758655779 0.0059195867253841088 0.012676211540476701 0.011850962919267681 -0.00066962265366048775 0.024875535385887566 0.0021898961467092465 -0.0017076211701502627 -0.0064287204513255869 -0.0043795835358087561 0.0058584636501347884 0.0051387021160865668 0.0027305360903042623 -0.0011905324725847344 -0.0019832250900338575 -0.0023553377960692473 0.001212483055802898 -0.0023875834676024606 -0.0011741683672144025 0.0024913773420241151 -0.013062861149897045 -0.016897647343352667 0.011599324524664282 0.0043520669778057842 -0.00022936322588119193 -0.0029689315268240351 -0.0040414528256269072 -0.0069666705555770014 -0.0016231570021378934 0.0008330219414435391 5.7219150776889409e-05 0.0062600562153014138 0.0024317110446696109
leaf_weight=23189.533851310611 9841.0909951478243 7126.9931623786688 18149.840382665396 46341.235792756081 3166.1870801746845 1844.3284075856209 6891.674901843071 4150.8282087147236 1049.9414104521275 12372.785706371069 9629.6203361451626 31532.477912321687 8128.4396793842316 16638.163889482617 36207.477305710316 19322.387622326612 331.85995012521744 1353.5848931223154 8673.2664495110512 17048.893458470702 20828.067329570651 53342.595141857862 27530.798682436347 32290.352951362729 10998.398441195488 18769.845473825932 6330.685695335269 2653.8366247713566 36386.716284662485 152.23707753419876 10462.646734163165 16899.330218434334 3680.8956223577261 2802.3123741447926 2159.1033626943827 151.1832367926836 6851.4696760624647 45867.175886452198 19773.846423640847 6377.7984342426062 64947.169392645359 17060.314391165972 10646.388899207115 20009.349285915494 13009.148698911071 17421.511543318629 30910.752644136548 27459.185705035925 8901.5076820999384 58653.602105557919 3748.5123675763607 6975.7599172890186 9460.4722072482109 4672.7981644868851 34353.070106759667 3297.3022170215845 27168.864284485579 7798.7357229590416 7564.1556567549706 8660.9294900596142 29150.503838047385 5299.6664806306362 47616.824984282255
leaf_count=92767 39368 28510 72604 185370 12668 7378 27571 16604 4200 49495 38520 126135 32521 66558 144852 77300 1328 5415 34697 68199 83338 213382 110127 129170 43995 75088 25325 10616 145553 609 41868 67599 14724 11210 8637 605 27408 183485 79112 25513 259793 68243 42589 80044 52039 69695 123653 109844 35609 234626 14997 27921 37843 18692 137419 13190 108688 31201 30258 34646 116608 21200 190476
internal_value=-4.82165e-09 0.000709433 0.00185893 0.00244367 -0.00715541 -0.00231057 -0.00560565 0.00322045 0.00415322 -0.00415712 0.00344849 -0.000519902 -0.00481847 -0.000874134 -0.00647972 -0.00292251 -0.00176361 0.00983606 -0.00194983 0.000457343 -0.00892223 0.000107203 0.00428757 -0.00110189 0.00690967 -0.0037048 0.00126794 0.00201621 0.00222746 -0.00557273 -0.0128776 0.00559926 0.00713006 0.0012897 0.00639719 0.0008085 -0.00257177 -0.00216681 -0.00462573 -0.00193073 0.00508739 0.00253876 0.001408 0.0010334 -0.00052352 -0.00418188 0.000433205 -0.000765772 0.0018522 0.00159707 -0.00862298 -0.0139894 0.00963259 0.00637462 -0.000117743 0.00220023 -0.00257624 -0.00896654 0.00202267 0.00369014 0.00154402 0.00226012 0.00187531
internal_weight=1.07209e+06 975377 706482 567096 96709.1 268896 76104.5 407646 229715 117643 182953 139386 105152 151253 56035.4 49116.7 106884 1685.44 105199 159450 27719.7 121236 138819 55479.9 46761.8 48384.8 44368.4 177931 168899 47907 20604.6 31578.6 20580.2 103971 4961.42 44133.9 88560.8 79887.5 38543.7 9031.64 92478 151739 12490.7 99009.1 17160 36743.9 37241.4 80801.8 40434 78999.8 11699.5 17438.4 15183.2 5722.74 34504.3 61950.9 73036 11547.2 115352 25721.2 89631.2 60480.6 55181
internal_count=4288698 3901764 2826060 2268486 386934 1075704 304477 1630643 918887 470637 731834 557574 420670 605067 224180 196490 427579 6743 420836 637843 110909 484970 555290 221937 187053 193568 177488 711756 675627 191659 82457 126318 82323 415906 19847 176544 354278 319581 154200 36129 369920 606984 49967 396059 68643 146995 148978 323226 161744 316015 46807 69789 60735 22892 138024 247816 292173 46198 461431 102889 358542 241934 220734
cat_boundaries=0 5 9 13 17 21 25 29 33 37 41 45 49 53 57 61 65 69 73 77 81
cat_threshold=306216993 3362915586 151008384 160442544 1 38223872 598402 1087582360 2391826434 273973260 588125185 2152788556 12591488 2153914882 1099145864 1352796420 67179810 33709570 115144 2419064900 68579634 86210082 136319560 538985474 4525582 204472594 1905262628 2300576258 823007308 555295766 596115969 2151892996 234570 4194304 2153775360 150995968 150997120 157513986 1107558624 35651842 17274906 11280 2416444234 805538198 8398007 608331778 145228384 681575424 1409521742 537024770 335855808 548405258 639960576 537133064 553656320 1224736786 1660946569 18818242 8950400 2955428099 2147909632 1611232768 570950145 3498067982 2215007304 1249903624 1112832001 2433757205 557846665 2291301376 562118697 1610612814 2690680064 216273058 578819072 1226048065 3623933960 2315391059 1350593184 84477953 2686845505
is_linear=0
shrinkage=0.03


Tree=3
num_leaves=64
num_cat=0
split_feature=12 14 12 1 12 17 16 12 5 11 5 5 4 10 12 17 18 12 11 16 17 1 5 12 11 16 2 12 5 5 2 16 13 3 10 14 3 4 12 16 13 16 3 17 5 11 3 17 11 14 13 3 10 11 15 14 13 2 16 11 5 17 10
split_gain=5698.93 3616.61 1016.73 998.449 681.588 670.044 623.191 583.629 421.24 420.455 308.128 284.452 281.505 278.017 358.675 270.305 199.989 199.35 198.484 180.888 198.639 177.569 168.845 162.866 163.81 156.788 156.065 154.239 352.375 148.71 152.234 137.139 131.705 250.019 246.1 146.888 128.648 115.169 115.047 109.338 107.294 103.606 103.044 99.5411 95.2712 93.748 93.4158 90.1668 92.8261 87.8164 90.0518 85.3455 84.3402 83.926 82.7995 82.3478 80.1807 108.649 79.5083 83.0801 78.5567 77.8608 103.655
threshold=0.89827504754066478 0.83286800980567943 0.98104706406593334 0.68648198246955883 0.19222627580165866 0.27669246494770056 0.80233532190322887 0.0038688491331413393 0.67760455608367931 0.058595091104507453 0.52740049362182628 0.88178911805152904 0.48957143723964697 0.68962547183036815 0.011771943420171739 0.81118503212928783 0.15053084492683413 0.76786625385284435 0.32609198987483984 0.2110768258571625 0.2295992970466614 0.73705166578292858 0.94475695490837108 0.0038688491331413393 0.0041439326014369735 0.36438465118408209 0.19425285607576373 0.0038688491331413393 0.024148027412593368 0.49676369130611425 0.19425285607576373 0.9001106619834901 0.17076023668050769 0.39080631732940679 0.10569291189312936 0.38541904091835028 0.0042071396019309768 0.77616560459136974 0.99263459444046032 0.93208396434783947 0.40014435350894934 0.41914694011211401 0.35889816284179693 0.65776497125625621 0.008236842695623638 0.75294682383537304 0.57535597681999218 0.063534997403621687 0.01169385062530637 0.54217103123664867 0.65756991505622875 0.73636174201965343 0.85991582274436962 0.67442911863327037 0.92754939198493969 0.68073090910911571 0.36021587252616888 0.43721197545528417 0.86854901909828197 0.84699726104736339 0.26936839520931249 0.48076047003269201 0.050653656944632537
decision_type=2 2 2 2 2 2 2 2 2 2 2 2 2 2 2 2 2 2 2 2 2 2 2 2 2 2 2 2 2 2 2 2 2 2 2 2 2 2 2 2 2 2 2 2 2 2 2 2 2 2 2 2 2 2 2 2 2 2 2 2 2 2 2
left_child=1 3 6 4 15 31 21 11 9 -6 18 -5 16 -12 22 25 36 19 23 20 -9 55 -15 24 -7 27 53 28 -1 46 -31 42 34 43 41 -36 -11 58 -4 -8 44 -18 -3 56 -17 -28 -29 -27 -49 50 -35 61 -25 -10 -16 -2 -34 -58 59 -21 -20 62 -14
right_child=2 5 38 7 8 10 39 17 26 12 13 -13 51 14 54 40 32 -19 60 37 -22 -23 -24 52 -26 47 45 29 -30 30 -32 -33 33 49 35 -37 -38 -39 -40 -41 -42 -43 -44 -45 -46 -47 -48 48 -50 -51 -52 -53 -54 -55 -56 -57 57 -59 -60 -61 -62 -63 -64
leaf_value=-0.043601454075578347 -0.00032440318308859411 0.016399249493796689 -0.010670159197072386 -0.00059390855272104751 -0.0023998424415979354 -0.041239013318065516 -0.0065901892340889537 0.0074885192004926354 -0.00049658918532568023 0.017692429007017115 -0.0034388138185172863 0.038475902465099236 -0.00048777852150755705 -0.0019250310820349461 -0.0061656068846594443 -0.024638879518437865 0.0018077760083044557 -0.0020898331175297135 0.00025925748583738149 0.0015006268932635472 -0.0047434884217197925 -0.0047413882428533173 0.03075791025440253 -0.0028846086661352501 -0.0036220676378959419 -0.0017901578041044362 0.0020716536945979752 0.0015128181882150054 -0.003191323249043579 -0.0059196970034961337 -0.00015060486726839841 -0.0064778889946953628 0.0059433981867225956 0.0039665313078884523 0.0033943383063850816 0.0077127561770370997 0.0017368839865386774 -0.0014500170398037684 -0.015274244952835581 -0.0098384095615268972 0.00016161076459060038 -0.0034915907828861974 0.0038673251642159056 0.0038276609253549265 -0.0041176880111523685 -0.00043579640728371729 -0.0014262500294719034 -0.0043012084361166575 0.0027521420701971311 0.002114271563574935 0.0098136516836895542 0.00015813278998795402 -0.0058502840695011712 -0.0063044556597092634 -0.0089984028864952235 -0.0045220535603963932 0.011524841474210621 0.0061918854825068542 -0.00091032304364302126 -0.0027454971161887764 -0.0028738131064625578 0.0015466638857273055 0.0035170284540136289
leaf_weight=230.83878915011883 20736.107670202851 631.46024577319622 12440.235573396087 246.21569594740868 12444.694760277867 211.62850803136826 21918.337646484375 1340.8664473742247 4737.3963035792112 459.18464116752148 31703.953282758594 514.96646198630333 6474.2191416025162 252.70651033520699 18376.155456230044 206.52751022577286 7544.8252171874046 51055.54526719451 19483.566029131413 78866.107549026608 10798.228299379349 24426.810269758105 319.42486806213856 24818.950039252639 208.43403884768486 4837.781106621027 31632.381154939532 47601.718260988593 1211.3622017353773 6383.1497828960419 11621.685584113002 1101.1053253412247 37080.127069175243 43505.443826451898 57322.595042213798 8105.8203580081463 42601.983723238111 23404.884107634425 8157.5528193712234 16389.681668579578 6919.2843177914619 5924.8496742993593 9360.2004826515913 14174.652225807309 13090.623971760273 23277.441845491529 12223.531105816364 1737.344564139843 47031.191482722759 26432.045439496636 2515.1881368905306 17952.572181001306 13297.163559943438 4266.6580982208252 19034.741317301989 5281.7557149082422 6342.8731445968151 7605.3612690716982 18210.698720574379 4371.740433037281 11411.711541578174 54060.269624620676 56139.266747683287
leaf_count=925 82954 2526 49793 985 49781 847 87706 5364 18951 1837 126839 2063 25898 1011 73522 827 30180 204241 77945 315480 43198 97732 1278 99291 834 19352 126536 190415 4846 25534 46489 4405 148323 174025 229295 32424 170416 93628 32664 65587 27679 23700 37445 56700 52366 93115 48897 6950 188132 105732 10061 71815 53198 17068 76166 21130 25372 30422 72847 17488 45653 216250 224565
internal_value=-1.8628e-08 0.000737127 -0.00649003 0.00152776 0.00210639 -0.00353926 -0.00509577 -0.000383477 0.00267206 0.00302789 -0.00410514 0.0258146 0.0031993 -0.00551484 -0.00724674 0.000367396 0.00377672 -0.000489818 -0.00268977 0.000106281 -0.00338938 -0.00290407 0.0162916 -0.00412617 -0.0226978 0.000859266 0.000407424 1.14642e-05 -0.00970589 0.000192036 -0.00219777 0.00355473 0.00414814 0.00470872 0.00316965 0.00392991 0.00190813 0.000446418 -0.0124957 -0.00798091 -0.00286397 -0.000521093 0.00466389 0.0060571 -0.0044405 0.00100816 0.000911791 0.0021124 0.00250017 0.00349478 0.00428696 0.00208555 -0.00392013 -0.00325243 -0.00760794 -0.00117784 0.00667572 0.00861982 0.000884245 0.00127723 -0.000897082 0.00238186 0.00310245
internal_weight=1.07207e+06 962715 109350 812504 623695 150211 88752.7 188809 470600 406686 139118 761.182 394241 69687 37983 153095 259615 188048 69431.5 136993 12139.1 50444.7 572.131 38536.2 420.063 132879 63913.9 79272.3 1442.2 77830.1 18004.8 11092.8 216554 137656 78898.1 65428.4 43061.2 124853 20597.8 38308 20216.4 13469.7 9991.66 65203 13297.2 54909.8 59825.2 53606.3 48768.5 72452.7 46020.6 134626 38116.1 9004.05 37410.9 26017.9 51028.4 13948.2 101449 83237.8 30895.3 116674 62613.5
internal_count=4288698 3851132 437566 3250172 2494878 600960 355109 755294 1882466 1626796 556584 3048 1577015 278816 151977 612412 1038487 752246 277768 548005 48562 201816 2289 154170 1681 531540 255670 317106 5771 311335 72023 44376 866234 550635 315599 261719 172253 499443 82457 153293 80872 53880 39971 260817 53193 219651 239312 214434 195082 289818 184086 538528 152489 36019 149688 104084 204117 55794 405815 332968 123598 466713 250463
is_linear=0
shrinkage=0.03


Tree=4
num_leaves=64
num_cat=23
split_feature=1 15 11 15 21 8 17 17 11 0 16 15 15 21 11 18 21 21 17 9 21 21 11 0 0 17 21 5 21 10 5 11 21 11 21 11 10 21 11 21 3 9 21 21 21 9 11 21 11 21 21 11 0 8 21 0 5 21 21 21 2 18 21
split_gain=5226.86 2143.11 935.22 838.822 830.679 646.609 610.385 567.929 443.548 461.217 393.348 363.087 299.111 297.089 281.539 275.293 270.029 268.929 254.466 254.296 255.711 235.488 231.386 216.685 207.206 198.518 178.27 177.275 168.992 165.62 163.78 208.615 156.015 150.949 150.718 148.605 155.896 146.148 140.073 133.811 143.339 132.702 132.311 125.01 121.622 120.77 118.963 113.14 110.637 110.252 109.195 108.907 138.348 108.519 121.032 117.533 108.091 106.379 106.048 105.582 105.163 100.985 114.047
threshold=0.76841238141059887 0.8443460762500764 0.91784727573394786 0.84838971495628368 0 0.48075138032436376 0.63411653041839611 0.26883156597614294 0.0041439326014369735 0.8702363669872285 0.89231014251708995 0.43700921535491949 0.64458805322647106 1 0.89410686492919933 0.16660649329423907 2 3 0.64201807975769054 0.21569566428661349 4 5 0.98497202992439281 0.0081466403789818304 0.24430523067712787 0.23735087364912036 6 0.41175162792205816 7 0.75707495212554943 0.58303952217102062 0.10221791267395021 8 0.86691752076148998 9 0.92190906405448925 0.50909420847892772 10 0.0079127782955765742 11 0.78360676765441906 0.0082410699687898176 12 13 14 0.99235951900482189 0.8511645793914796 15 0.13313335180282596 16 17 0.01169385062530637 0.03190951235592366 0.074614334851503386 18 0.11925927922129632 0.53942394256591808 19 20 21 0.29260522127151495 0.1704768240451813 22
decision_type=2 2 2 2 9 2 2 2 2 2 2 2 2 9 2 2 9 9 2 2 9 9 2 2 2 2 9 2 9 2 2 2 9 2 9 2 2 9 2 9 2 2 9 9 9 2 2 9 2 9 9 2 2 2 9 2 2 9 9 9 2 2 9
left_child=1 4 3 8 15 6 12 34 9 -2 26 46 14 56 19 57 -8 -12 32 20 -6 -20 28 38 45 -14 -10 48 -4 -29 31 -26 -5 39 -3 36 37 -13 -15 -17 51 -24 -23 -38 -22 -21 59 -33 -25 -18 -19 52 -41 54 -28 -55 -9 -1 -50 -7 -32 62 -53
right_child=2 7 22 18 5 11 16 13 10 -11 17 35 25 23 -16 33 49 50 21 24 44 42 41 27 30 -27 53 29 -30 -31 60 47 -34 -35 -36 -37 43 -39 -40 40 -42 -43 -44 -45 -46 -47 -48 -49 58 -51 -52 61 -54 55 -56 -57 -58 -59 -60 -61 -62 -63 -64
leaf_value=-0.0044261735852490587 -0.0043071854859262461 -0.0037675841620401392 -0.0021403275630712043 -0.0090543711639757187 -0.00076177221673405179 0.0077198997757214893 -0.0015934723783809761 0.00059540442507432872 -0.0034175923202956096 0.034453805590766828 -0.0092155220300911955 0.0037516952260922267 0.013059211124019048 -0.048055451822786165 -0.00036167397396203967 -0.00069220911108101965 0.003583676856087153 -0.00047512455924051962 -0.013520698845419687 0.0024769644464924497 0.0083284247142606863 -0.0032458743479854015 0.011516724381853465 -0.0054411596689326385 0.0019307854728417685 0.0045112276645411726 0.011505933815575818 -0.0039551958809267117 -0.0073404211701361749 -0.0085728646225994611 0.0006335422531014394 0.0047326002452646185 -0.00018660125937914747 -0.0022392791059346541 0.0075239702705356204 -0.0039110258983917345 -0.0036078926775962852 0.00075093082563899502 -0.013010826747561492 -0.045718043038144779 -0.0026159139339093649 -0.011572320389671811 -0.0077510242552445785 3.2383976023147115e-05 0.0030810134284974412 0.018195399012385569 -0.00049919685995303417 0.0073636039398261594 -0.0052281260527865352 0.0012419108341017891 -0.0044204818790460291 0.025801215182111703 -0.0046102647629142363 -0.0042915182745135094 0.00059895831102989457 -0.0003402693683368148 -0.0035763877655637434 -0.0010846057924413079 -0.0011633131745666496 0.0034932013847886736 0.0045480856786342385 0.0018204142293763563 -0.0039448448388597537
leaf_weight=13080.287940233946 499.70272836089134 1294.8613065332174 6991.4523208141327 2307.2857332974672 16541.182272315025 7601.0778735280037 23581.575119942427 19280.307235985994 23041.315018206835 613.00682918727398 8716.2466844916344 18931.482975080609 5301.790430650115 111.27817057073116 13917.394572913647 34179.257276907563 27834.505227863789 9103.2276150882244 5204.487559273839 34051.812820777297 4407.1789989173412 7946.3262390196323 226.26519641280174 11462.520716443658 9792.0278763622046 4566.2804240733385 1379.6690042167902 16709.832694366574 29786.337162420154 12070.811567127705 8466.6706003397703 20989.263774335384 7816.8983170539141 14981.873541146517 5799.5027088522911 6977.0846560299397 9960.1296398192644 64092.32230257988 1342.5413238406181 78.892913922667503 7161.2896862924099 11908.598248168826 23291.635412395 57068.735823407769 41470.153863713145 445.38705027103424 4569.120135396719 51276.090061530471 7353.7536447942257 51976.616954088211 20817.39506675303 315.47521463036537 1000.3907283842564 7428.2984542101622 2716.7872242182493 77322.119273722172 7866.5876534879208 25019.925094723701 27048.548590809107 18122.295158773661 23025.661103561521 93618.243889912963 179.73922525346279
leaf_count=52329 1999 5180 27976 9232 66166 30405 94332 77130 92180 2458 34878 75729 21208 446 55677 136726 111342 36421 20830 136210 17629 31796 906 45861 39169 18266 5519 66855 119207 48302 33868 83958 31276 59937 23200 27914 39844 256382 5372 317 28648 47684 93206 228291 165883 1782 18279 205108 29421 207917 83294 1262 4002 29718 10868 309326 31475 100088 108213 72491 92105 374486 719
internal_value=-3.25098e-08 0.00114646 -0.00382734 -0.00291025 0.00174735 0.00236206 0.00314637 -0.00274473 -0.00182844 0.0170316 -0.00196817 0.000948319 0.00399384 -0.0033091 0.00376877 4.51995e-05 0.00122599 -0.0045781 -0.00643228 0.00404205 0.002435 -0.0076015 -0.00754282 -0.0042701 0.00471937 0.00910768 -0.00106661 -0.00404657 -0.00635536 -0.00589315 0.00533826 0.00604462 -0.00222034 0.000618574 0.00546386 0.00036799 0.000567179 0.00143612 -0.015745 0.000932402 0.00147513 -0.0111384 -0.00660751 -0.000508673 0.00358763 0.00268129 0.00395551 0.0066016 -0.00288706 0.00205937 -0.00322174 0.00178339 -0.00768245 -0.000456109 0.00431116 -0.000686993 -0.000612248 -0.00223413 -0.00203505 0.00474794 0.00349667 0.00189234 0.0153986
internal_weight=1.07204e+06 824922 247117 198204 714581 524966 337644 110341 151638 1112.71 150525 187322 234251 103246 224383 189615 103393 38636.9 46566.6 210465 62418.5 36442.4 48912.7 76099.3 148047 9868.07 111888 74645.5 36777.8 28780.6 113550 82057.4 10124.2 151515 7094.36 157030 150053 83023.8 1453.82 136533 102354 12134.9 31238 67028.9 45877.3 34497.2 30292.5 72265.4 45864.8 79811.1 29920.6 95192.7 1079.28 88846.9 4096.46 84750.4 27146.9 38100.2 34402.3 25723.4 31492.3 94113.5 495.214
internal_count=4288698 3299924 988774 793001 2858469 2099955 1350620 441455 606661 4457 602204 749335 937029 413075 897555 758514 413591 154593 186340 841878 249678 145832 195773 304470 592200 39474 447611 298652 147183 115157 454208 328235 40508 606097 28380 628160 600246 332111 5818 546160 409434 48590 125002 268135 183512 137992 121175 289066 183495 319259 119715 380786 4319 355431 16387 339044 108605 152417 137634 102896 125973 376467 1981
cat_boundaries=0 5 9 13 18 22 26 30 35 39 43 47 51 56 60 64 68 72 76 80 85 90 94 99
cat_threshold=33816609 2296583424 151008384 160475314 1 2151817730 1075028908 270542852 67190050 9118860 34087043 1388642317 2252358145 3502506120 2185241601 1079228928 187695488 1 75071578 336331270 149840 2151892036 412385420 9180163 2169551436 24960 416034816 2282890275 138414272 1225810563 2113154 1210585416 572522754 19307538 1 11797192 2401244162 1229087244 2722105344 1076199442 3150560 1652610048 2707572741 11269632 536887873 4060121102 2219049224 32 2283929856 12416 16787584 570570528 203423756 402785280 1561696262 1 537040896 1158701569 1880132176 1912619016 545267840 32896 813694986 570425864 471368210 1628962826 4458820 1078154761 203440402 1896874016 2686454338 1076101188 221942290 1342702340 545521796 4674656 119556366 1644183684 2216199180 2785346624 1 2151677952 4224 134219776 1 109118628 2821459970 2298545160 1253179912 1 136328208 33563139 2228308055 3760849409 33554433 8393728 0 9437184 1
is_linear=0
shrinkage=0.03


Tree=5
num_leaves=64
num_cat=21
split_feature=1 15 11 14 21 8 17 17 11 0 15 15 21 11 18 21 21 21 21 21 16 0 17 17 11 21 5 16 21 11 21 11 11 5 21 3 8 13 21 11 0 11 2 16 21 11 3 17 21 21 21 5 15 21 2 21 21 21 3 15 17 14 21
split_gain=4918.55 2016.61 880.303 1014.24 781.623 608.413 574.343 534.406 382.316 411.301 341.647 281.445 279.591 264.919 259.043 254.079 238.724 226.049 221.176 220.287 214.698 204.082 188.066 186.911 177.171 170.453 166.831 162.596 143.012 142.032 141.011 139.83 132.459 126.228 126.078 131.814 115.838 115.738 113.215 111.946 111.462 163.944 110.676 106.83 104.572 104.538 102.933 102.19 131.018 122.572 102.041 101.711 101.153 100.105 98.8884 95.2696 95.0299 91.978 88.7391 88.1542 87.3352 86.2682 90.0717
threshold=0.76841238141059887 0.8443460762500764 0.91784727573394786 0.84864372014999401 0 0.48075138032436376 0.63411653041839611 0.26883156597614294 0.0041439326014369735 0.8702363669872285 0.43700921535491949 0.64458805322647106 1 0.89410686492919933 0.16660649329423907 2 3 4 5 6 0.84488996863365184 0.0081466403789818304 0.68944731354713451 0.25717711448669439 0.98497202992439281 7 0.41175162792205816 0.81798177957534801 8 0.86691752076148998 9 0.92190906405448925 0.0079127782955765742 0.58303952217102062 10 0.78360676765441906 0.22026816010475161 0.18289646506309512 11 0.8511645793914796 0.11513886228203775 0.0041439326014369735 0.056383084505796439 0.92024356126785289 12 0.32609198987483984 0.81897753477096569 0.18325842916965487 13 14 15 0.53942394256591808 0.69063767790794384 16 0.29260522127151495 17 18 19 0.79172414541244518 0.68696174025535595 0.4728515893220902 0.38541904091835028 20
decision_type=2 2 2 2 9 2 2 2 2 2 2 2 9 2 2 9 9 9 9 9 2 2 2 2 2 9 2 2 9 2 9 2 2 2 9 2 2 2 9 2 2 2 2 2 9 2 2 2 9 9 9 2 2 9 2 9 9 9 2 2 2 2 9
left_child=1 4 3 8 14 6 11 30 9 -2 39 13 51 16 53 -8 -6 -5 -4 -10 47 32 56 -13 43 -22 45 33 -24 34 -3 38 -14 36 -16 40 37 61 59 50 41 -36 -28 -20 -17 -23 -32 48 -21 -49 -7 -9 -51 -1 -35 -38 -19 -47 60 -12 -40 62 -18
right_child=2 7 18 17 5 10 15 12 19 -11 31 23 21 -15 29 44 27 22 24 20 25 26 28 -25 -26 -27 42 -29 -30 -31 46 -33 -34 54 35 -37 55 -39 58 -41 -42 -43 -44 -45 -46 57 -48 49 -50 52 -52 -53 -54 -55 -56 -57 -58 -59 -60 -61 -62 -63 -64
leaf_value=-0.0042937510813957141 -0.0036553085670600126 -0.0038440029969108308 -0.0031904286456379983 -0.010498909289808267 0.0024072302233304559 0.010103909022681786 -0.0015457046271881813 0.00057753958999151069 0.0010815946139137948 0.035534276564818099 0.0034110389353127313 0.012522620651804277 -0.046746084597485589 -0.00035082596077937102 -0.00073546121864520163 0.0032645365550616917 0.0065980355079123159 0.0022131792504061182 -0.0062327155149704836 0.0051300237345209684 -0.0075486205429662334 -0.0041888882972610101 -0.009174262995344705 0.0041974842877683591 -0.011764868976249664 -0.0027825388042176328 -0.01510107091127447 -0.0005767962979847369 -0.0051426878150787197 -0.0021721591980802288 0.010601776660105134 -0.0037939095440123272 -0.012624080275657867 0.00021799536503458566 -0.042513631145610839 -0.0024860419321068665 0.0033728382135119034 0.0084037804200276199 0.0012361109559333552 -0.00048422672371946536 0.0019702577392998479 -0.0015753460198881539 -0.0053456369039592494 -0.0107812887594032 0.001064917050557957 -0.004790263819910592 0.0025013439816898449 -0.0042955797368572461 -0.00069322981706112184 -0.00029631288369995969 0.0039474433099345061 -0.0034693191496366965 -0.0036014253659591463 -0.0010520919124891899 0.0040900473013044097 0.0058267558168743497 -0.0036915112051437906 -0.00024374514022597077 -0.0017399279209731344 0.00048853469462741971 -0.00063257537012047726 0.010720051185430247 0.0032971305783888526
leaf_weight=13079.533472821116 446.70215673744678 1244.8278364241123 9493.7095948010683 8921.1176029890776 65010.247958347201 2720.9273792505264 23581.363516807556 19280.419083848596 23763.283140048385 518.84481027722359 19052.709686860442 5492.0657890588045 110.99528725445271 13917.355013176799 32212.21729131043 33816.716532289982 14326.319978564978 3098.246016561985 23584.68842497468 4494.752128213644 9288.7302584648132 23656.737584933639 11906.414756551385 4375.8227394074202 10001.934968143702 25006.348832666874 1091.0423101484776 5258.5772298425436 24297.439723804593 14981.509916290641 3430.3708881437778 6976.727075189352 1342.1964629590511 7917.4811761826277 88.394886359572411 7260.0942896157503 34862.046612530947 16557.336215957999 54644.113696932793 4569.0990390330553 90795.025320276618 6177.5727388560772 27686.3988827914 5822.3911230117083 45994.869058668613 5239.5030452758074 2419.3579614758492 14128.006275400519 15206.78940589726 34520.754910752177 23002.6382599473 7866.1199322938919 10995.706451848149 25019.688566118479 23922.81471568346 24371.58913885057 11598.90430931747 16966.608581319451 19924.908072918653 18179.878859400749 38251.359527006745 2467.0909000635147 15770.563076868653
leaf_count=52329 1787 4980 37997 35710 260046 10884 94332 77130 95064 2085 76213 21970 446 55677 128858 135271 57307 12397 94395 17981 37170 94654 47657 17504 40067 100053 4366 21035 97237 59937 13722 27914 5372 31671 356 29044 139452 66232 218585 18279 363190 24712 110791 23314 183988 20963 9678 56522 60836 138098 92012 31475 43991 100088 95693 97489 46413 67878 79708 72724 153016 9869 63084
internal_value=-4.48438e-08 0.00111209 -0.00371296 -0.00282322 0.00169497 0.00229125 0.00305204 -0.00266262 -0.00141182 0.0173875 0.000919894 0.00387412 -0.00321013 0.00365579 4.3828e-05 0.00118921 0.00392088 -0.00608725 -0.00731813 -0.00154427 -0.00209354 -0.00414245 -0.00531016 0.00883476 -0.00830872 -0.00407749 -0.00392553 0.00459669 -0.00647356 0.000600023 0.00529985 0.000356952 -0.0152813 0.00479129 0.000904442 0.00141104 0.00527968 0.00635827 0.00055017 0.00383695 0.00170301 -0.00216435 -0.00571705 -0.00713466 0.00199761 -0.00280066 0.00724531 -0.00123588 0.000636222 -0.00185476 0.00460564 -0.00059386 -0.00109523 -0.00216723 0.00312819 0.00438464 -0.00244567 -0.00132028 7.63997e-05 0.00198437 0.000466325 0.00531706 0.00487284
internal_weight=1.07201e+06 824913 247095 198192 714579 524965 337642 110335 138370 965.547 187322 234249 103240 224381 189614 103393 210464 59822.1 48902.7 137404 113641 76093.5 50901 9867.89 39409 34295.1 74640.3 145454 36203.9 151515 7094.56 157030 1453.19 140195 136533 104321 108355 49121.3 150053 30292.7 97061 6265.97 28777.4 29407.1 79811.6 45862.8 5849.73 79346 19701.5 59644.5 25723.6 27146.5 45516.5 38099.2 31840.3 59233.6 14697.2 22206.1 112820 37232.6 92895.5 32564 30096.9
internal_count=4288698 3299924 988774 793001 2858469 2099955 1350620 441455 553587 3872 749335 937029 413075 897555 758514 413591 841878 239414 195773 549715 454651 304470 203704 39474 157776 137223 298652 581832 144894 606097 28380 628160 5818 560797 546160 417302 433433 196492 600246 121175 388258 25068 115157 117709 319259 183495 23400 317428 78817 238611 102896 108605 182089 152417 127364 236941 58810 88841 451309 148937 371601 130260 120391
cat_boundaries=0 5 9 13 17 21 25 29 33 37 41 45 49 53 57 61 65 70 74 79 84 88
cat_threshold=33816609 2296583424 151008384 160475314 1 2151817730 1075028908 270542852 67190050 9118860 34087043 1388642317 2252358145 475563030 1091043842 2151827796 1073959937 147062924 2995000320 1095819852 10494104 606218754 136843624 706871562 433170 2230802 1344848452 547357698 2217088124 1925185544 171975681 1212395544 1796211073 1360103488 4407459 2181109923 88752384 2457618 3150560 1654707200 2707572741 32 2281832704 12416 16787584 2159552016 570458180 3492069646 2221146432 203440402 1896890400 2686454338 1345060932 3221242248 571736353 3390288140 838863104 14418056 17964067 289417360 1099980931 134230032 33562627 2147502102 3758227968 1 2151677952 4224 134219776 1 2166555464 68427780 1712848938 2755920460 2248337440 68175912 278986898 1141261634 1 109085860 2829324289 218169353 1655832712 1 3221232000 102015148 1653113384 2986606604
is_linear=0
shrinkage=0.03


Tree=6
num_leaves=64
num_cat=24
split_feature=12 14 1 12 21 8 12 0 12 6 15 10 5 12 21 0 5 9 21 21 21 0 12 21 18 21 0 4 12 0 21 21 14 14 0 12 0 21 10 21 21 10 21 21 14 21 14 6 10 21 12 21 21 21 12 3 21 21 21 9 21 21 12
split_gain=4957.65 3094.17 912.397 798.892 695.975 538.816 505.606 480.71 383.61 354.799 349.957 310.429 345.033 359.919 248.716 240.556 267.934 243.88 238.703 232.788 209.629 199.486 186.331 181.584 179.791 165.237 158.666 156.769 140.59 224.649 139.985 129.59 128.211 124.672 123.888 156.948 288.012 125.319 121.704 119.282 118.696 115.455 114.592 110.181 109.95 120.43 109.57 108.203 115.047 166.946 107.662 105.086 103.621 103.18 97.3795 96.8864 94.8993 94.5904 93.8412 93.109 91.0052 88.9626 85.8297
threshold=0.91008993983268749 0.83286800980567943 0.68648198246955883 0.98490974307060253 0 0.44988442957401281 0.0078657208941876906 0.88225772976875316 0.19222627580165866 0.7873983383178712 0.43700921535491949 0.58673828840255748 0.52740049362182628 0.011771943420171739 1 0.21321909129619601 0.61860772967338573 0.21952142566442492 2 3 4 0.87815037369728099 0.78362184762954723 5 0.16660649329423907 6 0.016207456588745121 0.78410297632217418 0.0038688491331413393 0.083639744669199004 7 8 0.088997408747673049 0.90336346626281749 0.92495515942573558 0.0038688491331413393 0.087444759905338301 9 0.99598118662834179 10 11 0.56727951765060436 12 13 0.96397969126701366 14 0.52661025524139415 0.10727025568485261 0.36036656796932226 15 0.44174760580062872 16 17 18 0.0157498037442565 0.73221012949943554 19 20 21 0.55606937408447277 22 23 0.077948212623596205
decision_type=2 2 2 2 9 2 2 2 2 2 2 2 2 2 9 2 2 2 9 9 9 2 2 9 2 9 2 2 2 2 9 9 2 2 2 2 2 9 2 9 9 2 9 9 2 9 2 2 2 9 2 9 9 9 2 2 9 9 9 2 9 9 2
left_child=1 2 4 9 24 8 7 -4 34 46 57 20 19 21 -11 38 17 23 -8 -13 -3 -14 27 -17 58 -15 62 56 29 -26 -24 -12 -18 -16 35 36 -6 -37 -10 -28 -5 -33 -30 -29 51 -46 -2 52 49 -49 -50 -27 -19 -21 -36 -44 -20 -7 -1 60 -43 -48 -22
right_child=3 11 6 40 5 10 18 -9 15 14 31 12 13 25 33 16 32 47 22 53 26 -23 30 -25 28 44 39 43 42 -31 -32 41 -34 -35 54 37 -38 -39 -40 -41 -42 59 55 -45 45 -47 61 48 50 -51 -52 -53 -54 -55 -56 -57 -58 -59 -60 -61 -62 -63 -64
leaf_value=-0.0034188409062378953 -0.00096660307875899522 -0.0058370491647491305 -0.0013001296074872145 -0.0064377235979011056 -0.043989270278656754 0.0077331541459108363 -0.0027584674033017779 0.035364601538038859 0.0019757218658021823 -0.0028073439088621738 -0.00072560468977201417 0.0011172462685037361 -0.0028113597506437965 -0.010283549153976305 -0.0070023952480851208 0.0061056684351160802 -0.0014460449814295354 -0.00030006219729782475 0.0032118850934255592 -0.0065050436162871067 -0.047668543091655642 0.029683854749244558 0.0014357467404293939 0.0017716076163419964 -0.047280112672200093 -0.0066403854733646916 0.0027931564125117676 -0.0038748284070113429 -0.00055416687863008062 -0.0031003852693601104 -0.0027173539660959442 0.0020484640168968193 0.0030324662405574131 -0.011322351721907412 0.041989070201782663 -0.001292625387021584 -0.0016438317405027018 0.0020137420556858455 0.02074261434423115 -0.001166189246426115 -0.013602087107064257 -0.0051249916271427932 0.0017008082920296891 0.00029580189213076292 -0.013211212693126967 -0.006185111402493261 0.0023953490807881814 0.0075742740893236437 0.0059346261429491344 0.0034879694172272736 0.0089174733436763257 -0.0030167837254216003 0.0051906439073208738 -0.0028157307272318561 0.0091073222249082354 -0.0016169560973363041 0.00067969583672768499 0.0034031367356864347 -0.00027261701078432673 0.0010804281548634073 -0.0002143858741346357 -0.005952273312695374 -0.012157817912559042
leaf_weight=15145.580465182662 16877.246645197272 7944.8289411365986 599.93040192127228 2545.9537654966116 192.68288503587246 5770.9662453085184 35848.919776171446 689.31363129615784 50316.81061385572 11730.29814901948 44135.345280379057 12122.424798622727 298.88072524964809 7960.5449171811342 33937.406331881881 12582.578389957547 7191.3051278740168 4510.8247278928757 16126.192426979542 8769.9433538764715 82.185913681983948 388.17913430929184 9445.7378570735455 28348.855801925063 138.38990552723408 12694.702090576291 8548.6931471526623 10681.20948150754 37925.676370605826 410.66762679815292 32035.408400535583 61025.60417163372 28596.629786640406 7347.6739178001881 104.69780451059341 13178.000130802393 576.72266198694706 47287.330770254135 312.30912038683891 34205.512939155102 13893.013061761856 5113.6564386188984 86261.303478181362 12190.322978422046 3005.8385933190584 8578.8211238533258 1309.6286956965923 14810.977832049131 23221.152535811067 23221.675658717752 20704.730412960052 16912.605077534914 9795.758274897933 31322.187671497464 369.21291247010231 8712.6282928586006 76777.67108862102 21909.151657953858 19592.685959994793 26242.727714732289 10129.170261561871 9011.4493917822838 252.09401261806488
leaf_count=60597 67523 31792 2400 10195 773 23085 143421 2773 201272 46944 176553 48496 1196 31872 135864 50333 28767 18044 64507 35096 330 1554 37787 113397 559 50810 34201 42732 151713 1643 128167 244110 114389 29425 419 52714 2307 189154 1250 136859 55684 20456 345053 48768 12038 34342 5240 59249 92890 92892 82824 67682 39185 125330 1477 34854 307130 87638 78377 104979 40519 36059 1009
internal_value=-6.25546e-08 0.000642158 0.00137129 -0.00648093 0.00192738 0.00253156 -0.000424539 0.0182922 0.00333454 -0.00524544 0.00121728 -0.00327381 -0.00422926 -0.00601512 -0.00667485 0.00391246 0.00444494 0.00504812 -0.000549748 -0.00252396 -0.00136252 0.0155208 -4.5855e-05 0.0031067 0.000275829 -0.00631708 -0.000535199 0.000572072 0.000776444 -0.0143561 -0.00177122 0.000633047 0.00213169 -0.00777034 0.00123981 0.00112089 -0.0123307 0.00129276 0.00209249 -0.00037339 -0.012507 0.00121825 0.000839295 -0.00165226 -0.00554573 -0.00802847 -0.00245798 0.00587325 0.00629394 0.00508315 0.00734146 -0.00457492 0.00346086 -0.00362506 0.0165079 0.00139597 0.00112 0.00431125 -0.00164633 -2.00712e-06 -0.00186749 -0.00489346 -0.0210941
internal_weight=1.07197e+06 975318 822231 96652.7 627836 459649 194395 1289.24 285322 80213.7 174327 153087 102054 49839.6 53015.4 223614 172984 137197 193105 52214.6 51033.3 687.06 157257 40931.4 168187 49152.5 43088.5 115775 133449 549.058 41481.1 146647 35787.9 41285.1 61708.6 61234.7 769.406 60465.3 50629.1 42754.2 16439 102511 132900 22871.5 41192 11584.7 27198.3 96265.1 81958.5 38032.7 43925.9 29607.3 14306.6 40092.1 473.911 94973.9 92903.9 27680.1 34738.3 41485.6 15242.8 10321.1 334.28
internal_count=4288698 3901764 3289157 386934 2511472 1838676 777685 5173 1141336 321055 697340 612607 408416 199494 212233 894492 691970 548814 772512 208922 204191 2750 629091 163730 672796 196744 172399 463137 533822 2202 165954 586617 143156 165289 246844 244948 3080 241868 202522 171060 65879 410064 531620 91500 164872 46380 108822 385084 327855 152141 175714 118492 57229 160426 1896 379907 371637 110723 138974 165954 60975 41299 1339
cat_boundaries=0 5 9 13 17 21 25 29 34 38 42 46 50 54 58 62 66 70 74 78 82 86 91 95 99
cat_threshold=294945 2297106690 151008384 160442546 1 606302722 153092704 572523778 465950 315359232 2299669507 297488 1230006403 2151817730 1073852044 270676484 88168706 148181160 536975040 1627389960 2472691720 3900705664 1611694240 848560650 841483009 293863436 864178337 2152776398 134217928 539151010 1351123008 547356942 2215052308 1 440535118 1158702088 8913489 1912701444 134949010 1174405700 42205184 67589376 570556416 3255836941 2550175878 1276486018 608331778 211817192 681574400 335779914 32 2283929858 12416 151005312 134320459 1082429472 2538291461 537493504 3309632 2148273216 36319281 2690660129 3363849408 839958728 3526393890 571228416 3426781521 207921152 1233846305 4849681 3028304964 637537865 2147500309 1113593352 746587188 468975617 151535752 3760226512 203429392 1174979232 3232384002 2216955976 176189456 318776321 2214938646 537068033 1 2151677952 16782336 150996994 1 69800960 264257 1946191872 71716865 140720288 1342178240 8652290 2202284364
is_linear=0
shrinkage=0.03


Tree=7
num_leaves=64
num_cat=21
split_feature=12 14 12 5 11 17 21 11 16 8 17 2 21 15 12 5 11 5 14 21 21 10 12 11 21 21 3 21 21 21 12 12 12 21 21 12 8 1 11 16 5 12 21 12 21 21 10 12 21 21 16 10 21 21 21 11 3 16 21 21 17 5 15
split_gain=4669.38 2840.79 851.337 779.157 705.938 677.528 637.198 616.329 474.203 462.098 333.057 322.984 301.41 250.861 239.869 210.236 200.903 255.525 199.559 198.624 195.103 190.724 254.301 174.366 171.485 170.569 170.563 168.087 162.008 147.056 150.636 146.758 145.126 140.858 130.848 128.287 127.351 123.277 123.009 120.237 120.02 117.334 114.076 112.945 111.376 110.791 109.305 108.928 108.092 106.737 105.834 112.574 121.434 104.683 100.751 98.8845 93.151 92.1105 90.7857 89.4893 88.2069 88.5722 86.9252
threshold=0.89827504754066478 0.82089537382125866 0.97332462668418895 0.69363072514534008 0.10221791267395021 0.27669246494770056 0 0.0079127782955765742 0.84488996863365184 0.48075138032436376 0.72482979297637951 0.30027611553668981 1 0.52687248587608349 0.011771943420171739 0.52740049362182628 0.01169385062530637 0.016099767759442333 0.58251804113388073 2 3 0.68962547183036815 0.011771943420171739 0.85928907990455639 4 5 0.45396417379379278 6 7 8 0.83440566062927257 0.0038688491331413393 0.99263459444046032 9 10 0.24735881388187411 0.012108669150620701 0.73705166578292858 0.0041439326014369735 0.91231846809387218 0.94475695490837108 0.18464680761098864 11 0.0038688491331413393 12 13 0.13304674625396731 0.097963478416204466 14 15 0.81798177957534801 0.50909420847892772 16 17 18 0.2196655869483948 0.35889816284179693 0.94397369027137767 19 20 0.67738667130470287 0.5354343354701997 0.15804775804281238
decision_type=2 2 2 2 2 2 9 2 2 2 2 2 9 2 2 2 2 2 2 9 9 2 2 2 9 9 2 9 9 9 2 2 2 9 9 2 2 2 2 2 2 2 9 2 9 9 2 2 9 9 2 2 9 9 9 2 2 2 9 9 2 2 2
left_child=1 3 8 4 16 33 27 14 28 10 18 42 60 58 -5 31 17 43 19 46 -4 45 40 29 -10 -12 44 36 -2 -13 62 38 57 -3 -24 -27 -6 -30 -14 56 -23 49 -9 -1 -20 -17 -8 -29 -18 -21 51 52 -43 -15 -53 -33 -35 -22 -11 -26 -7 -62 -31
right_child=2 5 20 7 6 12 9 11 24 13 25 23 15 53 -16 21 48 -19 26 41 32 22 34 -25 59 35 -28 47 37 30 -32 55 -34 39 -36 -37 -38 -39 -40 -41 -42 50 -44 -45 -46 -47 -48 -49 -50 -51 -52 54 -54 -55 -56 -57 -58 -59 -60 -61 61 -63 -64
leaf_value=-0.04130239970296716 0.00099861045666978991 -0.0030850887105593225 -0.0050109161675370214 0.029824917890035732 0.0090998036471520646 0.0016223552271266389 9.290680420865832e-05 -0.0068757385046558364 -0.011987178144681943 0.00091311031607125323 -0.0017007289626629562 0.002641898398332186 -0.04019916773841118 -0.00085355779837615556 0.002114373712630401 -0.0074889476412597572 0.0024786373889322693 -0.0039598187458173909 0.015312677293404043 0.0054718327301717324 -0.0088139338356071559 -0.0025068859789802241 -0.011503917193952603 -0.0020487509832761647 -0.0033196624212955446 -0.0002207148710900532 0.0044253929576886439 -0.00168669371729237 -0.0017180382626770299 -0.0016086831293435652 -0.0032134588620067249 -0.0043932750560902109 -0.01518380122173634 0.017418433848426212 -0.0065779211964995974 0.0034419592139926384 -0.0016051174520488563 -0.004944776844815783 -0.0048474701733157996 -0.0065328096334128722 0.028038986797099364 0.0060492239771760071 -0.0023504770260788371 -0.013317795687510537 0.0076323080879946046 -0.0026751003733726094 0.0031605683633109966 0.0014538847292351984 -0.00086014699415190229 0.0011999790792210096 0.0005806054475052465 0.0051890458968030335 0.0036007319354442197 0.0013088504305334724 0.0087890685923044855 -0.0018340498633649066 0.0051553686622615655 -0.014271454919446334 0.0045538900410416749 -0.0074587747994490482 -0.00031050265450066242 -0.0036084228610484921 0.00086020058414717484
leaf_weight=230.52187062799931 9302.3681646287441 2345.2457202374935 5231.1695860773325 841.01743823289871 1030.1321557313204 7814.0709176659584 13304.157157242298 6625.4887376576662 5870.6292175501585 8161.0106230825186 11594.954816579819 24432.166934102774 174.06734012067318 28301.726305186749 425.93511392176151 5533.3789854645729 10369.571262449026 7006.1270259171724 2963.7658182829618 7940.0455353558064 13299.585192963481 203.39627712965012 6271.4175204485655 28421.056327924132 6841.4622040390968 11990.50003477931 7851.9442796111107 11020.914536774158 20880.995763838291 15357.189960598946 11302.271334707737 23604.742876335979 6771.0487380772829 594.42984627187252 22732.450406402349 30359.397769764066 32608.18633620441 21844.859414279461 184.36946158111095 751.22164991497993 262.22953429818153 30233.338250935078 20868.136923447251 309.11788560450077 4250.5786303877831 19658.925468564034 49139.994357213378 100498.7382376343 54708.959358692169 15713.006729438901 4747.7832664698362 16256.404496759176 46639.854238927364 69781.397924244404 12594.076618388295 32173.42289313674 9427.9117058813572 3556.4117553532124 25719.576109528542 15685.084355816245 14663.490626052022 14696.24675437808 77949.714977547526
leaf_count=931 37217 9383 20950 3386 4121 31263 53218 26506 23517 32645 46382 97733 700 113215 1704 22148 41480 28028 11857 31761 53277 814 25118 113703 27382 47964 31410 44088 83542 61435 45218 94461 27171 2378 91012 121441 130449 87444 738 3006 1051 120946 83482 1237 17005 78671 196568 402014 218849 62853 18992 65032 186573 279138 50381 128735 37716 14252 102882 62814 58663 58819 311829
internal_value=-9.01026e-08 0.00066702 -0.00587665 0.00139765 0.00191221 -0.00296819 0.00228394 -0.000302432 -0.00428981 0.0029051 0.00362623 -0.000445486 -0.0035476 0.00145378 0.0205416 -0.00433187 -0.000865222 -0.00549897 0.00416268 0.00390728 -0.0102977 -0.00565722 -0.00729675 7.81822e-05 -0.00740842 0.00152104 0.00749237 0.000582328 -0.00258698 0.000546879 5.7008e-05 -0.00304149 -0.0114597 0.00356466 -0.00765068 0.00240369 -0.00127576 -0.0033678 -0.0221628 0.00501336 0.0146548 0.0045584 -0.00344564 -0.025382 0.0108252 -0.00373792 0.00250707 0.00114313 -0.000327408 0.00263825 0.00496964 0.00516645 0.00456541 0.000684629 0.0067667 -0.00291768 0.00588736 -0.00996796 0.00367947 -0.00620526 -0.00120771 -0.00196239 0.000453518
internal_weight=1.07192e+06 962640 109284 801549 615326 161091 542701 186223 80425.4 397544 265580 184956 147972 131964 1266.95 110798 72624.3 7545.77 211635 196569 28858.2 54661.8 29469.5 157462 28397.2 53944.9 15066.3 145158 52028.2 129041 104609 56136.6 23627 13118.8 29003.9 42349.9 33638.3 42725.9 358.437 10773.6 465.626 134125 27493.6 539.64 7214.34 25192.3 62444.2 111520 65078.5 23653.1 110471 105724 76873.2 98083.1 28850.5 55778.2 10022.3 16856 33880.6 22526.5 37173.8 29359.7 93306.9
internal_count=4288698 3851132 437566 3206456 2461460 644676 2170935 744996 321916 1590263 1062383 739906 592193 527880 5090 443448 290525 30196 846596 786324 115650 218814 117995 629918 113713 215787 60272 580672 208203 516215 418482 224634 94700 52483 116130 169405 134570 170986 1438 43100 1865 536538 109988 2168 28862 100819 249786 446102 260329 94614 441924 422932 307519 392353 115413 223196 40094 67529 135527 90196 148745 117482 373264
cat_boundaries=0 5 10 14 18 22 26 30 34 39 43 47 52 56 60 64 68 72 76 80 84 88
cat_threshold=38010881 2297114880 134231168 152152242 1 2684494338 1074897196 270546946 1142263846 1 270042226 570426882 2168604740 1149376073 606284418 136385120 681575424 1342543946 411041792 3263457281 1212658225 2207252864 268634252 16779915 1371996445 41959937 0 2283798784 12416 150997120 673405090 1241776872 570425602 17242136 203577090 541376 548668418 2214990924 1 9175066 1109430816 572792842 4049770497 411303948 2466399361 2153300684 10485961 5013624 50795555 50340736 4737164 1 1409958032 34623043 348670488 804096 9733292 813700098 1749173832 46155912 1113083920 805306536 539541570 2423304984 1610758664 1359005865 269583113 838860800 2156015744 1343275240 1352663082 573309184 738396546 1158693898 549587537 1912603140 3240255628 1360019529 336625707 572801280 875170410 1360281672 553910784 1077941773 69727778 134222408 547357698 334862
is_linear=0
shrinkage=0.03


Tree=8
num_leaves=64
num_cat=0
split_feature=12 8 17 12 10 16 16 15 8 15 5 5 12 15 11 11 12 0 17 17 0 12 10 0 10 5 12 0 0 12 0 10 12 11 7 11 12 0 12 15 17 12 2 10 12 15 6 0 12 10 0 11 17 8 5 15 17 16 15 17 17 0 3
split_gain=4397.88 2659.15 884.392 714.388 611.11 543.915 432.304 422.348 324.573 476.223 309.31 287.205 285.307 237.963 233.746 221.469 205.359 204.309 195.742 194.567 187.048 209.271 244.742 180.899 177.387 171.708 201.972 172.739 161.117 186.789 149.556 145.086 141.567 130.922 130.837 125.608 125.44 170.404 124.946 122.839 205.665 122.291 113.378 110.236 107.426 104.922 104.742 98.6033 99.6674 98.2773 90.0502 89.8759 88.9466 92.0268 85.1046 84.8934 118.228 102.793 98.5136 280.28 135.008 84.5979 83.868
threshold=0.91008993983268749 0.70159438252449047 0.74472510814666759 0.98490974307060253 0.58673828840255748 0.82174623012542736 0.84872788190841686 0.57795989513397228 0.3865212500095368 0.55876168608665477 0.37584835290908819 0.62659552693367015 0.0038688491331413393 0.31135165691375738 0.35775424540042883 0.046731758862733848 0.0078657208941876906 0.90127441287040722 0.35207019746303564 0.89084267616271984 0.20166052132844928 0.26366618275642401 0.4191859662532807 0.1112036667764187 0.035206543281674392 0.59475487470626842 0.24735881388187411 0.099121063947677626 0.80722326040267955 0.14474482089281085 0.016207456588745121 0.99214139580726635 0.74851077795028698 0.058595091104507453 0.34049384295940405 0.0079127782955765742 0.0038688491331413393 0.067799098789691939 0.085705436766147627 0.66016411781311046 0.039799626916646964 0.77184581756591808 0.2494325861334801 0.39586681127548223 0.0038688491331413393 0.47640965878963476 0.23398283123970035 0.048057667911052711 0.0038688491331413393 0.36036656796932226 0.74806293845176708 0.79936558008193981 0.051583614200353629 0.2083716690540314 0.98429498076438915 0.36626447737216955 0.17524740844964984 0.32855379581451422 0.77270662784576427 0.15231674164533618 0.035792453214526183 0.043993398547172553 0.80330282449722301
decision_type=2 2 2 2 2 2 2 2 2 2 2 2 2 2 2 2 2 2 2 2 2 2 2 2 2 2 2 2 2 2 2 2 2 2 2 2 2 2 2 2 2 2 2 2 2 2 2 2 2 2 2 2 2 2 2 2 2 2 2 2 2 2 2
left_child=1 2 5 6 30 8 34 16 9 11 14 15 17 35 41 47 -6 -12 39 42 31 -22 50 -10 -25 26 36 -28 29 -26 38 44 49 -31 -2 -13 37 -4 -3 40 -11 -9 -14 -20 -17 -29 -42 48 -1 -32 -23 -30 -15 -54 62 56 57 -35 60 -60 -57 -36 -44
right_child=3 4 25 -5 7 -7 -8 10 23 18 12 13 19 52 -16 20 -18 -19 43 -21 21 22 -24 24 28 -27 27 45 51 33 32 -33 -34 55 61 -37 -38 -39 -40 -41 46 -43 54 -45 -46 -47 -48 -49 -50 -51 -52 -53 53 -55 -56 58 -58 -59 59 -61 -62 -63 -64
leaf_value=-0.045338049995231819 -0.00037011231554102931 -0.048255212578119669 -0.043146362473751761 -0.011808017154075558 0.026271618625002793 -0.0013278851111011988 -0.0078210586108923251 -0.0029369278412630971 -0.0017539422657733156 -0.0021409336306251812 -0.0033731928409129722 0.025390366165588346 -0.0076536723390959321 -0.0027792811827002549 0.00061375695490609226 -0.03424535140065442 0.00092411211973600371 0.03296371831024144 0.0082235244624346039 -0.0072544808084655087 0.0022181248247858782 0.0037973071837916583 0.0065687028777601476 -0.0018156509092703019 0.00032633597796089556 -0.0022062308347869731 -0.0019485592121399155 0.0028965147830919769 0.0013396550669532833 -0.0016328221146721543 0.0015130515880903677 0.01474949196036607 -0.0019922728019278846 0.016204436555386458 -0.010190367665589131 -0.0006459447499262954 -0.0015291273812997402 -0.0045512474405079587 -0.0091364146716244963 0.012610556495375323 0.005481372280344351 -0.010400267789413133 -0.0021376962229688427 0.0013572474511597402 0.001346863409016588 3.6710690815092162e-05 0.012883306560150506 -0.0011397527082795511 -0.0067353431983251466 -0.00059583974772470748 -0.0008372276671536758 -0.0021580635453930489 0.0086822795375414083 0.003142159595957724 0.0029418176301366835 -0.002611159306180479 0.0032763087451259947 0.006275958883182174 0.015312779041258611 0.0020890882115989335 0.0026003268784046997 -0.0037449140028257811 -0.0045793438550232723
leaf_weight=89.042157262563705 11086.367834448814 93.532445356249809 152.05549907684326 16419.388870567083 291.81080542504787 38855.920922726393 29559.152817085385 31034.525090962648 14322.862483993173 1768.9970723241568 250.60446229577065 166.4329501837492 6969.1441921144724 1583.3761118352413 21280.556813016534 75.40482684969902 16796.196577399969 308.16897533833981 3188.6811422407627 22481.873667865992 53493.436954706907 75321.378432795405 35355.974575266242 12022.339932367206 36148.826556786895 40813.400047838688 13232.525991886854 33097.4915291816 14601.048108577728 5899.1921665668488 42593.439258486032 732.13278277218342 26772.360458999872 1161.6605030745268 1932.5166008919477 38976.150887951255 33994.516029894352 321.90196989476681 347.74634666740894 5855.6450071185827 3357.7482745796442 2113.7140403240919 18649.455196008086 6226.8656380176544 40684.02810652554 17764.664799019694 3576.4810760915279 7638.3514704406261 190.19866432249546 37280.927419066429 3960.851425498724 12077.798749804497 3794.4622140973806 9455.9545202106237 1728.81668394804 4669.4477872550488 16457.357957646251 5022.6052640080452 2068.8516649752855 4783.9420270472765 103489.0419216305 37609.863770395517 39822.345053493977
leaf_count=361 44357 377 615 65879 1177 155447 118413 124185 57296 7077 1003 669 27889 6334 85141 303 67196 1239 12756 90026 213985 301316 141444 48092 144602 163281 52935 132396 58410 23598 170401 2930 107121 4647 7735 155915 135992 1288 1392 23429 13433 8459 74622 24911 162744 71067 14308 30555 761 149160 15845 48318 15179 37826 6921 18679 65834 20092 8276 19137 413977 150550 159395
internal_value=-1.01304e-07 0.000604678 0.00157101 -0.00610569 -0.00193475 0.00209726 -0.00493757 -0.0030987 0.00234927 0.00300934 -0.0036257 0.00265127 -0.00470352 0.000691756 -0.00183872 0.00313732 0.00136024 0.0166365 0.00706305 -0.00483704 0.0033234 0.0037687 0.00449196 0.00151104 0.00172531 -0.000569867 0.000107435 0.0011036 0.00193173 0.00225472 -0.000176622 0.0015182 -0.00010414 0.00274011 -0.00325335 -0.000533827 -0.00174406 -0.0170613 -0.0175861 0.00924434 0.00697487 -0.00341404 -0.00402738 0.0036864 0.00127944 0.00189828 0.00930472 -0.0017853 -0.0192696 0.000528367 0.00356538 -0.000242697 0.0039276 0.00473146 -0.00360696 0.00292774 0.0046086 0.00814811 0.00259654 0.00608734 0.00237504 -0.00406092 -0.00380115
internal_weight=1.07187e+06 975264 706449 96607.3 268815 567072 80187.9 161727 528217 295492 144639 271517 90210.4 53976.4 54428.8 217541 17088 558.773 23974.4 89651.6 209623 168132 114638 232725 218402 139377 98563.2 64094.7 206380 179701 107088 41491.6 106647 143552 50628.7 39142.6 34468.5 473.957 441.279 14558.9 8703.23 33148.2 67169.8 9415.55 40759.4 50862.2 6934.23 7917.59 279.241 79874.4 79282.2 26678.8 14833.8 13250.4 60200.6 137653 22641.6 6184.27 115011 6852.79 108158 39542.4 58471.8
internal_count=4288698 3901764 2826060 386934 1075704 2268486 321055 647253 2113039 1182081 578880 1086167 361095 215923 217785 870244 68373 2242 95914 358853 838567 672590 458605 930958 873662 557574 394293 256398 825570 718842 428451 165977 426682 574240 202642 156584 137895 1903 1769 58247 34818 132644 268827 37667 163047 203463 27741 31677 1122 319561 317161 106728 59339 53005 240938 550642 90573 24739 460069 27413 432656 158285 234017
is_linear=0
shrinkage=0.03


Tree=9
num_leaves=64
num_cat=23
split_feature=12 14 12 5 11 21 12 17 16 4 16 21 17 9 21 11 5 21 21 21 17 21 21 21 21 21 5 16 21 21 3 13 12 11 3 21 1 5 12 9 17 13 12 5 12 21 12 16 17 12 7 21 11 12 21 21 21 21 21 18 21 21 3
split_gain=4145.31 2486.72 824.716 693.619 648.162 596.84 575.544 517.256 476.598 349.862 312.398 279.609 272.178 228.844 217.535 185.474 235.354 184.046 183.365 173.123 169.359 168.058 167.485 161.07 159.949 156.105 154.805 149.614 139.446 137.86 132.495 149.742 131.006 130.728 129.614 120.739 117.983 117.916 139.223 117.372 131.473 123.453 115.585 156.559 114.305 106.849 103.541 100.95 100.805 99.8176 98.4974 97.9571 94.784 93.651 92.4256 92.0795 91.6807 91.5164 88.3947 87.7735 148.119 104.75 86.0796
threshold=0.89068889617919933 0.83286800980567943 0.97332462668418895 0.69363072514534008 0.10221791267395021 0 0.0038688491331413393 0.27669246494770056 0.84488996863365184 0.40608590841293341 0.23073425889015201 1 0.21021396666765216 0.32118220627307897 2 0.01169385062530637 0.016099767759442333 3 4 5 0.61066320538520824 6 7 8 9 10 0.869644194841385 0.82174623012542736 11 12 0.47769030928611761 0.25468014180660253 0.99263459444046032 0.85928907990455639 0.0042071396019309768 13 0.73705166578292858 0.34918446838855749 0.0038688491331413393 0.12488707900047304 0.48076047003269201 0.70855221152305614 0.011771943420171739 0.95595255494117748 0.83440566062927257 14 0.0038688491331413393 0.9001106619834901 0.68944731354713451 0.1885916739702225 0.39142151176929479 15 0.19983015209436419 0.255662351846695 16 17 18 19 20 0.32456102967262274 21 22 0.0042071396019309768
decision_type=2 2 2 2 2 9 2 2 2 2 2 9 2 2 9 2 2 9 9 9 2 9 9 9 9 9 2 2 9 9 2 2 2 2 2 9 2 2 2 2 2 2 2 2 2 9 2 2 2 2 2 9 2 2 9 9 9 9 9 2 9 9 2
left_child=1 3 8 4 15 24 26 28 22 13 12 -9 45 14 -7 16 46 -4 -10 -12 27 -13 -2 -22 62 -14 -5 34 -3 -11 31 55 -19 44 -15 -36 -24 38 -23 -31 41 57 43 -39 59 -8 -1 -30 -44 -26 53 -17 -40 -33 -29 -16 -20 -41 -46 60 -21 -61 -6
right_child=2 7 17 6 5 9 10 11 18 29 19 21 25 20 30 51 -18 32 56 33 23 37 36 -25 49 -27 -28 54 47 39 -32 50 -34 -35 35 -37 -38 42 52 40 -42 -43 48 -45 58 -47 -48 -49 -50 -51 -52 -53 -54 -55 -56 -57 -58 -59 -60 61 -62 -63 -64
leaf_value=-0.039503519850452522 0.0010995168486538896 -0.003276412416616188 -0.0045938576558818608 0.0042421149312563593 0.012758853875465912 -9.6150131778927837e-05 0.015464917249523638 -0.0010377579589279501 -0.0028798330496756963 0.0031784007910011956 0.0023679495971375675 -0.0071064017829531832 0.00053517585761215071 0.019626214019228271 0.0052397396138661638 0.0023423834099253978 -0.0037880419571842874 -0.0094394656499212949 -0.011391228184353093 -0.0042277413888651468 0.005257368787946296 -0.02496383764226686 -0.0015331165447450663 0.0015486323196775573 -0.00067772937809790234 -0.005591807344828224 0.033698889878809653 0.0072808581390766229 0.0061314324128214689 -0.00070137463192898413 0.00083370395118060193 0.0034980516923584395 -0.014399273118705367 -0.0024439630277638081 0.003575229018040557 0.0062614822976629798 -0.0045421510689527154 -0.0025132093134869345 -0.0040600717944367978 0.0014397642743871821 0.0007145543919570244 -0.00062415611109186298 -0.0025502602565771909 0.025974933278302779 0.002683533770519316 0.0019839063348247514 -0.012869557063628648 -0.0048124044181630582 -0.0055016546484670647 0.0015164013394579256 0.004202509006175195 -0.00082642225298813277 -0.00082319798113489437 0.010835299390163429 -0.0035020600325242654 0.0017229585475155534 -0.0070757263310524997 0.0041112346929635885 -0.004167930953825341 0.0027528736443060138 0.00057046139965581894 0.00023186415093962302 -0.0014602867669541062
leaf_weight=230.7141020745039 10750.598173588514 2259.1359748393297 5228.3463599383831 228.54702779650688 386.21946410834789 22791.521175280213 705.43091526627541 33634.954430520535 7727.4314718097448 50448.593524172902 25472.415232598782 15197.42730422318 4624.8247479945421 587.69692535698414 9898.804005920887 10400.991375416517 7156.186374232173 16842.548692777753 6185.1434054374695 8925.5822373330593 17093.217047199607 241.46210417151451 23320.642558291554 27626.781003788114 23618.711985513568 19515.867544367909 561.74561624228954 962.69110448658466 7874.5267014056444 21280.273345157504 14671.585275307298 2175.0999971330166 6759.5528042018414 21998.551410540938 21540.993457019329 51464.544197887182 23675.021434634924 521.84736494719982 13714.646048948169 17244.628319695592 60022.888385742903 8665.5712331235409 14218.070822164416 257.91687947511673 2091.6505037099123 2091.4698649048805 318.04074659943581 835.59976951777935 39426.758233740926 88584.285798326135 8863.752418845892 55928.064146503806 20111.17859365046 5725.7771373689175 2682.5578250586987 20946.255216643214 16885.559675499797 35371.577818199992 8724.1524387001991 20439.985327482224 16420.593503549695 54146.394701734185 33517.525956466794
leaf_count=939 43013 9039 20950 915 1545 91171 2822 134600 30937 201810 101895 60855 18502 2353 39601 41606 28630 67529 24794 35707 68378 972 93307 110514 94483 78083 2279 3851 31502 85125 58691 8701 27171 88013 86174 205898 94788 2089 54891 68984 240110 34665 56907 1036 8368 8367 1273 3344 157870 354353 35459 223729 80472 22907 10731 83793 67653 141497 34906 81767 65689 216608 134087
internal_value=-1.08519e-07 0.000654126 -0.0053203 0.00131092 0.00179276 0.00214984 -0.000296054 -0.00291611 -0.00388473 0.00274915 -0.000405321 -0.00341698 -0.00339175 0.00360602 0.00241098 -0.00084111 -0.00524675 -0.00972792 -0.00689898 0.000102961 0.00443935 -0.00418795 -0.00227651 0.00296849 0.000508404 -0.00441889 0.0252342 0.00529052 0.00335127 0.00183012 0.0033284 0.00409721 -0.0108572 -0.000331603 0.00558441 0.0054707 -0.00304903 -0.00368558 -0.00229996 0.00135253 0.0017132 0.00269082 -0.00455299 0.00689238 8.77043e-05 0.00546147 -0.0241734 0.00507185 -0.00472004 0.00105417 0.00638077 -0.000328816 -0.00213655 0.00881986 -0.000634541 0.00285493 -0.00823887 0.00323735 -0.00284141 0.000405051 -0.00111957 0.000923563 -0.00129667
internal_weight=1.07182e+06 954446 117375 806153 620206 546172 185947 148294 88544.4 400065 185157 137324 26937.6 207031 85072.8 74034 7704.94 28830.4 30798.1 158219 121958 103689 57746.3 44720 146107 24140.7 790.293 77238.5 10969.3 193034 62281.3 47609.7 23602.1 132747 73593.2 73005.5 46995.7 88491.9 34067.3 142585 121305 61281.8 54424.6 779.764 110748 2796.9 548.755 8710.13 53644.8 112203 16764.6 66329.1 33825.8 7900.88 3645.25 30845.1 23070.7 52616.2 10815.8 99932.6 25346.2 74586.4 33903.7
internal_count=4288698 3818556 470142 3224979 2481058 2184881 743921 593577 354492 1600413 740727 549692 107774 828222 340323 296177 30842 115650 123384 632953 487899 415092 231108 178892 584468 96585 3194 309007 43885 772191 249152 190461 94700 531058 294425 292072 188095 354237 136335 570381 485256 245146 217902 3125 443045 11189 2212 34846 214777 448836 67067 265335 135363 31608 14582 123394 92447 210481 43274 399771 101396 298375 135632
cat_boundaries=0 5 10 14 18 23 27 31 35 39 43 47 51 55 59 63 67 71 75 79 83 88 92 96
cat_threshold=38010881 2297114880 134231168 152152242 1 2684494338 1074897196 270809088 1142001958 1 338276898 268436998 67322116 1153569868 606284418 136385120 681575424 1342543946 86374946 153096776 547357698 328718 1 203581184 1410122436 548405250 2214985804 143919244 3012314114 17842824 27263112 539187202 1241514984 580911106 17242142 1008788242 1342193700 67797078 3014732 0 2283798784 12416 150997120 637549456 2688024968 3760194562 807671297 1082458138 1646269088 579608586 2971801601 9974400 838893731 3289661454 3760981000 874031748 1074791435 2169505806 1654784001 304169218 14248068 33915168 173310208 1113083920 805306536 539542082 2423304472 204692284 67110980 857752066 4604160 2827092368 1141932200 1620607496 570426112 415236096 2189690881 3628446257 2257592704 352485458 1157892672 310512401 68 554438786 1179906 267020 66866 1 20973704 2302805250 251929952 185664386 16848932 559939840 3540788492 939624978
is_linear=0
shrinkage=0.03


Tree=10
num_leaves=64
num_cat=25
split_feature=12 15 12 21 8 17 17 16 5 15 15 21 16 12 10 18 21 21 10 21 21 21 12 21 0 21 21 18 18 6 16 17 21 21 9 18 21 21 12 10 5 12 5 21 21 21 0 6 13 21 21 12 5 12 21 0 21 21 21 21 21 0 12
split_gain=3911.34 2240.18 913.143 639.86 615.27 594.376 539.142 516.36 322.518 317.351 317.182 262.029 258.761 250.04 249.787 230.226 219.991 214.765 201.956 198.631 185.848 177.85 176.623 167.875 146.787 144.487 138.103 137.979 163.776 137.69 135.447 133.441 130.05 128.156 127.981 123.109 160.502 122.58 120.043 116.189 115.093 120.624 106.445 103.065 101.904 100.349 100.108 99.0653 111.765 104.211 101.568 98.5374 101.248 139.138 103.684 95.0156 94.2612 92.3339 91.8844 89.9342 87.7067 87.216 86.9802
threshold=0.87023079395294201 0.84838971495628368 0.96187233924865734 0 0.47312739491462713 0.26487275958061224 0.63009554147720348 0.84488996863365184 0.52740049362182628 0.64458805322647106 0.53896331787109386 1 0.81798177957534801 0.98861461877822887 0.75322309136390697 0.31676010787487036 2 3 0.50909420847892772 4 5 6 0.0038688491331413393 7 0.067799098789691939 8 9 0.24988467246294024 0.15468436479568484 0.73651224374771129 0.80233532190322887 0.25717711448669439 10 11 0.24686046689748767 0.1350376754999161 12 13 0.011771943420171739 0.75322309136390697 0.58303952217102062 0.255662351846695 0.51581931114196788 14 15 16 0.91720598936080944 0.5017763376235963 0.6186923384666444 17 18 0.67411163449287426 0.96801653504371654 0.066172808408737196 19 0.71241238713264476 20 21 22 23 24 0.29939387738704687 0.0038688491331413393
decision_type=2 2 2 9 2 2 2 2 2 2 2 9 2 2 2 2 9 9 2 9 9 9 2 9 2 9 9 2 2 2 2 2 9 9 2 2 9 9 2 2 2 2 2 9 9 9 2 2 2 9 9 2 2 2 9 2 9 9 9 9 9 2 2
left_child=1 3 7 15 6 26 9 20 17 12 51 -8 16 30 25 21 34 -7 33 -9 -2 27 24 -16 -19 -10 -3 28 35 -22 57 58 -14 -12 -5 -1 -37 -20 46 55 41 -18 -13 -44 -32 -15 -25 48 50 -50 -24 52 54 -54 -6 -17 -49 -4 -11 -21 -40 -43 -57
right_child=2 5 13 4 10 8 11 19 14 31 18 42 32 45 23 39 40 22 37 59 29 -23 47 38 -26 -27 -28 -29 -30 -31 44 -33 -34 -35 -36 36 -38 -39 60 -41 -42 61 43 -45 -46 -47 -48 56 49 -51 -52 -53 53 -55 -56 62 -58 -59 -60 -61 -62 -63 -64
leaf_value=0.00015948566750624468 0.0016720120077942078 -0.0035294670510909549 -0.0085780386778630952 0.00059157937138476502 0.0046627948119902507 0.00097938680368860162 0.0026949926908345079 -0.0022264705172753418 -0.0074826130457477857 0.0036402364950178607 0.0029785912145357469 0.00052401035679932033 0.0050054424482162191 -0.016345997708302785 -0.01287505692233008 0.0015058273957424709 0.0031643368253185026 -0.043153108344761215 -0.003113614532637757 -0.011000689883907741 -0.00084675539859462338 -0.0028653062366981574 -0.0072147178839565103 -0.003073178416426276 -0.0086960959980411142 -0.0020690692789940737 0.0068931062790749086 -0.0032556777855728791 0.0039704335840659881 -0.0038900397581546056 -0.0033785040267023817 0.0045286987278216981 -0.0030086928738318748 0.00028929372541132144 0.0030991397018653127 -0.021919580907415363 -0.0022472415272540079 -0.00044697446160433635 -0.0030803697522043551 -0.0013315490497931744 0.0027285890156736737 0.0040294421094662757 -0.0058237750321216203 -0.00090222350522429356 -0.01006874275654847 -0.010249639372000819 0.027459583559872668 -0.0092823226663707216 -0.0048486156743444316 0.0006673351484685091 -0.0023266993105510252 0.00063065513834165273 0.029230131381742953 0.0034309186614899208 0.0018753820760780018 0.026729850730654221 -0.0035152583134806983 -0.0032092469955240983 0.013668100654079208 -0.006602464671812463 -0.0074026652680100977 0.0062797552801963511 -0.00060011410307157396
leaf_weight=11234.824069961905 12602.094088435173 1374.0981082320213 4102.4259141534567 28066.470828205347 17688.742631047964 16868.69466739893 42871.670849561691 8267.8234313577414 5448.8522665649652 1047.5637630820274 21424.399943813682 42589.493563815951 2306.5604579746723 3520.367067322135 3841.864057585597 84450.678900241852 29967.953812375665 170.97626282274723 20634.037226811051 5572.359213501215 26679.279891446233 38960.231881439686 5027.8660670220852 215.60753245651722 325.72417391836643 24055.324103459716 6641.266211643815 8022.5480945706367 11061.975077912211 26904.040795281529 2527.4453145116568 3823.3931528925896 8503.6724830269814 62451.499190807343 52920.631587535143 533.38324742019176 1228.8846250623465 62627.487041845918 5638.0032479763031 23161.496853932738 34459.348956406116 24558.31292130053 5033.3416947871447 16046.225865423679 12089.86553928256 8918.7102870494127 171.70231574773788 3338.3138013929129 3785.1051394939423 16371.518906503916 16223.624035805464 24267.170543298125 309.99711908400059 484.93188148736954 37761.790434449911 104.15464416146278 11115.482035711408 9931.9508889168501 4530.7392417043447 18164.485799208283 17842.344957098365 42546.633939385414 28344.692286655307
leaf_count=44945 50420 5498 16436 112271 70761 67487 171504 33103 21820 4192 85703 170372 9227 14157 15401 337824 119886 694 82555 22340 106743 155872 20120 863 1305 96291 26569 32094 44255 107708 10125 15296 34019 249825 211710 2134 4916 250561 22577 92677 137851 98253 20137 64193 48485 35837 690 13364 15151 65518 64917 97080 1253 1940 151057 421 44490 39781 18134 72778 71478 170241 113393
internal_value=-1.04405e-07 0.000700292 -0.00468942 0.00131434 0.00182021 -0.00282093 0.00265013 -0.0031175 -0.00330832 0.00345933 0.000683179 0.000882209 0.00323179 -0.00844479 -0.00499629 -0.000119215 0.00346214 -0.00198903 -6.18122e-05 -0.00624628 -0.00160402 -0.00150358 -0.0028777 -0.00704254 -0.0206802 -0.00307332 0.00510657 0.000150056 0.0012871 -0.00237494 -0.00689992 0.00886021 -0.0012938 0.000976995 0.00223025 -0.000994532 -0.00836457 -0.00110864 -0.00609401 0.000603385 0.0042199 0.00474938 -0.000338355 -0.00208222 -0.00892351 -0.0119999 0.0104212 -0.00271902 -0.00197131 -0.000369251 -0.00348934 0.00223007 0.00291959 0.0135536 0.00276636 0.00100061 -0.00485872 -0.00478965 0.0118223 -0.00764085 -0.00637073 0.00545673 -0.000498065
internal_weight=1.07176e+06 932481 139281 794025 586922 138456 339272 98190.1 130441 232731 247650 106541 223330 41090.8 57213.7 207103 212519 73227.3 167137 32004.7 66185.4 71041.8 56358.6 27709.5 496.7 29504.2 8015.36 32081.6 24059.1 53583.3 28651.7 9401.7 10810.2 83875.9 80987.1 12997.1 1762.27 83261.5 23867.7 136061 131532 97072.9 63669.1 21079.6 14617.3 12439.1 387.31 55861.9 41408.1 20156.6 21251.5 80512.6 56245.5 794.929 55450.5 112900 14453.8 14034.4 5578.3 23736.8 23480.3 67104.9 28448.8
internal_count=4288698 3730785 557913 3176552 2348021 554233 1357286 393092 522166 931080 990735 426206 893458 164821 229120 828531 850212 293046 668644 128221 264871 284216 225559 111009 1999 118111 32067 128344 96250 214451 114827 37622 43246 335528 323981 51995 7050 333116 95608 544315 526231 388380 254702 84330 58610 49994 1553 223560 165706 80669 85037 322091 225011 3193 221818 451638 57854 56217 22326 95118 94055 268494 113814
cat_boundaries=0 5 9 13 17 22 26 30 34 38 42 46 50 54 58 62 66 70 75 80 84 88 92 96 100 105
cat_threshold=4489249 2296526082 151008384 152053938 1 203424082 1947484192 2684930626 1076789316 506986582 1573377 2151827780 1082381313 2147627522 1073980076 270674436 71314723 84408998 18874444 547356674 334854 1 6508706 1509949640 580911360 554113054 294945 142749698 128 1056816 412352524 571228802 2152778252 2296381640 9482492 956306434 12714620 583024640 2458258 2364000 1621378064 2707556357 202521498 101220548 807666202 2147893248 2847248 16389 4026845470 2215379776 33 0 0 1048576 687937536 1158692993 1880148560 847806988 42074632 34144385 307691532 2789212417 738341376 153653826 673186880 1141214286 8655940 2685542400 3489687605 562578305 584124468 2517389312 2298478602 1353711704 1 75531436 137887810 75502993 730988556 1 3892323348 638059169 3529525762 2686468672 194248744 147079427 3809509400 2183172736 109053004 2348942338 89194740 2160074933 3147276 1442873408 538970640 1654652992 142606344 2189731841 3361190401 2249204112 4339360 3422552076 805307408 924160022 1
is_linear=0
shrinkage=0.03


Tree=11
num_leaves=64
num_cat=24
split_feature=12 14 1 12 21 17 17 12 5 16 3 21 9 12 21 21 21 21 18 5 21 11 16 4 15 21 12 16 17 21 21 12 5 21 21 16 21 21 11 10 11 3 9 12 21 21 21 21 21 17 21 16 3 17 15 15 21 5 21 21 1 11 21
split_gain=3688.73 2356.83 757.642 574.914 569.805 469.644 439.35 437.509 355.82 351.608 330.459 272.495 236.848 224.184 222.97 211.305 199.355 199.309 182.01 152.251 161.395 150.442 147.335 142.63 147.218 178.717 138.577 134.711 133.846 132.671 130.313 124.113 168.369 123.905 123.055 122.65 123.102 118.14 117.522 119.282 117.43 115.766 107.573 106.378 105.224 104.933 101.606 100.877 100.6 96.4882 95.8542 95.812 95.6652 94.3864 90.7985 89.0771 87.5076 87.1426 84.0501 83.527 83.3408 82.7473 81.3991
threshold=0.91415917873382579 0.83286800980567943 0.70991095900535595 0.98490974307060253 0 0.27669246494770056 0.62231051921844494 0.0078657208941876906 0.90533480048179638 0.645473212003708 0.59521824121475231 1 0.21569566428661349 0.29505023360252386 2 3 4 5 0.15468436479568484 0.52740049362182628 6 0.054729571565985687 0.93208396434783947 0.58476993441581737 0.13121948391199115 7 0.78362184762954723 0.22671227902173999 0.14079763740301135 8 9 0.0038688491331413393 0.044075908139348037 10 11 0.14456188678741458 12 13 0.13698051124811175 0.46989852190017706 0.0041439326014369735 0.0042071396019309768 0.0082410699687898176 0.0038688491331413393 14 15 16 17 18 0.4068638682365418 19 0.9001106619834901 0.75601574778556835 0.1213311515748501 0.40991672873497015 0.52687248587608349 20 0.68165919184684765 21 22 0.47007437050342565 0.32609198987483984 23
decision_type=2 2 2 2 9 2 2 2 2 2 2 9 2 2 9 9 9 9 2 2 9 2 2 2 2 9 2 2 2 9 9 2 2 9 9 2 9 9 2 2 2 2 2 2 9 9 9 9 9 2 9 2 2 2 2 2 9 2 9 9 2 2 9
left_child=1 2 4 9 18 33 10 8 -4 59 12 60 14 35 -6 49 -11 54 -1 40 -21 -14 -18 24 25 -23 27 28 -17 -30 -12 32 -20 -3 -25 44 -37 -28 -22 -40 43 -26 -41 -13 -8 -24 52 -5 -16 -9 -43 -35 -33 58 -15 56 -32 -19 -27 -2 -7 -42 -53
right_child=3 5 7 47 6 11 13 15 -10 16 30 19 21 17 48 26 22 57 31 20 38 23 45 34 41 53 37 -29 29 -31 55 46 -34 51 -36 36 -38 -39 39 42 61 50 -44 -45 -46 -47 -48 -49 -50 -51 -52 62 -54 -55 -56 -57 -58 -59 -60 -61 -62 -63 -64
leaf_value=-0.0018855585925186616 0.001739235023033809 -0.0030525300955639239 -0.0010746662246675226 -0.015200652922356296 0.0049999581714077392 0.00069280025988180188 0.0017415971347537356 -0.001411278719737409 0.031915897529897014 -0.0024391622085455935 0.0032044630085408276 -0.037012032228590674 4.5528566684923232e-05 0.004517003449268437 0.0021305584461695881 0.010840619596774483 -0.0059857683419648278 0.001112947025869759 -0.040402385629575002 -0.008605181134842859 -0.0003419664693188413 0.0074930476493352844 -0.015529357024440955 -0.00032306586539957859 0.019962180059923815 -0.0020571662321291102 0.0011832849477285631 0.00080311825869572371 -0.0083706481068268786 -0.00087159564452781986 0.004872379490202805 0.0015244337814266371 -0.0032820290072828702 0.0056650199578879099 0.0035374496324290777 -0.0025074946692214026 0.0017528242392985552 -0.0026216853116439948 -0.0019017504360477116 0.022056092726698014 -0.0039012891595427593 0.0035494043956130067 -0.0060867980880122598 -0.0067642851683801658 -0.0029246210945787139 -0.0084629951330142499 -0.00051461293688579574 -0.009513073323687473 -0.0003344838959648822 -0.0045256611342868441 0.0054521881347233125 -0.011003035672037252 -0.0020984230273458741 -0.00059276232952253788 0.001568059750076313 -0.00044455787391336484 0.00023944297370120116 -0.0021421652215591123 0.013748917015328814 -0.0026665447473241716 -0.0022333531358794214 -0.0014921806383021441 0.0078535230278649407
leaf_weight=32104.058869332075 4654.1648412495852 2388.4102799296379 519.1096992790699 3757.3044571280479 16583.232228040695 14085.920952111483 5368.6182379424572 21514.211748793721 672.89808900654316 10223.683713614941 18415.694467931986 168.80729709565639 8655.4925183951855 24368.449323147535 34771.559067741036 590.67676050961018 27221.254701465368 43421.374247431755 151.39794784784317 10402.461457133293 5531.4581478983164 4001.716641291976 2518.1563501954079 10359.884624063969 460.67594636976719 477.15068918466568 9787.7268476635218 89472.382362261415 3545.9456226229668 5317.3335194438696 6523.1469794660807 85284.888521969318 403.46095716953278 8060.4238011091948 26185.857965514064 8143.6227685660124 24237.537419766188 29260.336514696479 8455.1957407295704 121.35696908831596 29066.593827098608 34243.546581864357 28385.007728710771 282.46311768889427 22655.722976580262 8435.9150916785002 43336.964083328843 12627.095414400101 26035.498776167631 15384.457112729549 80682.944483891129 594.87197582423687 7098.908332362771 11755.423417076468 15358.982995644212 40218.112346246839 8416.9072962552309 8917.3312435299158 810.06899140775204 22722.867653891444 23110.853327959776 23070.482227519155 302.29926700890064
leaf_count=128444 18625 9557 2078 15120 66345 56360 21478 86078 2736 40939 73669 686 34627 97484 139102 2363 109084 173698 620 41698 22157 16011 10110 41444 1846 1909 39158 357919 14189 21275 26096 341152 1615 32247 104754 32577 96957 117089 33842 487 116358 137000 113713 1131 90640 33842 173363 50759 104148 61560 322821 2381 28400 47031 61442 160885 33671 35676 3241 90964 92511 92326 1210
internal_value=-1.5073e-07 0.000539687 0.00117535 -0.00573816 0.00164858 -0.00286698 0.00217428 -0.000570047 0.0175348 -0.00463557 0.00279193 -0.00333422 0.00330298 0.000843088 0.00191707 -0.000693728 -0.00617278 0.00177495 0.000146303 -0.00411276 -0.00525034 0.0039066 -0.00716928 0.0041042 0.00456233 0.00195674 -0.000154087 0.000442989 -0.00296183 -0.00388617 0.00102009 0.000625213 -0.0135191 0.0030059 0.00244316 -0.000576704 0.000680182 -0.00166753 -0.0044251 -0.00503652 -0.00296867 0.00494694 -0.00596517 -0.0182022 -0.00203004 -0.0101133 0.000683359 -0.0108351 0.00107475 -0.00270995 0.00488631 0.00462304 0.00124557 0.00024942 0.00337689 0.000289566 0.0022679 0.000557639 0.00796029 -0.00191676 -0.00112416 -0.00283589 -0.00464937
internal_weight=1.0717e+06 979540 825513 92160.4 649448 154027 481069 176065 1192.01 75776 328597 142681 255023 152472 77390.3 174873 48399 92066.1 168380 105484 52895.5 177633 38175.3 168977 132432 17044.4 137974 98926.3 9453.96 8863.28 73573.9 136276 554.859 11346 36545.7 60405.5 32381.2 39048.1 42493 36961.6 52588.3 115387 28506.4 451.27 28024.3 10954.1 135721 16384.4 60807.1 36898.7 114926 8957.6 92383.8 13042.6 39727.4 55158.2 14940.1 52338.7 1287.22 27377 37196.8 52137.1 897.171
internal_count=4288698 3919255 3302591 369443 2598146 616664 1924552 704445 4814 303564 1314600 571269 1020279 609952 309595 699631 193975 368300 673594 422398 211897 710684 153036 676057 529859 68192 551993 395746 37827 35464 294321 545150 2235 45395 146198 241652 129534 156247 170199 148042 210501 461667 114200 1817 112118 43952 542915 65879 243250 147638 459821 35838 369552 52181 158926 220652 59767 209374 5150 109589 148871 208684 3591
cat_boundaries=0 5 10 14 18 22 26 30 34 38 42 46 50 54 59 63 68 73 77 81 85 89 93 97 101
cat_threshold=38043681 2296516866 151008384 160442546 1 2684494338 1074897164 270547200 1142002982 1 1753234560 1645330561 1921253386 570426121 315359232 2299735043 4491280 1230004355 2324994 136319552 538969346 1275562078 205144338 1896874084 70271490 988228 412352652 3003667457 1079165516 12583048 2147506964 1443922092 1652998160 302256136 1294343 33853504 395318144 9145152 268983298 536873668 2998075655 71712769 1082458138 1126175392 579608586 2703398913 538052634 85207104 578980608 1913225285 2013926536 1108942976 2428502065 2785415169 2269858 1343012928 547361036 2147945524 1 143790608 1342473376 3223996966 1142981633 277872640 2257594369 1346714177 2735739040 1 38043649 12587008 150994944 9437234 1 42210308 2148540672 3506464884 596132768 2164802308 17572456 5341221 3492564992 354034578 1075315725 570558720 4396553 3985703168 33628193 805376 2953347072 278462538 66560 2621544 537034817 695826560 33587688 2106368 554048010 270041157 2148139019 5409729 10290432
is_linear=0
shrinkage=0.03


Tree=12
num_leaves=64
num_cat=22
split_feature=12 15 16 1 17 21 12 12 12 21 0 3 1 0 9 21 21 12 21 16 21 21 17 4 10 18 6 16 14 21 21 21 12 0 12 0 17 2 21 21 21 11 0 9 21 21 9 0 21 16 0 21 9 3 16 21 21 17 21 18 21 21 9
split_gain=3486.06 1996.06 821.115 632.584 536.414 510.113 446.271 367.469 348.833 330.833 286.432 256.356 242.371 242.042 242.032 225.551 221.825 209.875 209.52 180.153 177.244 172.039 167.621 165.67 158.101 151.999 141.493 132.556 130.602 127.194 125.892 125.217 115.673 126.064 113.07 179.947 112.675 112.094 122.759 110.982 109.774 106.352 115.021 158.289 106.323 105.523 105.442 101.803 97.1451 94.5147 94.4449 93.6978 91.8064 93.9755 88.7492 88.4505 88.4083 95.9107 87.7105 86.2876 143.305 91.3536 84.857
threshold=0.87023079395294201 0.84838971495628368 0.80233532190322887 0.63505196571350109 0.26487275958061224 0 0.0038688491331413393 0.20002929121255877 0.98104706406593334 1 0.88225772976875316 0.61480385065078746 0.49347724020481115 0.20166052132844928 0.21952142566442492 2 3 0.97332462668418895 4 0.16832687705755237 5 6 0.81118503212928783 0.73708477616310131 0.66941839456558239 0.15053084492683413 0.73651224374771129 0.89231014251708995 0.47588571906089788 7 8 9 0.0038688491331413393 0.067799098789691939 0.0038688491331413393 0.083639744669199004 0.4068638682365418 0.37860088050365454 10 11 12 0.086225427687168135 0.74806293845176708 0.54804837703704845 13 14 0.99235951900482189 0.095409017056226744 15 0.93208396434783947 0.71241238713264476 16 0.13266330957412723 0.71241444349288952 0.30053794384002691 17 18 0.42648047208786016 19 0.1350376754999161 20 21 0.097488578408956542
decision_type=2 2 2 2 2 9 2 2 2 9 2 2 2 2 2 9 9 2 9 2 9 9 2 2 2 2 2 2 2 9 9 9 2 2 2 2 2 2 9 9 9 2 2 2 9 9 2 2 9 2 2 9 2 2 2 9 9 2 9 2 9 9 2
left_child=1 3 8 5 29 25 10 22 21 -4 -5 13 15 46 20 -6 36 49 -14 44 -15 -2 40 27 -20 59 47 37 55 62 -29 -25 33 -17 35 -27 -8 -18 -39 -30 54 -21 -43 -44 -16 -10 -9 -23 -26 -11 -22 -51 -36 56 -7 -13 57 -54 -45 61 -61 -1 -3
right_child=2 4 9 6 12 7 16 11 45 17 -12 28 18 14 19 32 23 -19 24 41 50 26 -24 31 48 34 -28 30 39 -31 -32 -33 -34 -35 52 -37 -38 38 -40 -41 -42 42 43 58 -46 -47 -48 -49 -50 51 -52 -53 53 -55 -56 -57 -58 -59 -60 60 -62 -63 -64
